digraph Tree {
node [shape=box, style="filled", color="black"] ;
0 [label="duration <= 4.54\nmse = 167836040.457\nsamples = 74789\nvalue = 52549.428", fillcolor="#f5ceb3"] ;
1 [label="duration <= 2.04\nmse = 48164467.464\nsamples = 6734\nvalue = 27931.678", fillcolor="#fbece1"] ;
0 -> 1 [labeldistance=2.5, labelangle=45, headlabel="True"] ;
2 [label="duration <= 1.625\nmse = 12358860.54\nsamples = 1293\nvalue = 20566.808", fillcolor="#fdf5ef"] ;
1 -> 2 ;
3 [label="duration <= 1.29\nmse = 6362576.68\nsamples = 399\nvalue = 17454.396", fillcolor="#fef8f5"] ;
2 -> 3 ;
4 [label="destination_city <= 1.0\nmse = 6063945.846\nsamples = 55\nvalue = 13638.436", fillcolor="#fffdfc"] ;
3 -> 4 ;
5 [label="mse = 0.0\nsamples = 12\nvalue = 17738.0", fillcolor="#fef8f4"] ;
4 -> 5 ;
6 [label="source_city <= 1.0\nmse = 1757162.466\nsamples = 43\nvalue = 12494.372", fillcolor="#fffefe"] ;
4 -> 6 ;
7 [label="mse = 0.0\nsamples = 2\nvalue = 17548.0", fillcolor="#fef8f5"] ;
6 -> 7 ;
8 [label="days_left <= 3.5\nmse = 536293.93\nsamples = 41\nvalue = 12247.854", fillcolor="#ffffff"] ;
6 -> 8 ;
9 [label="mse = 0.0\nsamples = 2\nvalue = 15474.0", fillcolor="#fefbf8"] ;
8 -> 9 ;
10 [label="destination_city <= 3.0\nmse = 2680.037\nsamples = 39\nvalue = 12082.41", fillcolor="#ffffff"] ;
8 -> 10 ;
11 [label="duration <= 1.04\nmse = 447.566\nsamples = 28\nvalue = 12109.929", fillcolor="#ffffff"] ;
10 -> 11 ;
12 [label="mse = 0.0\nsamples = 1\nvalue = 12000.0", fillcolor="#ffffff"] ;
11 -> 12 ;
13 [label="mse = 0.0\nsamples = 27\nvalue = 12114.0", fillcolor="#ffffff"] ;
11 -> 13 ;
14 [label="destination_city <= 4.5\nmse = 1528.595\nsamples = 11\nvalue = 12012.364", fillcolor="#ffffff"] ;
10 -> 14 ;
15 [label="mse = 0.0\nsamples = 10\nvalue = 12000.0", fillcolor="#ffffff"] ;
14 -> 15 ;
16 [label="mse = 0.0\nsamples = 1\nvalue = 12136.0", fillcolor="#ffffff"] ;
14 -> 16 ;
17 [label="destination_city <= 2.0\nmse = 3709934.436\nsamples = 344\nvalue = 18064.506", fillcolor="#fef8f4"] ;
3 -> 17 ;
18 [label="source_city <= 3.0\nmse = 3760214.137\nsamples = 156\nvalue = 18939.205", fillcolor="#fdf7f2"] ;
17 -> 18 ;
19 [label="days_left <= 4.5\nmse = 2153884.72\nsamples = 38\nvalue = 21249.263", fillcolor="#fdf4ee"] ;
18 -> 19 ;
20 [label="days_left <= 3.5\nmse = 1006307.556\nsamples = 3\nvalue = 25053.333", fillcolor="#fcefe6"] ;
19 -> 20 ;
21 [label="mse = 0.0\nsamples = 2\nvalue = 24344.0", fillcolor="#fcf0e8"] ;
20 -> 21 ;
22 [label="mse = 0.0\nsamples = 1\nvalue = 26472.0", fillcolor="#fbeee4"] ;
20 -> 22 ;
23 [label="days_left <= 15.0\nmse = 905564.16\nsamples = 35\nvalue = 20923.2", fillcolor="#fdf4ee"] ;
19 -> 23 ;
24 [label="days_left <= 13.5\nmse = 4531520.0\nsamples = 6\nvalue = 21712.0", fillcolor="#fdf3ed"] ;
23 -> 24 ;
25 [label="mse = 0.0\nsamples = 5\nvalue = 20760.0", fillcolor="#fdf5ef"] ;
24 -> 25 ;
26 [label="mse = 0.0\nsamples = 1\nvalue = 26472.0", fillcolor="#fbeee4"] ;
24 -> 26 ;
27 [label="mse = 0.0\nsamples = 29\nvalue = 20760.0", fillcolor="#fdf5ef"] ;
23 -> 27 ;
28 [label="days_left <= 3.5\nmse = 2005602.747\nsamples = 118\nvalue = 18195.288", fillcolor="#fdf8f3"] ;
18 -> 28 ;
29 [label="days_left <= 2.5\nmse = 4218544.222\nsamples = 3\nvalue = 23121.333", fillcolor="#fcf2ea"] ;
28 -> 29 ;
30 [label="mse = 0.0\nsamples = 1\nvalue = 26026.0", fillcolor="#fceee5"] ;
29 -> 30 ;
31 [label="mse = 0.0\nsamples = 2\nvalue = 21669.0", fillcolor="#fdf3ed"] ;
29 -> 31 ;
32 [label="duration <= 1.46\nmse = 1298336.135\nsamples = 115\nvalue = 18066.783", fillcolor="#fef8f4"] ;
28 -> 32 ;
33 [label="days_left <= 11.5\nmse = 3327041.648\nsamples = 40\nvalue = 18581.05", fillcolor="#fdf7f3"] ;
32 -> 33 ;
34 [label="days_left <= 10.0\nmse = 9725256.806\nsamples = 6\nvalue = 19811.833", fillcolor="#fdf6f0"] ;
33 -> 34 ;
35 [label="mse = 2402500.0\nsamples = 5\nvalue = 18569.0", fillcolor="#fdf7f3"] ;
34 -> 35 ;
36 [label="mse = 0.0\nsamples = 1\nvalue = 26026.0", fillcolor="#fceee5"] ;
34 -> 36 ;
37 [label="days_left <= 43.5\nmse = 1883447.772\nsamples = 34\nvalue = 18363.853", fillcolor="#fdf7f3"] ;
33 -> 37 ;
38 [label="mse = 2202547.034\nsamples = 28\nvalue = 18485.964", fillcolor="#fdf7f3"] ;
37 -> 38 ;
39 [label="mse = 0.0\nsamples = 6\nvalue = 17794.0", fillcolor="#fef8f4"] ;
37 -> 39 ;
40 [label="days_left <= 44.5\nmse = 81.397\nsamples = 75\nvalue = 17792.507", fillcolor="#fef8f4"] ;
32 -> 40 ;
41 [label="mse = 0.0\nsamples = 67\nvalue = 17794.0", fillcolor="#fef8f4"] ;
40 -> 41 ;
42 [label="duration <= 1.54\nmse = 588.0\nsamples = 8\nvalue = 17780.0", fillcolor="#fef8f4"] ;
40 -> 42 ;
43 [label="mse = 784.0\nsamples = 4\nvalue = 17766.0", fillcolor="#fef8f4"] ;
42 -> 43 ;
44 [label="mse = 0.0\nsamples = 4\nvalue = 17794.0", fillcolor="#fef8f4"] ;
42 -> 44 ;
45 [label="source_city <= 1.0\nmse = 2506537.256\nsamples = 188\nvalue = 17338.691", fillcolor="#fef9f5"] ;
17 -> 45 ;
46 [label="days_left <= 5.5\nmse = 564764.317\nsamples = 171\nvalue = 17761.251", fillcolor="#fef8f4"] ;
45 -> 46 ;
47 [label="duration <= 1.54\nmse = 2357441.653\nsamples = 11\nvalue = 19246.273", fillcolor="#fdf6f1"] ;
46 -> 47 ;
48 [label="duration <= 1.415\nmse = 2396728.609\nsamples = 8\nvalue = 19659.125", fillcolor="#fdf6f1"] ;
47 -> 48 ;
49 [label="days_left <= 3.5\nmse = 627200.0\nsamples = 3\nvalue = 18668.0", fillcolor="#fdf7f2"] ;
48 -> 49 ;
50 [label="mse = 0.0\nsamples = 2\nvalue = 19228.0", fillcolor="#fdf6f1"] ;
49 -> 50 ;
51 [label="mse = 0.0\nsamples = 1\nvalue = 17548.0", fillcolor="#fef8f5"] ;
49 -> 51 ;
52 [label="days_left <= 2.5\nmse = 2515410.16\nsamples = 5\nvalue = 20253.8", fillcolor="#fdf5ef"] ;
48 -> 52 ;
53 [label="mse = 0.0\nsamples = 1\nvalue = 21479.0", fillcolor="#fdf4ed"] ;
52 -> 53 ;
54 [label="mse = 2675164.25\nsamples = 4\nvalue = 19947.5", fillcolor="#fdf5f0"] ;
52 -> 54 ;
55 [label="days_left <= 3.5\nmse = 586083.556\nsamples = 3\nvalue = 18145.333", fillcolor="#fdf8f3"] ;
47 -> 55 ;
56 [label="mse = 0.0\nsamples = 1\nvalue = 19228.0", fillcolor="#fdf6f1"] ;
55 -> 56 ;
57 [label="mse = 0.0\nsamples = 2\nvalue = 17604.0", fillcolor="#fef8f4"] ;
55 -> 57 ;
58 [label="days_left <= 14.5\nmse = 279480.757\nsamples = 160\nvalue = 17659.156", fillcolor="#fef8f4"] ;
46 -> 58 ;
59 [label="days_left <= 13.5\nmse = 1286501.452\nsamples = 32\nvalue = 17953.281", fillcolor="#fef8f4"] ;
58 -> 59 ;
60 [label="days_left <= 9.5\nmse = 971941.372\nsamples = 29\nvalue = 17857.724", fillcolor="#fef8f4"] ;
59 -> 60 ;
61 [label="mse = 1747213.982\nsamples = 15\nvalue = 18109.467", fillcolor="#fdf8f4"] ;
60 -> 61 ;
62 [label="mse = 640.0\nsamples = 14\nvalue = 17588.0", fillcolor="#fef8f4"] ;
60 -> 62 ;
63 [label="duration <= 1.415\nmse = 3385724.667\nsamples = 3\nvalue = 18877.0", fillcolor="#fdf7f2"] ;
59 -> 63 ;
64 [label="mse = 0.0\nsamples = 1\nvalue = 17548.0", fillcolor="#fef8f5"] ;
63 -> 64 ;
65 [label="mse = 3753906.25\nsamples = 2\nvalue = 19541.5", fillcolor="#fdf6f1"] ;
63 -> 65 ;
66 [label="duration <= 1.415\nmse = 691.359\nsamples = 128\nvalue = 17585.625", fillcolor="#fef8f4"] ;
58 -> 66 ;
67 [label="mse = 0.0\nsamples = 29\nvalue = 17548.0", fillcolor="#fef8f5"] ;
66 -> 67 ;
68 [label="duration <= 1.54\nmse = 357.723\nsamples = 99\nvalue = 17596.646", fillcolor="#fef8f4"] ;
66 -> 68 ;
69 [label="mse = 490.415\nsamples = 67\nvalue = 17593.134", fillcolor="#fef8f4"] ;
68 -> 69 ;
70 [label="mse = 0.0\nsamples = 32\nvalue = 17604.0", fillcolor="#fef8f4"] ;
68 -> 70 ;
71 [label="source_city <= 3.0\nmse = 2176038.062\nsamples = 17\nvalue = 13088.235", fillcolor="#fffefd"] ;
45 -> 71 ;
72 [label="mse = 0.0\nsamples = 11\nvalue = 12000.0", fillcolor="#ffffff"] ;
71 -> 72 ;
73 [label="destination_city <= 4.5\nmse = 13888.889\nsamples = 6\nvalue = 15083.333", fillcolor="#fefbf9"] ;
71 -> 73 ;
74 [label="mse = 0.0\nsamples = 4\nvalue = 15000.0", fillcolor="#fefbf9"] ;
73 -> 74 ;
75 [label="mse = 0.0\nsamples = 2\nvalue = 15250.0", fillcolor="#fefbf9"] ;
73 -> 75 ;
76 [label="duration <= 1.96\nmse = 8782023.035\nsamples = 894\nvalue = 21955.905", fillcolor="#fdf3ec"] ;
2 -> 76 ;
77 [label="days_left <= 3.5\nmse = 4656621.452\nsamples = 739\nvalue = 21376.51", fillcolor="#fdf4ed"] ;
76 -> 77 ;
78 [label="days_left <= 1.5\nmse = 33459915.717\nsamples = 19\nvalue = 27758.579", fillcolor="#fbece1"] ;
77 -> 78 ;
79 [label="mse = 0.0\nsamples = 1\nvalue = 39948.0", fillcolor="#f8deca"] ;
78 -> 79 ;
80 [label="duration <= 1.875\nmse = 26605658.793\nsamples = 18\nvalue = 27081.389", fillcolor="#fbede3"] ;
78 -> 80 ;
81 [label="source_city <= 1.0\nmse = 12527104.75\nsamples = 12\nvalue = 25489.5", fillcolor="#fcefe6"] ;
80 -> 81 ;
82 [label="duration <= 1.71\nmse = 12776448.0\nsamples = 7\nvalue = 26908.0", fillcolor="#fbede3"] ;
81 -> 82 ;
83 [label="mse = 0.0\nsamples = 2\nvalue = 24268.0", fillcolor="#fcf0e8"] ;
82 -> 83 ;
84 [label="duration <= 1.79\nmse = 13984051.2\nsamples = 5\nvalue = 27964.0", fillcolor="#fbece1"] ;
82 -> 84 ;
85 [label="mse = 8128512.0\nsamples = 3\nvalue = 30428.0", fillcolor="#fae9dc"] ;
84 -> 85 ;
86 [label="mse = 0.0\nsamples = 2\nvalue = 24268.0", fillcolor="#fcf0e8"] ;
84 -> 86 ;
87 [label="duration <= 1.71\nmse = 5417226.24\nsamples = 5\nvalue = 23503.6", fillcolor="#fcf1e9"] ;
81 -> 87 ;
88 [label="mse = 0.0\nsamples = 1\nvalue = 19418.0", fillcolor="#fdf6f1"] ;
87 -> 88 ;
89 [label="source_city <= 3.5\nmse = 1555243.0\nsamples = 4\nvalue = 24525.0", fillcolor="#fcf0e7"] ;
87 -> 89 ;
90 [label="mse = 799236.0\nsamples = 2\nvalue = 23450.0", fillcolor="#fcf1e9"] ;
89 -> 90 ;
91 [label="mse = 0.0\nsamples = 2\nvalue = 25600.0", fillcolor="#fcefe5"] ;
89 -> 91 ;
92 [label="source_city <= 3.5\nmse = 39558105.472\nsamples = 6\nvalue = 30265.167", fillcolor="#fae9dd"] ;
80 -> 92 ;
93 [label="days_left <= 2.5\nmse = 54167917.188\nsamples = 4\nvalue = 31305.75", fillcolor="#fae8db"] ;
92 -> 93 ;
94 [label="mse = 0.0\nsamples = 1\nvalue = 36983.0", fillcolor="#f9e1d0"] ;
93 -> 94 ;
95 [label="source_city <= 1.0\nmse = 57898926.222\nsamples = 3\nvalue = 29413.333", fillcolor="#fbeade"] ;
93 -> 95 ;
96 [label="mse = 0.0\nsamples = 1\nvalue = 25660.0", fillcolor="#fcefe5"] ;
95 -> 96 ;
97 [label="mse = 76282756.0\nsamples = 2\nvalue = 31290.0", fillcolor="#fae8db"] ;
95 -> 97 ;
98 [label="days_left <= 2.5\nmse = 3841600.0\nsamples = 2\nvalue = 28184.0", fillcolor="#fbece1"] ;
92 -> 98 ;
99 [label="mse = 0.0\nsamples = 1\nvalue = 26224.0", fillcolor="#fbeee4"] ;
98 -> 99 ;
100 [label="mse = 0.0\nsamples = 1\nvalue = 30144.0", fillcolor="#fbe9dd"] ;
98 -> 100 ;
101 [label="source_city <= 4.5\nmse = 2793330.058\nsamples = 720\nvalue = 21208.094", fillcolor="#fdf4ee"] ;
77 -> 101 ;
102 [label="source_city <= 3.0\nmse = 2421757.277\nsamples = 657\nvalue = 20972.295", fillcolor="#fdf4ee"] ;
101 -> 102 ;
103 [label="destination_city <= 3.0\nmse = 1998011.597\nsamples = 626\nvalue = 21132.46", fillcolor="#fdf4ee"] ;
102 -> 103 ;
104 [label="days_left <= 7.5\nmse = 1710364.115\nsamples = 585\nvalue = 20965.292", fillcolor="#fdf4ee"] ;
103 -> 104 ;
105 [label="days_left <= 4.5\nmse = 10170903.909\nsamples = 45\nvalue = 22513.156", fillcolor="#fcf2eb"] ;
104 -> 105 ;
106 [label="mse = 26810797.061\nsamples = 7\nvalue = 24881.714", fillcolor="#fcf0e7"] ;
105 -> 106 ;
107 [label="mse = 5881856.975\nsamples = 38\nvalue = 22076.842", fillcolor="#fdf3ec"] ;
105 -> 107 ;
108 [label="days_left <= 8.5\nmse = 789024.352\nsamples = 540\nvalue = 20836.304", fillcolor="#fdf4ee"] ;
104 -> 108 ;
109 [label="mse = 9119494.531\nsamples = 14\nvalue = 21556.571", fillcolor="#fdf4ed"] ;
108 -> 109 ;
110 [label="mse = 553125.317\nsamples = 526\nvalue = 20817.133", fillcolor="#fdf4ee"] ;
108 -> 110 ;
111 [label="destination_city <= 4.5\nmse = 14350.03\nsamples = 41\nvalue = 23517.659", fillcolor="#fcf1e9"] ;
103 -> 111 ;
112 [label="mse = 0.0\nsamples = 3\nvalue = 23944.0", fillcolor="#fcf1e9"] ;
111 -> 112 ;
113 [label="mse = 0.0\nsamples = 38\nvalue = 23484.0", fillcolor="#fcf1e9"] ;
111 -> 113 ;
114 [label="mse = 0.0\nsamples = 31\nvalue = 17738.0", fillcolor="#fef8f4"] ;
102 -> 114 ;
115 [label="duration <= 1.835\nmse = 41542.694\nsamples = 63\nvalue = 23667.143", fillcolor="#fcf1e9"] ;
101 -> 115 ;
116 [label="mse = 0.0\nsamples = 26\nvalue = 23424.0", fillcolor="#fcf1ea"] ;
115 -> 116 ;
117 [label="mse = 0.0\nsamples = 37\nvalue = 23838.0", fillcolor="#fcf1e9"] ;
115 -> 117 ;
118 [label="days_left <= 18.5\nmse = 19219470.252\nsamples = 155\nvalue = 24718.31", fillcolor="#fcf0e7"] ;
76 -> 118 ;
119 [label="source_city <= 3.0\nmse = 34720649.772\nsamples = 61\nvalue = 26157.639", fillcolor="#fceee4"] ;
118 -> 119 ;
120 [label="destination_city <= 2.5\nmse = 49559165.412\nsamples = 39\nvalue = 27466.154", fillcolor="#fbece2"] ;
119 -> 120 ;
121 [label="days_left <= 17.5\nmse = 60553114.597\nsamples = 29\nvalue = 28689.241", fillcolor="#fbebe0"] ;
120 -> 121 ;
122 [label="days_left <= 4.5\nmse = 46452405.377\nsamples = 27\nvalue = 28144.741", fillcolor="#fbece1"] ;
121 -> 122 ;
123 [label="days_left <= 3.5\nmse = 2244675.0\nsamples = 4\nvalue = 24747.0", fillcolor="#fcf0e7"] ;
122 -> 123 ;
124 [label="mse = 0.0\nsamples = 3\nvalue = 25612.0", fillcolor="#fcefe5"] ;
123 -> 124 ;
125 [label="mse = 0.0\nsamples = 1\nvalue = 22152.0", fillcolor="#fcf3ec"] ;
123 -> 125 ;
126 [label="days_left <= 9.5\nmse = 51783766.14\nsamples = 23\nvalue = 28735.652", fillcolor="#fbebe0"] ;
122 -> 126 ;
127 [label="mse = 67656816.64\nsamples = 10\nvalue = 29902.4", fillcolor="#fbeadd"] ;
126 -> 127 ;
128 [label="mse = 37721069.822\nsamples = 13\nvalue = 27838.154", fillcolor="#fbece1"] ;
126 -> 128 ;
129 [label="mse = 192876544.0\nsamples = 2\nvalue = 36040.0", fillcolor="#f9e2d2"] ;
121 -> 129 ;
130 [label="days_left <= 4.0\nmse = 757596.16\nsamples = 10\nvalue = 23919.2", fillcolor="#fcf1e9"] ;
120 -> 130 ;
131 [label="mse = 0.0\nsamples = 2\nvalue = 25660.0", fillcolor="#fcefe5"] ;
130 -> 131 ;
132 [label="mse = 0.0\nsamples = 8\nvalue = 23484.0", fillcolor="#fcf1e9"] ;
130 -> 132 ;
133 [label="mse = 0.0\nsamples = 22\nvalue = 23838.0", fillcolor="#fcf1e9"] ;
119 -> 133 ;
134 [label="days_left <= 45.5\nmse = 6943394.86\nsamples = 94\nvalue = 23784.277", fillcolor="#fcf1e9"] ;
118 -> 134 ;
135 [label="source_city <= 2.5\nmse = 527871.333\nsamples = 77\nvalue = 23314.208", fillcolor="#fcf1ea"] ;
134 -> 135 ;
136 [label="destination_city <= 3.0\nmse = 431608.889\nsamples = 36\nvalue = 22706.667", fillcolor="#fcf2eb"] ;
135 -> 136 ;
137 [label="source_city <= 0.5\nmse = 6.531\nsamples = 21\nvalue = 22151.429", fillcolor="#fcf3ec"] ;
136 -> 137 ;
138 [label="mse = 0.0\nsamples = 1\nvalue = 22140.0", fillcolor="#fcf3ec"] ;
137 -> 138 ;
139 [label="mse = 0.0\nsamples = 20\nvalue = 22152.0", fillcolor="#fcf3ec"] ;
137 -> 139 ;
140 [label="mse = 0.0\nsamples = 15\nvalue = 23484.0", fillcolor="#fcf1e9"] ;
136 -> 140 ;
141 [label="destination_city <= 0.5\nmse = 3731.493\nsamples = 41\nvalue = 23847.659", fillcolor="#fcf1e9"] ;
135 -> 141 ;
142 [label="mse = 0.0\nsamples = 40\nvalue = 23838.0", fillcolor="#fcf1e9"] ;
141 -> 142 ;
143 [label="mse = 0.0\nsamples = 1\nvalue = 24234.0", fillcolor="#fcf0e8"] ;
141 -> 143 ;
144 [label="source_city <= 1.5\nmse = 30467886.007\nsamples = 17\nvalue = 25913.412", fillcolor="#fceee5"] ;
134 -> 144 ;
145 [label="days_left <= 47.0\nmse = 14052067.556\nsamples = 3\nvalue = 37122.667", fillcolor="#f9e1d0"] ;
144 -> 145 ;
146 [label="mse = 0.0\nsamples = 1\nvalue = 42424.0", fillcolor="#f7dbc6"] ;
145 -> 146 ;
147 [label="mse = 0.0\nsamples = 2\nvalue = 34472.0", fillcolor="#f9e4d5"] ;
145 -> 147 ;
148 [label="source_city <= 3.0\nmse = 1291596.245\nsamples = 14\nvalue = 23511.429", fillcolor="#fcf1e9"] ;
144 -> 148 ;
149 [label="mse = 0.0\nsamples = 2\nvalue = 20760.0", fillcolor="#fdf5ef"] ;
148 -> 149 ;
150 [label="source_city <= 4.5\nmse = 34848.0\nsamples = 12\nvalue = 23970.0", fillcolor="#fcf1e8"] ;
148 -> 150 ;
151 [label="mse = 0.0\nsamples = 4\nvalue = 24234.0", fillcolor="#fcf0e8"] ;
150 -> 151 ;
152 [label="mse = 0.0\nsamples = 8\nvalue = 23838.0", fillcolor="#fcf1e9"] ;
150 -> 152 ;
153 [label="destination_city <= 3.5\nmse = 40720243.762\nsamples = 5441\nvalue = 29681.867", fillcolor="#fbeade"] ;
1 -> 153 ;
154 [label="source_city <= 3.5\nmse = 42147480.356\nsamples = 4576\nvalue = 30480.337", fillcolor="#fae9dc"] ;
153 -> 154 ;
155 [label="days_left <= 5.5\nmse = 40901836.304\nsamples = 3793\nvalue = 31282.682", fillcolor="#fae8db"] ;
154 -> 155 ;
156 [label="duration <= 3.375\nmse = 82750513.618\nsamples = 277\nvalue = 35349.339", fillcolor="#f9e3d3"] ;
155 -> 156 ;
157 [label="duration <= 2.21\nmse = 81135042.59\nsamples = 256\nvalue = 35905.012", fillcolor="#f9e2d2"] ;
156 -> 157 ;
158 [label="source_city <= 0.5\nmse = 104043604.694\nsamples = 67\nvalue = 38130.149", fillcolor="#f9e0ce"] ;
157 -> 158 ;
159 [label="duration <= 2.125\nmse = 73547097.798\nsamples = 29\nvalue = 41763.172", fillcolor="#f8dbc7"] ;
158 -> 159 ;
160 [label="days_left <= 4.5\nmse = 68146325.333\nsamples = 12\nvalue = 36980.0", fillcolor="#f9e1d0"] ;
159 -> 160 ;
161 [label="mse = 46585084.0\nsamples = 8\nvalue = 40886.0", fillcolor="#f8dcc9"] ;
160 -> 161 ;
162 [label="mse = 19727792.0\nsamples = 4\nvalue = 29168.0", fillcolor="#fbeadf"] ;
160 -> 162 ;
163 [label="days_left <= 3.5\nmse = 49809923.543\nsamples = 17\nvalue = 45139.529", fillcolor="#f7d7c1"] ;
159 -> 163 ;
164 [label="mse = 41432636.0\nsamples = 8\nvalue = 46934.0", fillcolor="#f6d5bd"] ;
163 -> 164 ;
165 [label="mse = 51849772.247\nsamples = 9\nvalue = 43544.444", fillcolor="#f7d9c4"] ;
163 -> 165 ;
166 [label="days_left <= 3.5\nmse = 109557296.454\nsamples = 38\nvalue = 35357.579", fillcolor="#f9e3d3"] ;
158 -> 166 ;
167 [label="destination_city <= 1.5\nmse = 88503608.028\nsamples = 17\nvalue = 33401.176", fillcolor="#fae5d7"] ;
166 -> 167 ;
168 [label="mse = 114980510.556\nsamples = 12\nvalue = 35148.333", fillcolor="#f9e3d3"] ;
167 -> 168 ;
169 [label="mse = 50176.0\nsamples = 5\nvalue = 29208.0", fillcolor="#fbeadf"] ;
167 -> 169 ;
170 [label="days_left <= 4.5\nmse = 120994019.556\nsamples = 21\nvalue = 36941.333", fillcolor="#f9e1d0"] ;
166 -> 170 ;
171 [label="mse = 120646643.358\nsamples = 9\nvalue = 40395.556", fillcolor="#f8ddca"] ;
170 -> 171 ;
172 [label="mse = 105594259.556\nsamples = 12\nvalue = 34350.667", fillcolor="#f9e4d5"] ;
170 -> 172 ;
173 [label="duration <= 2.625\nmse = 70636603.582\nsamples = 189\nvalue = 35116.206", fillcolor="#f9e3d4"] ;
157 -> 173 ;
174 [label="destination_city <= 0.5\nmse = 86842575.242\nsamples = 99\nvalue = 33792.303", fillcolor="#fae5d6"] ;
173 -> 174 ;
175 [label="days_left <= 1.5\nmse = 91677155.662\nsamples = 29\nvalue = 37756.31", fillcolor="#f9e0cf"] ;
174 -> 175 ;
176 [label="mse = 0.0\nsamples = 1\nvalue = 53288.0", fillcolor="#f5ceb1"] ;
175 -> 176 ;
177 [label="mse = 86028166.167\nsamples = 28\nvalue = 37201.607", fillcolor="#f9e1d0"] ;
175 -> 177 ;
178 [label="days_left <= 4.5\nmse = 75632934.923\nsamples = 70\nvalue = 32150.071", fillcolor="#fae7d9"] ;
174 -> 178 ;
179 [label="mse = 51200465.541\nsamples = 47\nvalue = 31288.766", fillcolor="#fae8db"] ;
178 -> 179 ;
180 [label="mse = 120946398.809\nsamples = 23\nvalue = 33910.13", fillcolor="#fae5d6"] ;
178 -> 180 ;
181 [label="days_left <= 3.5\nmse = 48761251.561\nsamples = 90\nvalue = 36572.5", fillcolor="#f9e2d1"] ;
173 -> 181 ;
182 [label="duration <= 2.79\nmse = 53757069.166\nsamples = 48\nvalue = 37742.146", fillcolor="#f9e0cf"] ;
181 -> 182 ;
183 [label="mse = 42098482.616\nsamples = 31\nvalue = 36425.645", fillcolor="#f9e2d1"] ;
182 -> 183 ;
184 [label="mse = 66093097.439\nsamples = 17\nvalue = 40142.824", fillcolor="#f8ddca"] ;
182 -> 184 ;
185 [label="days_left <= 4.5\nmse = 39701366.848\nsamples = 42\nvalue = 35235.762", fillcolor="#f9e3d3"] ;
181 -> 185 ;
186 [label="mse = 15815053.6\nsamples = 20\nvalue = 33546.0", fillcolor="#fae5d6"] ;
185 -> 186 ;
187 [label="mse = 56460725.901\nsamples = 22\nvalue = 36771.909", fillcolor="#f9e1d0"] ;
185 -> 187 ;
188 [label="duration <= 4.0\nmse = 52793932.435\nsamples = 21\nvalue = 28575.429", fillcolor="#fbebe0"] ;
156 -> 188 ;
189 [label="days_left <= 3.5\nmse = 2995901.714\nsamples = 14\nvalue = 23876.0", fillcolor="#fcf1e9"] ;
188 -> 189 ;
190 [label="source_city <= 0.5\nmse = 35.265\nsamples = 7\nvalue = 25606.857", fillcolor="#fcefe5"] ;
189 -> 190 ;
191 [label="mse = 0.0\nsamples = 3\nvalue = 25600.0", fillcolor="#fcefe5"] ;
190 -> 191 ;
192 [label="mse = 0.0\nsamples = 4\nvalue = 25612.0", fillcolor="#fcefe5"] ;
190 -> 192 ;
193 [label="destination_city <= 0.5\nmse = 35.265\nsamples = 7\nvalue = 22145.143", fillcolor="#fcf3ec"] ;
189 -> 193 ;
194 [label="mse = 0.0\nsamples = 3\nvalue = 22152.0", fillcolor="#fcf3ec"] ;
193 -> 194 ;
195 [label="mse = 0.0\nsamples = 4\nvalue = 22140.0", fillcolor="#fcf3ec"] ;
193 -> 195 ;
196 [label="duration <= 4.335\nmse = 19882220.49\nsamples = 7\nvalue = 37974.286", fillcolor="#f9e0ce"] ;
188 -> 196 ;
197 [label="days_left <= 4.0\nmse = 313600.0\nsamples = 2\nvalue = 31996.0", fillcolor="#fae7d9"] ;
196 -> 197 ;
198 [label="mse = 0.0\nsamples = 1\nvalue = 32556.0", fillcolor="#fae6d8"] ;
197 -> 198 ;
199 [label="mse = 0.0\nsamples = 1\nvalue = 31436.0", fillcolor="#fae8da"] ;
197 -> 199 ;
200 [label="days_left <= 4.5\nmse = 7695324.64\nsamples = 5\nvalue = 40365.6", fillcolor="#f8ddca"] ;
196 -> 200 ;
201 [label="days_left <= 3.5\nmse = 5133690.188\nsamples = 4\nvalue = 41312.75", fillcolor="#f8dcc8"] ;
200 -> 201 ;
202 [label="mse = 0.0\nsamples = 2\nvalue = 42445.0", fillcolor="#f7dbc6"] ;
201 -> 202 ;
203 [label="mse = 7703400.25\nsamples = 2\nvalue = 40180.5", fillcolor="#f8ddca"] ;
201 -> 203 ;
204 [label="mse = 0.0\nsamples = 1\nvalue = 36577.0", fillcolor="#f9e2d1"] ;
200 -> 204 ;
205 [label="duration <= 4.335\nmse = 36199354.664\nsamples = 3516\nvalue = 30962.3", fillcolor="#fae8db"] ;
155 -> 205 ;
206 [label="stops <= 0.5\nmse = 35008381.981\nsamples = 3439\nvalue = 30787.921", fillcolor="#fae9dc"] ;
205 -> 206 ;
207 [label="duration <= 2.625\nmse = 33657809.433\nsamples = 3259\nvalue = 31153.091", fillcolor="#fae8db"] ;
206 -> 207 ;
208 [label="duration <= 2.125\nmse = 41798656.936\nsamples = 2253\nvalue = 30226.617", fillcolor="#fae9dd"] ;
207 -> 208 ;
209 [label="destination_city <= 2.0\nmse = 36043684.729\nsamples = 342\nvalue = 28959.474", fillcolor="#fbebdf"] ;
208 -> 209 ;
210 [label="mse = 34038823.769\nsamples = 201\nvalue = 27505.771", fillcolor="#fbece2"] ;
209 -> 210 ;
211 [label="mse = 31594746.502\nsamples = 141\nvalue = 31031.773", fillcolor="#fae8db"] ;
209 -> 211 ;
212 [label="destination_city <= 1.5\nmse = 42489809.477\nsamples = 1911\nvalue = 30453.39", fillcolor="#fae9dc"] ;
208 -> 212 ;
213 [label="mse = 46545370.711\nsamples = 1670\nvalue = 30752.485", fillcolor="#fae9dc"] ;
212 -> 213 ;
214 [label="mse = 9471523.35\nsamples = 241\nvalue = 28380.822", fillcolor="#fbebe0"] ;
212 -> 214 ;
215 [label="source_city <= 0.5\nmse = 9198344.143\nsamples = 1006\nvalue = 33227.986", fillcolor="#fae6d7"] ;
207 -> 215 ;
216 [label="days_left <= 6.5\nmse = 6264372.237\nsamples = 104\nvalue = 31682.615", fillcolor="#fae7da"] ;
215 -> 216 ;
217 [label="mse = 146182200.889\nsamples = 3\nvalue = 39985.333", fillcolor="#f8deca"] ;
216 -> 217 ;
218 [label="mse = 0.0\nsamples = 101\nvalue = 31436.0", fillcolor="#fae8da"] ;
216 -> 218 ;
219 [label="days_left <= 24.5\nmse = 9229526.482\nsamples = 902\nvalue = 33406.166", fillcolor="#fae5d7"] ;
215 -> 219 ;
220 [label="mse = 16237212.262\nsamples = 389\nvalue = 33914.746", fillcolor="#fae5d6"] ;
219 -> 220 ;
221 [label="mse = 3570849.622\nsamples = 513\nvalue = 33020.519", fillcolor="#fae6d7"] ;
219 -> 221 ;
222 [label="duration <= 3.79\nmse = 13333656.185\nsamples = 180\nvalue = 24176.322", fillcolor="#fcf0e8"] ;
206 -> 222 ;
223 [label="source_city <= 0.5\nmse = 35.8\nsamples = 134\nvalue = 22146.448", fillcolor="#fcf3ec"] ;
222 -> 223 ;
224 [label="mse = 0.0\nsamples = 62\nvalue = 22140.0", fillcolor="#fcf3ec"] ;
223 -> 224 ;
225 [label="mse = 0.0\nsamples = 72\nvalue = 22152.0", fillcolor="#fcf3ec"] ;
223 -> 225 ;
226 [label="duration <= 4.125\nmse = 5207295.767\nsamples = 46\nvalue = 30089.435", fillcolor="#fbe9dd"] ;
222 -> 226 ;
227 [label="duration <= 4.04\nmse = 6431564.306\nsamples = 24\nvalue = 28792.833", fillcolor="#fbebdf"] ;
226 -> 227 ;
228 [label="mse = 124205.515\nsamples = 21\nvalue = 29743.238", fillcolor="#fbeade"] ;
227 -> 228 ;
229 [label="mse = 0.0\nsamples = 3\nvalue = 22140.0", fillcolor="#fcf3ec"] ;
227 -> 229 ;
230 [label="destination_city <= 1.5\nmse = 36983.083\nsamples = 22\nvalue = 31503.909", fillcolor="#fae8da"] ;
226 -> 230 ;
231 [label="mse = 0.0\nsamples = 3\nvalue = 31982.0", fillcolor="#fae7d9"] ;
230 -> 231 ;
232 [label="mse = 1033.928\nsamples = 19\nvalue = 31428.421", fillcolor="#fae8da"] ;
230 -> 232 ;
233 [label="days_left <= 10.5\nmse = 27377127.574\nsamples = 77\nvalue = 38750.481", fillcolor="#f8dfcd"] ;
205 -> 233 ;
234 [label="days_left <= 8.5\nmse = 76107879.506\nsamples = 9\nvalue = 44679.222", fillcolor="#f7d8c2"] ;
233 -> 234 ;
235 [label="destination_city <= 0.5\nmse = 25060036.0\nsamples = 6\nvalue = 41583.0", fillcolor="#f8dcc7"] ;
234 -> 235 ;
236 [label="mse = 0.0\nsamples = 3\nvalue = 36577.0", fillcolor="#f9e2d1"] ;
235 -> 236 ;
237 [label="mse = 0.0\nsamples = 3\nvalue = 46589.0", fillcolor="#f6d6be"] ;
235 -> 237 ;
238 [label="days_left <= 9.5\nmse = 120684014.222\nsamples = 3\nvalue = 50871.667", fillcolor="#f5d0b6"] ;
234 -> 238 ;
239 [label="mse = 0.0\nsamples = 1\nvalue = 63289.0", fillcolor="#f2c29f"] ;
238 -> 239 ;
240 [label="source_city <= 0.5\nmse = 65383396.0\nsamples = 2\nvalue = 44663.0", fillcolor="#f7d8c2"] ;
238 -> 240 ;
241 [label="mse = 0.0\nsamples = 1\nvalue = 52749.0", fillcolor="#f5ceb2"] ;
240 -> 241 ;
242 [label="mse = 0.0\nsamples = 1\nvalue = 36577.0", fillcolor="#f9e2d1"] ;
240 -> 242 ;
243 [label="days_left <= 24.5\nmse = 15659533.487\nsamples = 68\nvalue = 37965.794", fillcolor="#f9e0ce"] ;
233 -> 243 ;
244 [label="days_left <= 16.5\nmse = 34266197.818\nsamples = 22\nvalue = 39705.0", fillcolor="#f8decb"] ;
243 -> 244 ;
245 [label="days_left <= 12.5\nmse = 14851908.0\nsamples = 10\nvalue = 38223.0", fillcolor="#f9e0ce"] ;
244 -> 245 ;
246 [label="mse = 38415534.222\nsamples = 3\nvalue = 40959.667", fillcolor="#f8dcc9"] ;
245 -> 246 ;
247 [label="mse = 167898.122\nsamples = 7\nvalue = 37050.143", fillcolor="#f9e1d0"] ;
245 -> 247 ;
248 [label="days_left <= 17.5\nmse = 47089277.667\nsamples = 12\nvalue = 40940.0", fillcolor="#f8dcc9"] ;
244 -> 248 ;
249 [label="mse = 0.0\nsamples = 1\nvalue = 58921.0", fillcolor="#f3c7a7"] ;
248 -> 249 ;
250 [label="mse = 19305688.595\nsamples = 11\nvalue = 39305.364", fillcolor="#f8decc"] ;
248 -> 250 ;
251 [label="source_city <= 0.5\nmse = 4622151.348\nsamples = 46\nvalue = 37134.0", fillcolor="#f9e1d0"] ;
243 -> 251 ;
252 [label="days_left <= 43.5\nmse = 3778836.565\nsamples = 19\nvalue = 38554.474", fillcolor="#f8dfcd"] ;
251 -> 252 ;
253 [label="mse = 4340224.0\nsamples = 15\nvalue = 38861.0", fillcolor="#f8dfcc"] ;
252 -> 253 ;
254 [label="mse = 0.0\nsamples = 4\nvalue = 37405.0", fillcolor="#f9e1cf"] ;
252 -> 254 ;
255 [label="duration <= 4.46\nmse = 2796514.76\nsamples = 27\nvalue = 36134.407", fillcolor="#f9e2d2"] ;
251 -> 255 ;
256 [label="mse = 0.0\nsamples = 19\nvalue = 36577.0", fillcolor="#f9e2d1"] ;
255 -> 256 ;
257 [label="mse = 7868070.938\nsamples = 8\nvalue = 35083.25", fillcolor="#f9e3d4"] ;
255 -> 257 ;
258 [label="duration <= 2.625\nmse = 29956596.283\nsamples = 783\nvalue = 26593.625", fillcolor="#fbeee4"] ;
154 -> 258 ;
259 [label="destination_city <= 2.0\nmse = 10745082.11\nsamples = 476\nvalue = 24373.313", fillcolor="#fcf0e8"] ;
258 -> 259 ;
260 [label="days_left <= 3.5\nmse = 8571425.416\nsamples = 398\nvalue = 25188.183", fillcolor="#fcefe6"] ;
259 -> 260 ;
261 [label="duration <= 2.21\nmse = 17068989.289\nsamples = 15\nvalue = 29452.333", fillcolor="#fbeade"] ;
260 -> 261 ;
262 [label="duration <= 2.125\nmse = 5401967.837\nsamples = 7\nvalue = 27693.143", fillcolor="#fbece1"] ;
261 -> 262 ;
263 [label="mse = 0.0\nsamples = 2\nvalue = 30144.0", fillcolor="#fbe9dd"] ;
262 -> 263 ;
264 [label="destination_city <= 0.5\nmse = 4199002.56\nsamples = 5\nvalue = 26712.8", fillcolor="#fbede3"] ;
262 -> 264 ;
265 [label="mse = 0.0\nsamples = 2\nvalue = 25600.0", fillcolor="#fcefe5"] ;
264 -> 265 ;
266 [label="mse = 5622422.222\nsamples = 3\nvalue = 27454.667", fillcolor="#fbede2"] ;
264 -> 266 ;
267 [label="days_left <= 2.5\nmse = 22200306.984\nsamples = 8\nvalue = 30991.625", fillcolor="#fae8db"] ;
261 -> 267 ;
268 [label="duration <= 2.29\nmse = 11515018.75\nsamples = 4\nvalue = 32770.5", fillcolor="#fae6d8"] ;
267 -> 268 ;
269 [label="mse = 15366400.0\nsamples = 2\nvalue = 34728.0", fillcolor="#f9e4d4"] ;
268 -> 269 ;
270 [label="mse = 25.0\nsamples = 2\nvalue = 30813.0", fillcolor="#fae8dc"] ;
268 -> 270 ;
271 [label="duration <= 2.415\nmse = 26556802.688\nsamples = 4\nvalue = 29212.75", fillcolor="#fbeadf"] ;
267 -> 271 ;
272 [label="mse = 0.0\nsamples = 2\nvalue = 26474.0", fillcolor="#fbeee4"] ;
271 -> 272 ;
273 [label="mse = 38112102.25\nsamples = 2\nvalue = 31951.5", fillcolor="#fae7d9"] ;
271 -> 273 ;
274 [label="duration <= 2.21\nmse = 7498605.626\nsamples = 383\nvalue = 25021.18", fillcolor="#fcefe7"] ;
260 -> 274 ;
275 [label="destination_city <= 0.5\nmse = 2381553.51\nsamples = 128\nvalue = 24165.422", fillcolor="#fcf0e8"] ;
274 -> 275 ;
276 [label="days_left <= 25.0\nmse = 3440077.949\nsamples = 62\nvalue = 23941.774", fillcolor="#fcf1e9"] ;
275 -> 276 ;
277 [label="mse = 7264027.776\nsamples = 28\nvalue = 24348.714", fillcolor="#fcf0e8"] ;
276 -> 277 ;
278 [label="mse = 42255.934\nsamples = 34\nvalue = 23606.647", fillcolor="#fcf1e9"] ;
276 -> 278 ;
279 [label="days_left <= 23.5\nmse = 1296056.007\nsamples = 66\nvalue = 24375.515", fillcolor="#fcf0e8"] ;
275 -> 279 ;
280 [label="mse = 3122.062\nsamples = 30\nvalue = 24174.267", fillcolor="#fcf0e8"] ;
279 -> 280 ;
281 [label="mse = 2311624.506\nsamples = 36\nvalue = 24543.222", fillcolor="#fcf0e7"] ;
279 -> 281 ;
282 [label="duration <= 2.29\nmse = 9515048.774\nsamples = 255\nvalue = 25450.737", fillcolor="#fcefe6"] ;
274 -> 282 ;
283 [label="days_left <= 38.5\nmse = 13742936.084\nsamples = 152\nvalue = 26194.855", fillcolor="#fbeee4"] ;
282 -> 283 ;
284 [label="mse = 15823908.222\nsamples = 118\nvalue = 26550.288", fillcolor="#fbeee4"] ;
283 -> 284 ;
285 [label="mse = 4560617.384\nsamples = 34\nvalue = 24961.294", fillcolor="#fcefe7"] ;
283 -> 285 ;
286 [label="days_left <= 46.5\nmse = 1252850.099\nsamples = 103\nvalue = 24352.621", fillcolor="#fcf0e8"] ;
282 -> 286 ;
287 [label="mse = 468261.047\nsamples = 94\nvalue = 24227.681", fillcolor="#fcf0e8"] ;
286 -> 287 ;
288 [label="mse = 7581554.469\nsamples = 9\nvalue = 25657.556", fillcolor="#fcefe5"] ;
286 -> 288 ;
289 [label="days_left <= 3.5\nmse = 1159763.314\nsamples = 78\nvalue = 20215.385", fillcolor="#fdf5f0"] ;
259 -> 289 ;
290 [label="mse = 0.0\nsamples = 3\nvalue = 25600.0", fillcolor="#fcefe5"] ;
289 -> 290 ;
291 [label="mse = 0.0\nsamples = 75\nvalue = 20000.0", fillcolor="#fdf5f0"] ;
289 -> 291 ;
292 [label="days_left <= 3.5\nmse = 40248985.328\nsamples = 307\nvalue = 30036.192", fillcolor="#fbe9dd"] ;
258 -> 292 ;
293 [label="duration <= 2.79\nmse = 71495547.972\nsamples = 12\nvalue = 38053.167", fillcolor="#f9e0ce"] ;
292 -> 293 ;
294 [label="duration <= 2.71\nmse = 72792087.2\nsamples = 5\nvalue = 43505.0", fillcolor="#f7d9c4"] ;
293 -> 294 ;
295 [label="mse = 0.0\nsamples = 1\nvalue = 31721.0", fillcolor="#fae7da"] ;
294 -> 295 ;
296 [label="days_left <= 2.5\nmse = 47595529.0\nsamples = 4\nvalue = 46451.0", fillcolor="#f6d6be"] ;
294 -> 296 ;
297 [label="mse = 69338929.0\nsamples = 2\nvalue = 48551.0", fillcolor="#f6d3ba"] ;
296 -> 297 ;
298 [label="mse = 17032129.0\nsamples = 2\nvalue = 44351.0", fillcolor="#f7d8c2"] ;
296 -> 298 ;
299 [label="days_left <= 2.5\nmse = 34174566.857\nsamples = 7\nvalue = 34159.0", fillcolor="#fae4d5"] ;
293 -> 299 ;
300 [label="duration <= 2.955\nmse = 2652.25\nsamples = 4\nvalue = 31772.5", fillcolor="#fae7da"] ;
299 -> 300 ;
301 [label="mse = 2357.556\nsamples = 3\nvalue = 31789.667", fillcolor="#fae7da"] ;
300 -> 301 ;
302 [label="mse = 0.0\nsamples = 1\nvalue = 31721.0", fillcolor="#fae7da"] ;
300 -> 302 ;
303 [label="mse = 62018152.667\nsamples = 3\nvalue = 37341.0", fillcolor="#f9e1cf"] ;
299 -> 303 ;
304 [label="days_left <= 10.5\nmse = 36257138.879\nsamples = 295\nvalue = 29710.078", fillcolor="#fbeade"] ;
292 -> 304 ;
305 [label="duration <= 2.955\nmse = 87715474.444\nsamples = 45\nvalue = 31748.667", fillcolor="#fae7da"] ;
304 -> 305 ;
306 [label="duration <= 2.71\nmse = 100458497.091\nsamples = 38\nvalue = 32477.526", fillcolor="#fae6d8"] ;
305 -> 306 ;
307 [label="mse = 0.0\nsamples = 5\nvalue = 27792.0", fillcolor="#fbece1"] ;
306 -> 307 ;
308 [label="days_left <= 9.5\nmse = 111849096.006\nsamples = 33\nvalue = 33187.455", fillcolor="#fae6d7"] ;
306 -> 308 ;
309 [label="mse = 102684388.617\nsamples = 27\nvalue = 32547.889", fillcolor="#fae6d8"] ;
308 -> 309 ;
310 [label="mse = 142966434.583\nsamples = 6\nvalue = 36065.5", fillcolor="#f9e2d2"] ;
308 -> 310 ;
311 [label="mse = 0.0\nsamples = 7\nvalue = 27792.0", fillcolor="#fbece1"] ;
305 -> 311 ;
312 [label="source_city <= 4.5\nmse = 26111937.235\nsamples = 250\nvalue = 29343.132", fillcolor="#fbeade"] ;
304 -> 312 ;
313 [label="mse = 0.0\nsamples = 2\nvalue = 20000.0", fillcolor="#fdf5f0"] ;
312 -> 313 ;
314 [label="days_left <= 46.5\nmse = 25612855.274\nsamples = 248\nvalue = 29418.48", fillcolor="#fbeade"] ;
312 -> 314 ;
315 [label="duration <= 2.71\nmse = 20542036.754\nsamples = 234\nvalue = 29267.192", fillcolor="#fbeadf"] ;
314 -> 315 ;
316 [label="mse = 0.0\nsamples = 28\nvalue = 27792.0", fillcolor="#fbece1"] ;
315 -> 316 ;
317 [label="mse = 22998160.228\nsamples = 206\nvalue = 29467.704", fillcolor="#fbeade"] ;
315 -> 317 ;
318 [label="duration <= 2.79\nmse = 103591272.98\nsamples = 14\nvalue = 31947.143", fillcolor="#fae7d9"] ;
314 -> 318 ;
319 [label="mse = 187998976.889\nsamples = 6\nvalue = 37487.333", fillcolor="#f9e1cf"] ;
318 -> 319 ;
320 [label="mse = 0.0\nsamples = 8\nvalue = 27792.0", fillcolor="#fbece1"] ;
318 -> 320 ;
321 [label="duration <= 2.585\nmse = 11954585.416\nsamples = 865\nvalue = 25457.822", fillcolor="#fcefe6"] ;
153 -> 321 ;
322 [label="source_city <= 2.0\nmse = 3104134.454\nsamples = 572\nvalue = 23792.979", fillcolor="#fcf1e9"] ;
321 -> 322 ;
323 [label="days_left <= 4.5\nmse = 1800626.69\nsamples = 500\nvalue = 24236.804", fillcolor="#fcf0e8"] ;
322 -> 323 ;
324 [label="days_left <= 1.5\nmse = 12125374.559\nsamples = 32\nvalue = 26681.438", fillcolor="#fbede3"] ;
323 -> 324 ;
325 [label="duration <= 2.21\nmse = 27708825.0\nsamples = 4\nvalue = 30075.0", fillcolor="#fbe9dd"] ;
324 -> 325 ;
326 [label="mse = 0.0\nsamples = 2\nvalue = 25600.0", fillcolor="#fcefe5"] ;
325 -> 326 ;
327 [label="duration <= 2.29\nmse = 15366400.0\nsamples = 2\nvalue = 34550.0", fillcolor="#f9e4d5"] ;
325 -> 327 ;
328 [label="mse = 0.0\nsamples = 1\nvalue = 38470.0", fillcolor="#f8dfcd"] ;
327 -> 328 ;
329 [label="mse = 0.0\nsamples = 1\nvalue = 30630.0", fillcolor="#fae9dc"] ;
327 -> 329 ;
330 [label="days_left <= 3.5\nmse = 8018960.587\nsamples = 28\nvalue = 26196.643", fillcolor="#fbeee4"] ;
324 -> 330 ;
331 [label="source_city <= 0.5\nmse = 1724396.321\nsamples = 19\nvalue = 26486.316", fillcolor="#fbeee4"] ;
330 -> 331 ;
332 [label="days_left <= 2.5\nmse = 3841600.0\nsamples = 4\nvalue = 28244.0", fillcolor="#fbece0"] ;
331 -> 332 ;
333 [label="mse = 3841600.0\nsamples = 2\nvalue = 28244.0", fillcolor="#fbece0"] ;
332 -> 333 ;
334 [label="mse = 3841600.0\nsamples = 2\nvalue = 28244.0", fillcolor="#fbece0"] ;
332 -> 334 ;
335 [label="duration <= 2.21\nmse = 116259.84\nsamples = 15\nvalue = 26017.6", fillcolor="#fceee5"] ;
331 -> 335 ;
336 [label="mse = 113535.0\nsamples = 8\nvalue = 25861.0", fillcolor="#fceee5"] ;
335 -> 336 ;
337 [label="mse = 59316.245\nsamples = 7\nvalue = 26196.571", fillcolor="#fbeee4"] ;
335 -> 337 ;
338 [label="duration <= 2.125\nmse = 20756369.877\nsamples = 9\nvalue = 25585.111", fillcolor="#fcefe5"] ;
330 -> 338 ;
339 [label="source_city <= 0.5\nmse = 470.222\nsamples = 3\nvalue = 23913.333", fillcolor="#fcf1e9"] ;
338 -> 339 ;
340 [label="mse = 0.0\nsamples = 2\nvalue = 23898.0", fillcolor="#fcf1e9"] ;
339 -> 340 ;
341 [label="mse = 0.0\nsamples = 1\nvalue = 23944.0", fillcolor="#fcf1e9"] ;
339 -> 341 ;
342 [label="duration <= 2.21\nmse = 29038189.0\nsamples = 6\nvalue = 26421.0", fillcolor="#fbeee4"] ;
338 -> 342 ;
343 [label="mse = 39362364.75\nsamples = 4\nvalue = 27603.5", fillcolor="#fbece2"] ;
342 -> 343 ;
344 [label="mse = 0.0\nsamples = 2\nvalue = 24056.0", fillcolor="#fcf1e8"] ;
342 -> 344 ;
345 [label="duration <= 2.125\nmse = 658089.108\nsamples = 468\nvalue = 24069.65", fillcolor="#fcf1e8"] ;
323 -> 345 ;
346 [label="destination_city <= 4.5\nmse = 296.438\nsamples = 184\nvalue = 23905.75", fillcolor="#fcf1e9"] ;
345 -> 346 ;
347 [label="mse = 0.0\nsamples = 31\nvalue = 23944.0", fillcolor="#fcf1e9"] ;
346 -> 347 ;
348 [label="mse = 0.0\nsamples = 153\nvalue = 23898.0", fillcolor="#fcf1e9"] ;
346 -> 348 ;
349 [label="days_left <= 48.5\nmse = 1055584.41\nsamples = 284\nvalue = 24175.838", fillcolor="#fcf0e8"] ;
345 -> 349 ;
350 [label="duration <= 2.29\nmse = 930885.109\nsamples = 277\nvalue = 24155.942", fillcolor="#fcf0e8"] ;
349 -> 350 ;
351 [label="days_left <= 19.5\nmse = 1228462.239\nsamples = 208\nvalue = 24206.327", fillcolor="#fcf0e8"] ;
350 -> 351 ;
352 [label="mse = 571226.102\nsamples = 76\nvalue = 24101.237", fillcolor="#fcf1e8"] ;
351 -> 352 ;
353 [label="mse = 1596851.275\nsamples = 132\nvalue = 24266.833", fillcolor="#fcf0e8"] ;
351 -> 353 ;
354 [label="duration <= 2.375\nmse = 3119.533\nsamples = 69\nvalue = 24004.058", fillcolor="#fcf1e8"] ;
350 -> 354 ;
355 [label="mse = 3089.925\nsamples = 66\nvalue = 24006.788", fillcolor="#fcf1e8"] ;
354 -> 355 ;
356 [label="mse = 0.0\nsamples = 3\nvalue = 23944.0", fillcolor="#fcf1e9"] ;
354 -> 356 ;
357 [label="duration <= 2.29\nmse = 5354600.98\nsamples = 7\nvalue = 24963.143", fillcolor="#fcefe7"] ;
349 -> 357 ;
358 [label="duration <= 2.21\nmse = 2352.0\nsamples = 4\nvalue = 24028.0", fillcolor="#fcf1e8"] ;
357 -> 358 ;
359 [label="mse = 2787.556\nsamples = 3\nvalue = 24018.667", fillcolor="#fcf1e8"] ;
358 -> 359 ;
360 [label="mse = 0.0\nsamples = 1\nvalue = 24056.0", fillcolor="#fcf1e8"] ;
358 -> 360 ;
361 [label="duration <= 2.375\nmse = 9770290.667\nsamples = 3\nvalue = 26210.0", fillcolor="#fbeee4"] ;
357 -> 361 ;
362 [label="mse = 10804369.0\nsamples = 2\nvalue = 27343.0", fillcolor="#fbede2"] ;
361 -> 362 ;
363 [label="mse = 0.0\nsamples = 1\nvalue = 23944.0", fillcolor="#fcf1e9"] ;
361 -> 363 ;
364 [label="days_left <= 3.5\nmse = 1288899.981\nsamples = 72\nvalue = 20710.861", fillcolor="#fdf5ef"] ;
322 -> 364 ;
365 [label="duration <= 2.335\nmse = 13888.889\nsamples = 3\nvalue = 26122.667", fillcolor="#fceee4"] ;
364 -> 365 ;
366 [label="mse = 0.0\nsamples = 1\nvalue = 25956.0", fillcolor="#fceee5"] ;
365 -> 366 ;
367 [label="mse = 0.0\nsamples = 2\nvalue = 26206.0", fillcolor="#fbeee4"] ;
365 -> 367 ;
368 [label="destination_city <= 4.5\nmse = 15595.463\nsamples = 69\nvalue = 20475.565", fillcolor="#fdf5ef"] ;
364 -> 368 ;
369 [label="mse = 0.0\nsamples = 36\nvalue = 20356.0", fillcolor="#fdf5ef"] ;
368 -> 369 ;
370 [label="mse = 0.0\nsamples = 33\nvalue = 20606.0", fillcolor="#fdf5ef"] ;
368 -> 370 ;
371 [label="days_left <= 4.5\nmse = 13258240.08\nsamples = 293\nvalue = 28707.959", fillcolor="#fbebe0"] ;
321 -> 371 ;
372 [label="duration <= 2.79\nmse = 73849405.419\nsamples = 17\nvalue = 33852.412", fillcolor="#fae5d6"] ;
371 -> 372 ;
373 [label="days_left <= 3.5\nmse = 118018856.188\nsamples = 4\nvalue = 38133.75", fillcolor="#f9e0ce"] ;
372 -> 373 ;
374 [label="days_left <= 2.5\nmse = 2357.556\nsamples = 3\nvalue = 31861.667", fillcolor="#fae7da"] ;
373 -> 374 ;
375 [label="mse = 2652.25\nsamples = 2\nvalue = 31844.5", fillcolor="#fae7da"] ;
374 -> 375 ;
376 [label="mse = 0.0\nsamples = 1\nvalue = 31896.0", fillcolor="#fae7da"] ;
374 -> 376 ;
377 [label="mse = 0.0\nsamples = 1\nvalue = 56950.0", fillcolor="#f4c9aa"] ;
373 -> 377 ;
378 [label="days_left <= 3.5\nmse = 52883478.071\nsamples = 13\nvalue = 32535.077", fillcolor="#fae6d8"] ;
372 -> 378 ;
379 [label="days_left <= 2.5\nmse = 62380012.765\nsamples = 9\nvalue = 34611.111", fillcolor="#f9e4d4"] ;
378 -> 379 ;
380 [label="duration <= 2.875\nmse = 1989.188\nsamples = 4\nvalue = 31818.75", fillcolor="#fae7da"] ;
379 -> 380 ;
381 [label="mse = 2357.556\nsamples = 3\nvalue = 31827.333", fillcolor="#fae7da"] ;
380 -> 381 ;
382 [label="mse = 0.0\nsamples = 1\nvalue = 31793.0", fillcolor="#fae7da"] ;
380 -> 382 ;
383 [label="duration <= 2.875\nmse = 101054347.6\nsamples = 5\nvalue = 36845.0", fillcolor="#f9e1d0"] ;
379 -> 383 ;
384 [label="mse = 118342089.5\nsamples = 4\nvalue = 38108.0", fillcolor="#f9e0ce"] ;
383 -> 384 ;
385 [label="mse = 0.0\nsamples = 1\nvalue = 31793.0", fillcolor="#fae7da"] ;
383 -> 385 ;
386 [label="mse = 0.0\nsamples = 4\nvalue = 27864.0", fillcolor="#fbece1"] ;
378 -> 386 ;
387 [label="source_city <= 2.0\nmse = 7795655.09\nsamples = 276\nvalue = 28391.091", fillcolor="#fbebe0"] ;
371 -> 387 ;
388 [label="destination_city <= 4.5\nmse = 7377857.382\nsamples = 274\nvalue = 28449.741", fillcolor="#fbebe0"] ;
387 -> 388 ;
389 [label="mse = 0.0\nsamples = 1\nvalue = 39321.0", fillcolor="#f8decc"] ;
388 -> 389 ;
390 [label="duration <= 2.79\nmse = 6970387.32\nsamples = 273\nvalue = 28409.919", fillcolor="#fbebe0"] ;
388 -> 390 ;
391 [label="days_left <= 8.5\nmse = 19444291.203\nsamples = 69\nvalue = 29425.014", fillcolor="#fbeade"] ;
390 -> 391 ;
392 [label="days_left <= 7.5\nmse = 59432027.222\nsamples = 6\nvalue = 31311.667", fillcolor="#fae8db"] ;
391 -> 392 ;
393 [label="mse = 0.0\nsamples = 5\nvalue = 27864.0", fillcolor="#fbece1"] ;
392 -> 393 ;
394 [label="mse = 0.0\nsamples = 1\nvalue = 48550.0", fillcolor="#f6d3ba"] ;
392 -> 394 ;
395 [label="days_left <= 16.5\nmse = 15264654.222\nsamples = 63\nvalue = 29245.333", fillcolor="#fbeadf"] ;
391 -> 395 ;
396 [label="mse = 0.0\nsamples = 13\nvalue = 27864.0", fillcolor="#fbece1"] ;
395 -> 396 ;
397 [label="mse = 18608376.73\nsamples = 50\nvalue = 29604.48", fillcolor="#fbeade"] ;
395 -> 397 ;
398 [label="duration <= 3.71\nmse = 2284865.999\nsamples = 204\nvalue = 28066.578", fillcolor="#fbece1"] ;
390 -> 398 ;
399 [label="days_left <= 9.5\nmse = 2210311.306\nsamples = 203\nvalue = 28046.069", fillcolor="#fbece1"] ;
398 -> 399 ;
400 [label="mse = 7295395.812\nsamples = 19\nvalue = 28500.632", fillcolor="#fbebe0"] ;
399 -> 400 ;
401 [label="mse = 1661681.331\nsamples = 184\nvalue = 27999.13", fillcolor="#fbece1"] ;
399 -> 401 ;
402 [label="mse = 0.0\nsamples = 1\nvalue = 32230.0", fillcolor="#fae7d9"] ;
398 -> 402 ;
403 [label="mse = 0.0\nsamples = 2\nvalue = 20356.0", fillcolor="#fdf5ef"] ;
387 -> 403 ;
404 [label="stops <= 1.5\nmse = 113777158.892\nsamples = 68055\nvalue = 54985.339", fillcolor="#f4ccae"] ;
0 -> 404 [labeldistance=2.5, labelangle=-45, headlabel="False"] ;
405 [label="days_left <= 5.5\nmse = 110202290.514\nsamples = 67194\nvalue = 54792.567", fillcolor="#f4ccaf"] ;
404 -> 405 ;
406 [label="days_left <= 3.5\nmse = 189415934.804\nsamples = 4754\nvalue = 60547.987", fillcolor="#f3c5a4"] ;
405 -> 406 ;
407 [label="source_city <= 1.5\nmse = 179672748.792\nsamples = 2190\nvalue = 63269.708", fillcolor="#f2c29f"] ;
406 -> 407 ;
408 [label="source_city <= 0.5\nmse = 200543794.62\nsamples = 934\nvalue = 61424.786", fillcolor="#f3c4a2"] ;
407 -> 408 ;
409 [label="destination_city <= 1.5\nmse = 224193701.154\nsamples = 515\nvalue = 64259.656", fillcolor="#f2c09d"] ;
408 -> 409 ;
410 [label="duration <= 16.085\nmse = 109508560.153\nsamples = 118\nvalue = 55736.669", fillcolor="#f4cbad"] ;
409 -> 410 ;
411 [label="duration <= 5.705\nmse = 125425092.846\nsamples = 67\nvalue = 57890.463", fillcolor="#f4c8a9"] ;
410 -> 411 ;
412 [label="duration <= 5.165\nmse = 165805445.673\nsamples = 7\nvalue = 48793.429", fillcolor="#f6d3ba"] ;
411 -> 412 ;
413 [label="mse = 119936886.5\nsamples = 4\nvalue = 57334.0", fillcolor="#f4c9aa"] ;
412 -> 413 ;
414 [label="mse = 34848.0\nsamples = 3\nvalue = 37406.0", fillcolor="#f9e1cf"] ;
412 -> 414 ;
415 [label="duration <= 10.915\nmse = 109932780.036\nsamples = 60\nvalue = 58951.783", fillcolor="#f3c7a7"] ;
411 -> 415 ;
416 [label="mse = 146316353.107\nsamples = 21\nvalue = 63561.19", fillcolor="#f2c19e"] ;
415 -> 416 ;
417 [label="mse = 72740863.24\nsamples = 39\nvalue = 56469.795", fillcolor="#f4caab"] ;
415 -> 417 ;
418 [label="duration <= 20.83\nmse = 74498431.871\nsamples = 51\nvalue = 52907.176", fillcolor="#f5ceb2"] ;
410 -> 418 ;
419 [label="duration <= 20.29\nmse = 51322215.506\nsamples = 18\nvalue = 49335.778", fillcolor="#f6d2b9"] ;
418 -> 419 ;
420 [label="mse = 47174756.49\nsamples = 14\nvalue = 51004.714", fillcolor="#f5d0b6"] ;
419 -> 420 ;
421 [label="mse = 21969074.25\nsamples = 4\nvalue = 43494.5", fillcolor="#f7d9c4"] ;
419 -> 421 ;
422 [label="days_left <= 1.5\nmse = 76387949.561\nsamples = 33\nvalue = 54855.212", fillcolor="#f4ccae"] ;
418 -> 422 ;
423 [label="mse = 46426035.44\nsamples = 5\nvalue = 65380.4", fillcolor="#f2bf9b"] ;
422 -> 423 ;
424 [label="mse = 58423711.418\nsamples = 28\nvalue = 52975.714", fillcolor="#f5ceb2"] ;
422 -> 424 ;
425 [label="destination_city <= 2.5\nmse = 230272846.709\nsamples = 397\nvalue = 66792.937", fillcolor="#f1bd98"] ;
409 -> 425 ;
426 [label="duration <= 19.415\nmse = 232683206.588\nsamples = 125\nvalue = 72048.672", fillcolor="#f0b78e"] ;
425 -> 426 ;
427 [label="duration <= 17.375\nmse = 188064977.265\nsamples = 79\nvalue = 69063.228", fillcolor="#f1bb94"] ;
426 -> 427 ;
428 [label="mse = 164785487.176\nsamples = 68\nvalue = 70923.971", fillcolor="#f0b890"] ;
427 -> 428 ;
429 [label="mse = 178257056.793\nsamples = 11\nvalue = 57560.455", fillcolor="#f4c8a9"] ;
427 -> 429 ;
430 [label="duration <= 20.29\nmse = 267715336.607\nsamples = 46\nvalue = 77175.848", fillcolor="#efb184"] ;
426 -> 430 ;
431 [label="mse = 138081240.222\nsamples = 3\nvalue = 92602.333", fillcolor="#eb9f67"] ;
430 -> 431 ;
432 [label="mse = 258998217.964\nsamples = 43\nvalue = 76099.581", fillcolor="#efb286"] ;
430 -> 432 ;
433 [label="destination_city <= 4.5\nmse = 210637098.31\nsamples = 272\nvalue = 64377.618", fillcolor="#f2c09d"] ;
425 -> 433 ;
434 [label="days_left <= 1.5\nmse = 189448618.007\nsamples = 189\nvalue = 62027.296", fillcolor="#f3c3a1"] ;
433 -> 434 ;
435 [label="mse = 173455731.44\nsamples = 25\nvalue = 66671.8", fillcolor="#f2be98"] ;
434 -> 435 ;
436 [label="mse = 188096963.512\nsamples = 164\nvalue = 61319.293", fillcolor="#f3c4a2"] ;
434 -> 436 ;
437 [label="duration <= 6.705\nmse = 217663569.669\nsamples = 83\nvalue = 69729.554", fillcolor="#f1ba92"] ;
433 -> 437 ;
438 [label="mse = 0.0\nsamples = 1\nvalue = 37282.0", fillcolor="#f9e1cf"] ;
437 -> 438 ;
439 [label="mse = 207321865.239\nsamples = 82\nvalue = 70125.256", fillcolor="#f1b992"] ;
437 -> 439 ;
440 [label="days_left <= 1.5\nmse = 149456552.33\nsamples = 419\nvalue = 57940.399", fillcolor="#f4c8a9"] ;
408 -> 440 ;
441 [label="destination_city <= 2.5\nmse = 167991224.181\nsamples = 68\nvalue = 65560.103", fillcolor="#f2bf9a"] ;
440 -> 441 ;
442 [label="duration <= 15.79\nmse = 152650391.466\nsamples = 38\nvalue = 62766.184", fillcolor="#f2c2a0"] ;
441 -> 442 ;
443 [label="duration <= 9.21\nmse = 58210127.504\nsamples = 11\nvalue = 70052.636", fillcolor="#f1ba92"] ;
442 -> 443 ;
444 [label="mse = 8611290.25\nsamples = 2\nvalue = 60802.5", fillcolor="#f3c5a3"] ;
443 -> 444 ;
445 [label="mse = 45992208.617\nsamples = 9\nvalue = 72108.222", fillcolor="#f0b78e"] ;
443 -> 445 ;
446 [label="duration <= 17.79\nmse = 160683507.344\nsamples = 27\nvalue = 59797.63", fillcolor="#f3c6a5"] ;
442 -> 446 ;
447 [label="mse = 59145745.889\nsamples = 6\nvalue = 53002.667", fillcolor="#f5ceb2"] ;
446 -> 447 ;
448 [label="mse = 172733329.188\nsamples = 21\nvalue = 61739.048", fillcolor="#f3c3a1"] ;
446 -> 448 ;
449 [label="duration <= 13.58\nmse = 165011104.329\nsamples = 30\nvalue = 69099.067", fillcolor="#f1bb94"] ;
441 -> 449 ;
450 [label="duration <= 7.96\nmse = 23335611.2\nsamples = 5\nvalue = 53611.0", fillcolor="#f5cdb1"] ;
449 -> 450 ;
451 [label="mse = 0.0\nsamples = 1\nvalue = 62270.0", fillcolor="#f3c3a0"] ;
450 -> 451 ;
452 [label="mse = 5738801.188\nsamples = 4\nvalue = 51446.25", fillcolor="#f5d0b5"] ;
450 -> 452 ;
453 [label="duration <= 24.96\nmse = 135774952.778\nsamples = 25\nvalue = 72196.68", fillcolor="#f0b78e"] ;
449 -> 453 ;
454 [label="mse = 133402271.374\nsamples = 19\nvalue = 74793.684", fillcolor="#efb489"] ;
453 -> 454 ;
455 [label="mse = 54299425.472\nsamples = 6\nvalue = 63972.833", fillcolor="#f2c19d"] ;
453 -> 455 ;
456 [label="duration <= 5.375\nmse = 132438605.492\nsamples = 351\nvalue = 56464.217", fillcolor="#f4caab"] ;
440 -> 456 ;
457 [label="destination_city <= 1.0\nmse = 22067641.673\nsamples = 7\nvalue = 46315.571", fillcolor="#f7d6be"] ;
456 -> 457 ;
458 [label="duration <= 4.915\nmse = 11994071.04\nsamples = 5\nvalue = 48639.4", fillcolor="#f6d3ba"] ;
457 -> 458 ;
459 [label="mse = 0.0\nsamples = 2\nvalue = 46265.0", fillcolor="#f7d6bf"] ;
458 -> 459 ;
460 [label="mse = 13725923.556\nsamples = 3\nvalue = 50222.333", fillcolor="#f6d1b7"] ;
458 -> 460 ;
461 [label="mse = 0.0\nsamples = 2\nvalue = 40506.0", fillcolor="#f8ddc9"] ;
457 -> 461 ;
462 [label="destination_city <= 3.5\nmse = 132546050.162\nsamples = 344\nvalue = 56670.73", fillcolor="#f4caab"] ;
456 -> 462 ;
463 [label="destination_city <= 2.5\nmse = 160058041.287\nsamples = 240\nvalue = 57597.25", fillcolor="#f4c8a9"] ;
462 -> 463 ;
464 [label="mse = 151826243.753\nsamples = 160\nvalue = 55739.231", fillcolor="#f4cbad"] ;
463 -> 464 ;
465 [label="mse = 155808234.305\nsamples = 80\nvalue = 61313.288", fillcolor="#f3c4a2"] ;
463 -> 465 ;
466 [label="destination_city <= 4.5\nmse = 62504250.854\nsamples = 104\nvalue = 54532.606", fillcolor="#f4ccaf"] ;
462 -> 466 ;
467 [label="mse = 54943199.132\nsamples = 58\nvalue = 52589.379", fillcolor="#f5ceb3"] ;
466 -> 467 ;
468 [label="mse = 61273284.617\nsamples = 46\nvalue = 56982.761", fillcolor="#f4c9aa"] ;
466 -> 468 ;
469 [label="destination_city <= 3.5\nmse = 159739058.012\nsamples = 1256\nvalue = 64641.648", fillcolor="#f2c09c"] ;
407 -> 469 ;
470 [label="duration <= 4.96\nmse = 180125638.051\nsamples = 928\nvalue = 65978.477", fillcolor="#f2be9a"] ;
469 -> 470 ;
471 [label="destination_city <= 2.5\nmse = 195452983.061\nsamples = 7\nvalue = 49464.286", fillcolor="#f6d2b9"] ;
470 -> 471 ;
472 [label="duration <= 4.79\nmse = 166805765.556\nsamples = 6\nvalue = 52421.667", fillcolor="#f5cfb3"] ;
471 -> 472 ;
473 [label="duration <= 4.665\nmse = 5740816.0\nsamples = 2\nvalue = 68773.0", fillcolor="#f1bb94"] ;
472 -> 473 ;
474 [label="mse = 0.0\nsamples = 1\nvalue = 66377.0", fillcolor="#f2be99"] ;
473 -> 474 ;
475 [label="mse = 0.0\nsamples = 1\nvalue = 71169.0", fillcolor="#f0b890"] ;
473 -> 475 ;
476 [label="duration <= 4.875\nmse = 46813664.0\nsamples = 4\nvalue = 44246.0", fillcolor="#f7d8c2"] ;
472 -> 476 ;
477 [label="mse = 53290000.0\nsamples = 2\nvalue = 40402.0", fillcolor="#f8ddca"] ;
476 -> 477 ;
478 [label="mse = 10784656.0\nsamples = 2\nvalue = 48090.0", fillcolor="#f6d4bb"] ;
476 -> 478 ;
479 [label="mse = 0.0\nsamples = 1\nvalue = 31720.0", fillcolor="#fae7da"] ;
471 -> 479 ;
480 [label="destination_city <= 0.5\nmse = 177920610.307\nsamples = 921\nvalue = 66103.992", fillcolor="#f2be99"] ;
470 -> 480 ;
481 [label="duration <= 28.21\nmse = 182335939.234\nsamples = 329\nvalue = 68050.66", fillcolor="#f1bc96"] ;
480 -> 481 ;
482 [label="duration <= 26.75\nmse = 184031667.559\nsamples = 318\nvalue = 68380.425", fillcolor="#f1bc95"] ;
481 -> 482 ;
483 [label="mse = 182685616.867\nsamples = 304\nvalue = 68065.316", fillcolor="#f1bc96"] ;
482 -> 483 ;
484 [label="mse = 164286202.454\nsamples = 14\nvalue = 75222.786", fillcolor="#efb388"] ;
482 -> 484 ;
485 [label="duration <= 30.875\nmse = 39288259.884\nsamples = 11\nvalue = 58517.455", fillcolor="#f4c7a8"] ;
481 -> 485 ;
486 [label="mse = 35462794.395\nsamples = 9\nvalue = 57029.778", fillcolor="#f4c9aa"] ;
485 -> 486 ;
487 [label="mse = 1726596.0\nsamples = 2\nvalue = 65212.0", fillcolor="#f2bf9b"] ;
485 -> 487 ;
488 [label="duration <= 24.125\nmse = 172190431.584\nsamples = 592\nvalue = 65022.145", fillcolor="#f2c09b"] ;
480 -> 488 ;
489 [label="source_city <= 3.5\nmse = 179013480.273\nsamples = 447\nvalue = 66010.242", fillcolor="#f2be99"] ;
488 -> 489 ;
490 [label="mse = 181711710.506\nsamples = 209\nvalue = 67490.158", fillcolor="#f1bd97"] ;
489 -> 490 ;
491 [label="mse = 173031805.992\nsamples = 238\nvalue = 64710.651", fillcolor="#f2c09c"] ;
489 -> 491 ;
492 [label="source_city <= 2.5\nmse = 138868319.372\nsamples = 145\nvalue = 61976.083", fillcolor="#f3c3a1"] ;
488 -> 492 ;
493 [label="mse = 95415273.737\nsamples = 33\nvalue = 58184.333", fillcolor="#f4c8a8"] ;
492 -> 493 ;
494 [label="mse = 146187098.976\nsamples = 112\nvalue = 63093.295", fillcolor="#f2c29f"] ;
492 -> 494 ;
495 [label="destination_city <= 4.5\nmse = 82698327.478\nsamples = 328\nvalue = 60859.399", fillcolor="#f3c5a3"] ;
469 -> 495 ;
496 [label="duration <= 28.455\nmse = 84357037.079\nsamples = 180\nvalue = 59304.9", fillcolor="#f3c6a6"] ;
495 -> 496 ;
497 [label="duration <= 25.915\nmse = 83518369.057\nsamples = 179\nvalue = 59219.592", fillcolor="#f3c7a6"] ;
496 -> 497 ;
498 [label="duration <= 5.79\nmse = 81121627.678\nsamples = 156\nvalue = 59678.038", fillcolor="#f3c6a5"] ;
497 -> 498 ;
499 [label="mse = 96194144.556\nsamples = 6\nvalue = 53965.667", fillcolor="#f5cdb0"] ;
498 -> 499 ;
500 [label="mse = 79161269.436\nsamples = 150\nvalue = 59906.533", fillcolor="#f3c6a5"] ;
498 -> 500 ;
501 [label="duration <= 26.54\nmse = 88680254.461\nsamples = 23\nvalue = 56110.13", fillcolor="#f4caac"] ;
497 -> 501 ;
502 [label="mse = 51775783.609\nsamples = 8\nvalue = 50647.125", fillcolor="#f5d1b6"] ;
501 -> 502 ;
503 [label="mse = 83956528.596\nsamples = 15\nvalue = 59023.733", fillcolor="#f3c7a7"] ;
501 -> 503 ;
504 [label="mse = 0.0\nsamples = 1\nvalue = 74575.0", fillcolor="#f0b489"] ;
496 -> 504 ;
505 [label="source_city <= 3.5\nmse = 74167633.75\nsamples = 148\nvalue = 62750.007", fillcolor="#f2c2a0"] ;
495 -> 505 ;
506 [label="duration <= 28.21\nmse = 70170979.47\nsamples = 95\nvalue = 64114.537", fillcolor="#f2c19d"] ;
505 -> 506 ;
507 [label="duration <= 25.46\nmse = 68144261.132\nsamples = 94\nvalue = 63943.681", fillcolor="#f2c19d"] ;
506 -> 507 ;
508 [label="mse = 69264204.068\nsamples = 87\nvalue = 64407.356", fillcolor="#f2c09c"] ;
507 -> 508 ;
509 [label="mse = 18342753.265\nsamples = 7\nvalue = 58180.857", fillcolor="#f4c8a8"] ;
507 -> 509 ;
510 [label="mse = 0.0\nsamples = 1\nvalue = 80175.0", fillcolor="#eead7f"] ;
506 -> 510 ;
511 [label="days_left <= 2.5\nmse = 72011793.524\nsamples = 53\nvalue = 60304.151", fillcolor="#f3c5a4"] ;
505 -> 511 ;
512 [label="duration <= 22.42\nmse = 51223641.284\nsamples = 26\nvalue = 61953.154", fillcolor="#f3c3a1"] ;
511 -> 512 ;
513 [label="mse = 42298538.46\nsamples = 20\nvalue = 60482.2", fillcolor="#f3c5a4"] ;
512 -> 513 ;
514 [label="mse = 49720464.222\nsamples = 6\nvalue = 66856.333", fillcolor="#f1bd98"] ;
512 -> 514 ;
515 [label="duration <= 13.835\nmse = 86889997.506\nsamples = 27\nvalue = 58716.222", fillcolor="#f3c7a7"] ;
511 -> 515 ;
516 [label="mse = 129196461.91\nsamples = 12\nvalue = 62583.417", fillcolor="#f3c2a0"] ;
515 -> 516 ;
517 [label="mse = 31509348.249\nsamples = 15\nvalue = 55622.467", fillcolor="#f4cbad"] ;
515 -> 517 ;
518 [label="duration <= 16.46\nmse = 186006398.042\nsamples = 2564\nvalue = 58223.272", fillcolor="#f4c8a8"] ;
406 -> 518 ;
519 [label="destination_city <= 3.5\nmse = 199469597.965\nsamples = 1538\nvalue = 60139.335", fillcolor="#f3c5a4"] ;
518 -> 519 ;
520 [label="duration <= 5.04\nmse = 214674406.018\nsamples = 1139\nvalue = 61455.302", fillcolor="#f3c4a2"] ;
519 -> 520 ;
521 [label="destination_city <= 2.5\nmse = 76969996.585\nsamples = 21\nvalue = 44116.714", fillcolor="#f7d9c3"] ;
520 -> 521 ;
522 [label="destination_city <= 0.5\nmse = 61632436.247\nsamples = 20\nvalue = 45072.55", fillcolor="#f7d7c1"] ;
521 -> 522 ;
523 [label="duration <= 4.96\nmse = 12302131.25\nsamples = 6\nvalue = 37604.5", fillcolor="#f9e0cf"] ;
522 -> 523 ;
524 [label="mse = 4695744.96\nsamples = 5\nvalue = 36309.2", fillcolor="#f9e2d1"] ;
523 -> 524 ;
525 [label="mse = 0.0\nsamples = 1\nvalue = 44081.0", fillcolor="#f7d9c3"] ;
523 -> 525 ;
526 [label="source_city <= 0.5\nmse = 48628013.408\nsamples = 14\nvalue = 48273.143", fillcolor="#f6d4bb"] ;
522 -> 526 ;
527 [label="mse = 564752.25\nsamples = 2\nvalue = 40517.5", fillcolor="#f8ddc9"] ;
526 -> 527 ;
528 [label="mse = 44942724.354\nsamples = 12\nvalue = 49565.75", fillcolor="#f6d2b8"] ;
526 -> 528 ;
529 [label="mse = 0.0\nsamples = 1\nvalue = 25000.0", fillcolor="#fcefe7"] ;
521 -> 529 ;
530 [label="destination_city <= 0.5\nmse = 211508082.218\nsamples = 1118\nvalue = 61780.982", fillcolor="#f3c3a1"] ;
520 -> 530 ;
531 [label="source_city <= 1.5\nmse = 252226826.434\nsamples = 375\nvalue = 63923.029", fillcolor="#f2c19d"] ;
530 -> 531 ;
532 [label="duration <= 6.125\nmse = 140493487.95\nsamples = 86\nvalue = 52863.291", fillcolor="#f5ceb2"] ;
531 -> 532 ;
533 [label="mse = 182237792.984\nsamples = 8\nvalue = 63205.625", fillcolor="#f2c29f"] ;
532 -> 533 ;
534 [label="mse = 124116171.223\nsamples = 78\nvalue = 51802.538", fillcolor="#f5cfb4"] ;
532 -> 534 ;
535 [label="days_left <= 4.5\nmse = 238245561.147\nsamples = 289\nvalue = 67214.163", fillcolor="#f1bd97"] ;
531 -> 535 ;
536 [label="mse = 180456557.597\nsamples = 124\nvalue = 63530.0", fillcolor="#f2c19e"] ;
535 -> 536 ;
537 [label="mse = 263808794.916\nsamples = 165\nvalue = 69982.867", fillcolor="#f1ba92"] ;
535 -> 537 ;
538 [label="destination_city <= 1.5\nmse = 187472294.308\nsamples = 743\nvalue = 60699.868", fillcolor="#f3c5a3"] ;
530 -> 538 ;
539 [label="source_city <= 2.5\nmse = 194970656.354\nsamples = 276\nvalue = 56994.837", fillcolor="#f4c9aa"] ;
538 -> 539 ;
540 [label="mse = 162911515.342\nsamples = 146\nvalue = 54018.288", fillcolor="#f5cdb0"] ;
539 -> 540 ;
541 [label="mse = 209850310.566\nsamples = 130\nvalue = 60337.731", fillcolor="#f3c5a4"] ;
539 -> 541 ;
542 [label="source_city <= 3.5\nmse = 170133043.95\nsamples = 467\nvalue = 62889.565", fillcolor="#f2c29f"] ;
538 -> 542 ;
543 [label="mse = 177420146.574\nsamples = 336\nvalue = 64723.973", fillcolor="#f2c09c"] ;
542 -> 543 ;
544 [label="mse = 120674026.143\nsamples = 131\nvalue = 58184.519", fillcolor="#f4c8a8"] ;
542 -> 544 ;
545 [label="source_city <= 1.5\nmse = 137009719.778\nsamples = 399\nvalue = 56382.727", fillcolor="#f4caac"] ;
519 -> 545 ;
546 [label="duration <= 15.665\nmse = 128724268.178\nsamples = 180\nvalue = 59179.333", fillcolor="#f3c7a6"] ;
545 -> 546 ;
547 [label="destination_city <= 4.5\nmse = 123158615.33\nsamples = 169\nvalue = 58525.959", fillcolor="#f4c7a8"] ;
546 -> 547 ;
548 [label="source_city <= 0.5\nmse = 112580305.979\nsamples = 77\nvalue = 55992.091", fillcolor="#f4caac"] ;
547 -> 548 ;
549 [label="mse = 119210171.978\nsamples = 46\nvalue = 58209.978", fillcolor="#f4c8a8"] ;
548 -> 549 ;
550 [label="mse = 84612175.902\nsamples = 31\nvalue = 52701.032", fillcolor="#f5ceb2"] ;
548 -> 550 ;
551 [label="duration <= 5.58\nmse = 122141007.494\nsamples = 92\nvalue = 60646.696", fillcolor="#f3c5a4"] ;
547 -> 551 ;
552 [label="mse = 0.0\nsamples = 1\nvalue = 76808.0", fillcolor="#efb185"] ;
551 -> 552 ;
553 [label="mse = 120581480.617\nsamples = 91\nvalue = 60469.099", fillcolor="#f3c5a4"] ;
551 -> 553 ;
554 [label="destination_city <= 4.5\nmse = 106908517.702\nsamples = 11\nvalue = 69217.545", fillcolor="#f1bb93"] ;
546 -> 554 ;
555 [label="duration <= 16.205\nmse = 107118088.96\nsamples = 5\nvalue = 64796.2", fillcolor="#f2c09c"] ;
554 -> 555 ;
556 [label="mse = 0.0\nsamples = 1\nvalue = 75709.0", fillcolor="#efb387"] ;
555 -> 556 ;
557 [label="mse = 96682235.0\nsamples = 4\nvalue = 62068.0", fillcolor="#f3c3a1"] ;
555 -> 557 ;
558 [label="duration <= 16.29\nmse = 76868423.333\nsamples = 6\nvalue = 72902.0", fillcolor="#f0b68c"] ;
554 -> 558 ;
559 [label="mse = 82483966.25\nsamples = 4\nvalue = 69594.5", fillcolor="#f1ba93"] ;
558 -> 559 ;
560 [label="mse = 0.0\nsamples = 2\nvalue = 79517.0", fillcolor="#eeae80"] ;
558 -> 560 ;
561 [label="source_city <= 3.5\nmse = 132107981.011\nsamples = 219\nvalue = 54084.146", fillcolor="#f5cdb0"] ;
545 -> 561 ;
562 [label="source_city <= 2.5\nmse = 141293622.081\nsamples = 153\nvalue = 55496.105", fillcolor="#f4cbad"] ;
561 -> 562 ;
563 [label="duration <= 13.21\nmse = 75591585.678\nsamples = 82\nvalue = 52713.829", fillcolor="#f5ceb2"] ;
562 -> 563 ;
564 [label="mse = 54803213.052\nsamples = 54\nvalue = 54464.611", fillcolor="#f5ccaf"] ;
563 -> 564 ;
565 [label="mse = 98371113.361\nsamples = 28\nvalue = 49337.321", fillcolor="#f6d2b9"] ;
563 -> 565 ;
566 [label="duration <= 5.21\nmse = 197908969.992\nsamples = 71\nvalue = 58709.437", fillcolor="#f3c7a7"] ;
562 -> 566 ;
567 [label="mse = 0.0\nsamples = 2\nvalue = 40369.0", fillcolor="#f8ddca"] ;
566 -> 567 ;
568 [label="mse = 193612954.129\nsamples = 69\nvalue = 59241.043", fillcolor="#f3c6a6"] ;
566 -> 568 ;
569 [label="duration <= 15.96\nmse = 95478721.878\nsamples = 66\nvalue = 50810.97", fillcolor="#f5d1b6"] ;
561 -> 569 ;
570 [label="duration <= 13.545\nmse = 80490817.007\nsamples = 64\nvalue = 50107.156", fillcolor="#f6d1b7"] ;
569 -> 570 ;
571 [label="mse = 85106576.586\nsamples = 46\nvalue = 51182.391", fillcolor="#f5d0b5"] ;
570 -> 571 ;
572 [label="mse = 58189900.667\nsamples = 18\nvalue = 47359.333", fillcolor="#f6d5bd"] ;
570 -> 572 ;
573 [label="source_city <= 4.5\nmse = 51998521.0\nsamples = 2\nvalue = 73333.0", fillcolor="#f0b68c"] ;
569 -> 573 ;
574 [label="mse = 0.0\nsamples = 1\nvalue = 66122.0", fillcolor="#f2be99"] ;
573 -> 574 ;
575 [label="mse = 0.0\nsamples = 1\nvalue = 80544.0", fillcolor="#eead7e"] ;
573 -> 575 ;
576 [label="destination_city <= 1.5\nmse = 152071664.285\nsamples = 1026\nvalue = 55351.045", fillcolor="#f4cbad"] ;
518 -> 576 ;
577 [label="source_city <= 1.5\nmse = 159819284.566\nsamples = 336\nvalue = 52979.348", fillcolor="#f5ceb2"] ;
576 -> 577 ;
578 [label="duration <= 27.665\nmse = 119329971.954\nsamples = 101\nvalue = 46610.257", fillcolor="#f6d6be"] ;
577 -> 578 ;
579 [label="days_left <= 4.5\nmse = 109048728.056\nsamples = 93\nvalue = 45949.527", fillcolor="#f7d6bf"] ;
578 -> 579 ;
580 [label="duration <= 20.33\nmse = 140462329.04\nsamples = 53\nvalue = 47366.547", fillcolor="#f6d5bd"] ;
579 -> 580 ;
581 [label="mse = 99669476.56\nsamples = 19\nvalue = 50927.579", fillcolor="#f5d0b6"] ;
580 -> 581 ;
582 [label="mse = 152211869.482\nsamples = 34\nvalue = 45376.559", fillcolor="#f7d7c0"] ;
580 -> 582 ;
583 [label="duration <= 22.915\nmse = 61239976.574\nsamples = 40\nvalue = 44071.975", fillcolor="#f7d9c3"] ;
579 -> 583 ;
584 [label="mse = 48209211.109\nsamples = 16\nvalue = 41487.125", fillcolor="#f8dcc8"] ;
583 -> 584 ;
585 [label="mse = 62503320.748\nsamples = 24\nvalue = 45795.208", fillcolor="#f7d7bf"] ;
583 -> 585 ;
586 [label="duration <= 27.915\nmse = 174776718.938\nsamples = 8\nvalue = 54291.25", fillcolor="#f5ccaf"] ;
578 -> 586 ;
587 [label="duration <= 27.79\nmse = 296132472.25\nsamples = 2\nvalue = 68580.5", fillcolor="#f1bb95"] ;
586 -> 587 ;
588 [label="mse = 0.0\nsamples = 1\nvalue = 51372.0", fillcolor="#f5d0b5"] ;
587 -> 588 ;
589 [label="mse = 0.0\nsamples = 1\nvalue = 85789.0", fillcolor="#eda774"] ;
587 -> 589 ;
590 [label="days_left <= 4.5\nmse = 43576949.806\nsamples = 6\nvalue = 49528.167", fillcolor="#f6d2b8"] ;
586 -> 590 ;
591 [label="mse = 20525114.188\nsamples = 4\nvalue = 46268.25", fillcolor="#f7d6bf"] ;
590 -> 591 ;
592 [label="mse = 25918281.0\nsamples = 2\nvalue = 56048.0", fillcolor="#f4caac"] ;
590 -> 592 ;
593 [label="duration <= 25.29\nmse = 152293512.201\nsamples = 235\nvalue = 55716.702", fillcolor="#f4cbad"] ;
577 -> 593 ;
594 [label="destination_city <= 0.5\nmse = 150498000.508\nsamples = 191\nvalue = 56919.995", fillcolor="#f4c9ab"] ;
593 -> 594 ;
595 [label="duration <= 17.375\nmse = 149282355.484\nsamples = 95\nvalue = 59724.989", fillcolor="#f3c6a5"] ;
594 -> 595 ;
596 [label="mse = 206376156.076\nsamples = 12\nvalue = 69514.417", fillcolor="#f1ba93"] ;
595 -> 596 ;
597 [label="mse = 125169289.143\nsamples = 83\nvalue = 58309.651", fillcolor="#f4c8a8"] ;
595 -> 597 ;
598 [label="source_city <= 2.5\nmse = 136210013.046\nsamples = 96\nvalue = 54144.219", fillcolor="#f5cdb0"] ;
594 -> 598 ;
599 [label="mse = 124590292.68\nsamples = 22\nvalue = 49775.045", fillcolor="#f6d2b8"] ;
598 -> 599 ;
600 [label="mse = 132301961.649\nsamples = 74\nvalue = 55443.162", fillcolor="#f4cbad"] ;
598 -> 600 ;
601 [label="days_left <= 4.5\nmse = 126518665.944\nsamples = 44\nvalue = 50493.318", fillcolor="#f5d1b7"] ;
593 -> 601 ;
602 [label="source_city <= 2.5\nmse = 132548572.931\nsamples = 33\nvalue = 52398.091", fillcolor="#f5cfb3"] ;
601 -> 602 ;
603 [label="mse = 47604011.654\nsamples = 9\nvalue = 47349.889", fillcolor="#f6d5bd"] ;
602 -> 603 ;
604 [label="mse = 151262418.722\nsamples = 24\nvalue = 54291.167", fillcolor="#f5ccaf"] ;
602 -> 604 ;
605 [label="duration <= 26.625\nmse = 64891035.273\nsamples = 11\nvalue = 44779.0", fillcolor="#f7d8c1"] ;
601 -> 605 ;
606 [label="mse = 40344613.36\nsamples = 5\nvalue = 38967.2", fillcolor="#f8dfcc"] ;
605 -> 606 ;
607 [label="mse = 33742607.472\nsamples = 6\nvalue = 49622.167", fillcolor="#f6d2b8"] ;
605 -> 607 ;
608 [label="destination_city <= 3.5\nmse = 144225982.124\nsamples = 690\nvalue = 56505.958", fillcolor="#f4caab"] ;
576 -> 608 ;
609 [label="destination_city <= 2.5\nmse = 176677269.344\nsamples = 347\nvalue = 58391.311", fillcolor="#f4c7a8"] ;
608 -> 609 ;
610 [label="source_city <= 0.5\nmse = 155014520.826\nsamples = 180\nvalue = 56925.656", fillcolor="#f4c9ab"] ;
609 -> 610 ;
611 [label="duration <= 26.0\nmse = 202483836.58\nsamples = 35\nvalue = 62524.857", fillcolor="#f3c3a0"] ;
610 -> 611 ;
612 [label="mse = 195745222.41\nsamples = 30\nvalue = 64772.7", fillcolor="#f2c09c"] ;
611 -> 612 ;
613 [label="mse = 30698026.16\nsamples = 5\nvalue = 49037.8", fillcolor="#f6d3b9"] ;
611 -> 613 ;
614 [label="source_city <= 2.0\nmse = 134162276.095\nsamples = 145\nvalue = 55574.124", fillcolor="#f4cbad"] ;
610 -> 614 ;
615 [label="mse = 108451701.471\nsamples = 38\nvalue = 50420.053", fillcolor="#f6d1b7"] ;
614 -> 615 ;
616 [label="mse = 130508599.781\nsamples = 107\nvalue = 57404.542", fillcolor="#f4c9aa"] ;
614 -> 616 ;
617 [label="duration <= 17.875\nmse = 195215366.26\nsamples = 167\nvalue = 59971.06", fillcolor="#f3c6a5"] ;
609 -> 617 ;
618 [label="duration <= 16.835\nmse = 102076432.812\nsamples = 16\nvalue = 52469.75", fillcolor="#f5cfb3"] ;
617 -> 618 ;
619 [label="mse = 147058719.688\nsamples = 4\nvalue = 61873.75", fillcolor="#f3c3a1"] ;
618 -> 619 ;
620 [label="mse = 47777796.743\nsamples = 12\nvalue = 49335.083", fillcolor="#f6d2b9"] ;
618 -> 620 ;
621 [label="duration <= 28.46\nmse = 198490273.44\nsamples = 151\nvalue = 60765.901", fillcolor="#f3c5a3"] ;
617 -> 621 ;
622 [label="mse = 203789401.792\nsamples = 141\nvalue = 61420.716", fillcolor="#f3c4a2"] ;
621 -> 622 ;
623 [label="mse = 32480261.2\nsamples = 10\nvalue = 51533.0", fillcolor="#f5d0b5"] ;
621 -> 623 ;
624 [label="source_city <= 0.5\nmse = 104162299.256\nsamples = 343\nvalue = 54598.618", fillcolor="#f4ccaf"] ;
608 -> 624 ;
625 [label="destination_city <= 4.5\nmse = 105921596.6\nsamples = 76\nvalue = 56987.711", fillcolor="#f4c9aa"] ;
624 -> 625 ;
626 [label="duration <= 16.665\nmse = 92758923.826\nsamples = 39\nvalue = 53923.385", fillcolor="#f5cdb0"] ;
625 -> 626 ;
627 [label="mse = 0.0\nsamples = 4\nvalue = 45693.0", fillcolor="#f7d7c0"] ;
626 -> 627 ;
628 [label="mse = 94733560.0\nsamples = 35\nvalue = 54864.0", fillcolor="#f4ccae"] ;
626 -> 628 ;
629 [label="duration <= 18.96\nmse = 99465424.435\nsamples = 37\nvalue = 60217.676", fillcolor="#f3c5a4"] ;
625 -> 629 ;
630 [label="mse = 56359293.45\nsamples = 10\nvalue = 53957.5", fillcolor="#f5cdb0"] ;
629 -> 630 ;
631 [label="mse = 95540087.748\nsamples = 27\nvalue = 62536.259", fillcolor="#f3c3a0"] ;
629 -> 631 ;
632 [label="duration <= 24.29\nmse = 101574387.787\nsamples = 267\nvalue = 53918.577", fillcolor="#f5cdb0"] ;
624 -> 632 ;
633 [label="duration <= 16.54\nmse = 89528897.391\nsamples = 168\nvalue = 54984.339", fillcolor="#f4ccae"] ;
632 -> 633 ;
634 [label="mse = 211513392.25\nsamples = 2\nvalue = 66000.5", fillcolor="#f2be99"] ;
633 -> 634 ;
635 [label="mse = 86579470.767\nsamples = 166\nvalue = 54851.614", fillcolor="#f4ccae"] ;
633 -> 635 ;
636 [label="source_city <= 2.5\nmse = 116816803.99\nsamples = 99\nvalue = 52110.01", fillcolor="#f5cfb4"] ;
632 -> 636 ;
637 [label="mse = 95205963.317\nsamples = 55\nvalue = 49668.255", fillcolor="#f6d2b8"] ;
636 -> 637 ;
638 [label="mse = 127061751.163\nsamples = 44\nvalue = 55162.205", fillcolor="#f4cbae"] ;
636 -> 638 ;
639 [label="duration <= 16.29\nmse = 101457143.631\nsamples = 62440\nvalue = 54354.366", fillcolor="#f5ccaf"] ;
405 -> 639 ;
640 [label="duration <= 6.46\nmse = 102811450.625\nsamples = 41691\nvalue = 55507.692", fillcolor="#f4cbad"] ;
639 -> 640 ;
641 [label="duration <= 5.04\nmse = 86296028.546\nsamples = 4081\nvalue = 51278.574", fillcolor="#f5d0b5"] ;
640 -> 641 ;
642 [label="source_city <= 2.5\nmse = 72398592.747\nsamples = 653\nvalue = 45170.368", fillcolor="#f7d7c1"] ;
641 -> 642 ;
643 [label="source_city <= 0.5\nmse = 74240685.334\nsamples = 509\nvalue = 46700.53", fillcolor="#f6d5be"] ;
642 -> 643 ;
644 [label="destination_city <= 1.5\nmse = 19766091.847\nsamples = 72\nvalue = 40287.986", fillcolor="#f8ddca"] ;
643 -> 644 ;
645 [label="duration <= 4.795\nmse = 13063484.713\nsamples = 38\nvalue = 42554.395", fillcolor="#f7dac6"] ;
644 -> 645 ;
646 [label="mse = 0.0\nsamples = 1\nvalue = 29764.0", fillcolor="#fbeade"] ;
645 -> 646 ;
647 [label="mse = 8875588.02\nsamples = 37\nvalue = 42900.081", fillcolor="#f7dac5"] ;
645 -> 647 ;
648 [label="duration <= 4.79\nmse = 15100009.467\nsamples = 34\nvalue = 37754.941", fillcolor="#f9e0cf"] ;
644 -> 648 ;
649 [label="mse = 11062500.938\nsamples = 32\nvalue = 38296.25", fillcolor="#f9e0ce"] ;
648 -> 649 ;
650 [label="mse = 0.0\nsamples = 2\nvalue = 29094.0", fillcolor="#fbebdf"] ;
648 -> 650 ;
651 [label="destination_city <= 0.5\nmse = 75324611.429\nsamples = 437\nvalue = 47757.059", fillcolor="#f6d4bc"] ;
643 -> 651 ;
652 [label="duration <= 4.705\nmse = 16986450.415\nsamples = 59\nvalue = 42413.695", fillcolor="#f7dbc6"] ;
651 -> 652 ;
653 [label="mse = 0.0\nsamples = 19\nvalue = 37256.0", fillcolor="#f9e1d0"] ;
652 -> 653 ;
654 [label="mse = 6417116.44\nsamples = 40\nvalue = 44863.6", fillcolor="#f7d8c1"] ;
652 -> 654 ;
655 [label="source_city <= 1.5\nmse = 79278260.409\nsamples = 378\nvalue = 48591.077", fillcolor="#f6d3ba"] ;
651 -> 655 ;
656 [label="mse = 73114861.42\nsamples = 185\nvalue = 51595.886", fillcolor="#f5d0b5"] ;
655 -> 656 ;
657 [label="mse = 68235667.62\nsamples = 193\nvalue = 45710.819", fillcolor="#f7d7c0"] ;
655 -> 657 ;
658 [label="source_city <= 4.5\nmse = 28357068.569\nsamples = 144\nvalue = 39761.667", fillcolor="#f8decb"] ;
642 -> 658 ;
659 [label="destination_city <= 1.5\nmse = 8532191.0\nsamples = 96\nvalue = 36618.354", fillcolor="#f9e2d1"] ;
658 -> 659 ;
660 [label="duration <= 4.875\nmse = 9676488.039\nsamples = 57\nvalue = 35399.474", fillcolor="#f9e3d3"] ;
659 -> 660 ;
661 [label="mse = 6057482.25\nsamples = 24\nvalue = 33034.0", fillcolor="#fae6d7"] ;
660 -> 661 ;
662 [label="mse = 5279477.421\nsamples = 33\nvalue = 37119.818", fillcolor="#f9e1d0"] ;
660 -> 662 ;
663 [label="days_left <= 6.5\nmse = 1514862.573\nsamples = 39\nvalue = 38399.795", fillcolor="#f8dfcd"] ;
659 -> 663 ;
664 [label="mse = 0.0\nsamples = 1\nvalue = 43811.0", fillcolor="#f7d9c3"] ;
663 -> 664 ;
665 [label="mse = 763893.239\nsamples = 38\nvalue = 38257.395", fillcolor="#f9e0ce"] ;
663 -> 665 ;
666 [label="destination_city <= 1.5\nmse = 8724342.873\nsamples = 48\nvalue = 46048.292", fillcolor="#f7d6bf"] ;
658 -> 666 ;
667 [label="days_left <= 12.0\nmse = 9189760.443\nsamples = 34\nvalue = 47003.294", fillcolor="#f6d5bd"] ;
666 -> 667 ;
668 [label="mse = 14052067.556\nsamples = 6\nvalue = 50901.333", fillcolor="#f5d0b6"] ;
667 -> 668 ;
669 [label="mse = 4194112.0\nsamples = 28\nvalue = 46168.0", fillcolor="#f7d6bf"] ;
667 -> 669 ;
670 [label="mse = 0.0\nsamples = 14\nvalue = 43729.0", fillcolor="#f7d9c3"] ;
666 -> 670 ;
671 [label="duration <= 6.29\nmse = 80482275.784\nsamples = 3428\nvalue = 52442.127", fillcolor="#f5cfb3"] ;
641 -> 671 ;
672 [label="duration <= 5.625\nmse = 76893656.264\nsamples = 3027\nvalue = 53156.191", fillcolor="#f5ceb2"] ;
671 -> 672 ;
673 [label="duration <= 5.125\nmse = 72746332.224\nsamples = 1266\nvalue = 51343.705", fillcolor="#f5d0b5"] ;
672 -> 673 ;
674 [label="destination_city <= 4.5\nmse = 48038679.614\nsamples = 116\nvalue = 56451.276", fillcolor="#f4caab"] ;
673 -> 674 ;
675 [label="mse = 33447160.369\nsamples = 109\nvalue = 57484.083", fillcolor="#f4c9a9"] ;
674 -> 675 ;
676 [label="mse = 0.0\nsamples = 7\nvalue = 40369.0", fillcolor="#f8ddca"] ;
674 -> 676 ;
677 [label="source_city <= 4.5\nmse = 72341740.773\nsamples = 1150\nvalue = 50828.507", fillcolor="#f5d1b6"] ;
673 -> 677 ;
678 [label="mse = 73360495.637\nsamples = 1012\nvalue = 51318.749", fillcolor="#f5d0b5"] ;
677 -> 678 ;
679 [label="mse = 50183593.993\nsamples = 138\nvalue = 47233.399", fillcolor="#f6d5bd"] ;
677 -> 679 ;
680 [label="destination_city <= 0.5\nmse = 75815670.516\nsamples = 1761\nvalue = 54459.204", fillcolor="#f5ccaf"] ;
672 -> 680 ;
681 [label="duration <= 5.875\nmse = 73566128.071\nsamples = 622\nvalue = 56588.646", fillcolor="#f4caab"] ;
680 -> 681 ;
682 [label="mse = 21701824.801\nsamples = 257\nvalue = 53763.008", fillcolor="#f5cdb0"] ;
681 -> 682 ;
683 [label="mse = 100504160.563\nsamples = 365\nvalue = 58578.205", fillcolor="#f3c7a7"] ;
681 -> 683 ;
684 [label="duration <= 5.79\nmse = 73215584.021\nsamples = 1139\nvalue = 53296.331", fillcolor="#f5ceb1"] ;
680 -> 684 ;
685 [label="mse = 45742050.969\nsamples = 260\nvalue = 56826.015", fillcolor="#f4c9ab"] ;
684 -> 685 ;
686 [label="mse = 76566804.244\nsamples = 879\nvalue = 52252.283", fillcolor="#f5cfb3"] ;
684 -> 686 ;
687 [label="duration <= 6.375\nmse = 74668205.59\nsamples = 401\nvalue = 47051.925", fillcolor="#f6d5bd"] ;
671 -> 687 ;
688 [label="destination_city <= 2.5\nmse = 52886921.26\nsamples = 249\nvalue = 43460.213", fillcolor="#f7d9c4"] ;
687 -> 688 ;
689 [label="source_city <= 2.5\nmse = 32261530.481\nsamples = 179\nvalue = 40138.721", fillcolor="#f8ddca"] ;
688 -> 689 ;
690 [label="mse = 27228232.014\nsamples = 74\nvalue = 35966.284", fillcolor="#f9e2d2"] ;
689 -> 690 ;
691 [label="mse = 14892466.913\nsamples = 105\nvalue = 43079.295", fillcolor="#f7dac5"] ;
689 -> 691 ;
692 [label="source_city <= 0.5\nmse = 5277746.505\nsamples = 70\nvalue = 51953.743", fillcolor="#f5cfb4"] ;
688 -> 692 ;
693 [label="mse = 1852987.504\nsamples = 33\nvalue = 49965.636", fillcolor="#f6d2b8"] ;
692 -> 693 ;
694 [label="mse = 1662845.102\nsamples = 37\nvalue = 53726.919", fillcolor="#f5cdb1"] ;
692 -> 694 ;
695 [label="source_city <= 4.5\nmse = 54597493.124\nsamples = 152\nvalue = 52935.717", fillcolor="#f5ceb2"] ;
687 -> 695 ;
696 [label="destination_city <= 0.5\nmse = 35790472.532\nsamples = 150\nvalue = 52428.727", fillcolor="#f5cfb3"] ;
695 -> 696 ;
697 [label="mse = 5060226.662\nsamples = 25\nvalue = 40840.76", fillcolor="#f8dcc9"] ;
696 -> 697 ;
698 [label="mse = 9709088.554\nsamples = 125\nvalue = 54746.32", fillcolor="#f4ccaf"] ;
696 -> 698 ;
699 [label="mse = 0.0\nsamples = 2\nvalue = 90960.0", fillcolor="#eca16b"] ;
695 -> 699 ;
700 [label="destination_city <= 3.5\nmse = 102452208.76\nsamples = 37610\nvalue = 55966.586", fillcolor="#f4caac"] ;
640 -> 700 ;
701 [label="source_city <= 3.5\nmse = 103087343.64\nsamples = 27368\nvalue = 56770.916", fillcolor="#f4c9ab"] ;
700 -> 701 ;
702 [label="source_city <= 1.5\nmse = 106292007.853\nsamples = 18253\nvalue = 57700.808", fillcolor="#f4c8a9"] ;
701 -> 702 ;
703 [label="destination_city <= 1.5\nmse = 106251645.102\nsamples = 9267\nvalue = 55950.672", fillcolor="#f4caac"] ;
702 -> 703 ;
704 [label="duration <= 6.54\nmse = 78429884.511\nsamples = 3120\nvalue = 50384.08", fillcolor="#f6d1b7"] ;
703 -> 704 ;
705 [label="mse = 87275529.894\nsamples = 71\nvalue = 58758.366", fillcolor="#f3c7a7"] ;
704 -> 705 ;
706 [label="mse = 76552835.787\nsamples = 3049\nvalue = 50189.074", fillcolor="#f6d1b7"] ;
704 -> 706 ;
707 [label="source_city <= 0.5\nmse = 96662200.75\nsamples = 6147\nvalue = 58776.076", fillcolor="#f3c7a7"] ;
703 -> 707 ;
708 [label="mse = 94878538.68\nsamples = 3622\nvalue = 61067.421", fillcolor="#f3c4a3"] ;
707 -> 708 ;
709 [label="mse = 80886253.414\nsamples = 2525\nvalue = 55489.244", fillcolor="#f4cbad"] ;
707 -> 709 ;
710 [label="destination_city <= 0.5\nmse = 99917335.29\nsamples = 8986\nvalue = 59505.673", fillcolor="#f3c6a6"] ;
702 -> 710 ;
711 [label="source_city <= 2.5\nmse = 92209609.732\nsamples = 3814\nvalue = 61624.694", fillcolor="#f3c4a2"] ;
710 -> 711 ;
712 [label="mse = 77775921.386\nsamples = 2236\nvalue = 63053.339", fillcolor="#f2c29f"] ;
711 -> 712 ;
713 [label="mse = 105671746.324\nsamples = 1578\nvalue = 59600.328", fillcolor="#f3c6a6"] ;
711 -> 713 ;
714 [label="source_city <= 2.5\nmse = 99848177.636\nsamples = 5172\nvalue = 57943.038", fillcolor="#f4c8a9"] ;
710 -> 714 ;
715 [label="mse = 79226360.96\nsamples = 3031\nvalue = 55690.594", fillcolor="#f4cbad"] ;
714 -> 715 ;
716 [label="mse = 111691560.303\nsamples = 2141\nvalue = 61131.809", fillcolor="#f3c4a3"] ;
714 -> 716 ;
717 [label="source_city <= 4.5\nmse = 91470822.711\nsamples = 9115\nvalue = 54908.787", fillcolor="#f4ccae"] ;
701 -> 717 ;
718 [label="destination_city <= 2.5\nmse = 86308800.912\nsamples = 4496\nvalue = 52918.874", fillcolor="#f5ceb2"] ;
717 -> 718 ;
719 [label="destination_city <= 0.5\nmse = 82708149.678\nsamples = 3626\nvalue = 52226.882", fillcolor="#f5cfb3"] ;
718 -> 719 ;
720 [label="mse = 78982975.685\nsamples = 1473\nvalue = 54775.589", fillcolor="#f4ccaf"] ;
719 -> 720 ;
721 [label="mse = 77771936.605\nsamples = 2153\nvalue = 50483.155", fillcolor="#f5d1b7"] ;
719 -> 721 ;
722 [label="duration <= 10.415\nmse = 91001884.774\nsamples = 870\nvalue = 55802.968", fillcolor="#f4cbad"] ;
718 -> 722 ;
723 [label="mse = 153194997.498\nsamples = 346\nvalue = 59133.671", fillcolor="#f3c7a6"] ;
722 -> 723 ;
724 [label="mse = 37773453.62\nsamples = 524\nvalue = 53603.687", fillcolor="#f5cdb1"] ;
722 -> 724 ;
725 [label="destination_city <= 0.5\nmse = 88889402.966\nsamples = 4619\nvalue = 56845.71", fillcolor="#f4c9ab"] ;
717 -> 725 ;
726 [label="duration <= 11.29\nmse = 126670153.489\nsamples = 1433\nvalue = 59741.297", fillcolor="#f3c6a5"] ;
725 -> 726 ;
727 [label="mse = 131461541.434\nsamples = 613\nvalue = 63482.615", fillcolor="#f2c19e"] ;
726 -> 727 ;
728 [label="mse = 104801901.838\nsamples = 820\nvalue = 56944.434", fillcolor="#f4c9aa"] ;
726 -> 728 ;
729 [label="duration <= 6.835\nmse = 66429028.428\nsamples = 3186\nvalue = 55543.332", fillcolor="#f4cbad"] ;
725 -> 729 ;
730 [label="mse = 3169916.271\nsamples = 55\nvalue = 45352.727", fillcolor="#f7d7c0"] ;
729 -> 730 ;
731 [label="mse = 65683980.547\nsamples = 3131\nvalue = 55722.343", fillcolor="#f4cbad"] ;
729 -> 731 ;
732 [label="duration <= 10.875\nmse = 94406914.968\nsamples = 10242\nvalue = 53817.308", fillcolor="#f5cdb0"] ;
700 -> 732 ;
733 [label="duration <= 10.625\nmse = 110651814.681\nsamples = 3410\nvalue = 55678.212", fillcolor="#f4cbad"] ;
732 -> 733 ;
734 [label="duration <= 9.375\nmse = 103065928.307\nsamples = 3292\nvalue = 55198.382", fillcolor="#f4cbae"] ;
733 -> 734 ;
735 [label="destination_city <= 4.5\nmse = 57673366.002\nsamples = 1957\nvalue = 53556.706", fillcolor="#f5cdb1"] ;
734 -> 735 ;
736 [label="mse = 58151736.929\nsamples = 996\nvalue = 51443.403", fillcolor="#f5d0b5"] ;
735 -> 736 ;
737 [label="mse = 47751578.526\nsamples = 961\nvalue = 55746.977", fillcolor="#f4cbad"] ;
735 -> 737 ;
738 [label="source_city <= 2.5\nmse = 159865350.858\nsamples = 1335\nvalue = 57604.944", fillcolor="#f4c8a9"] ;
734 -> 738 ;
739 [label="mse = 49946345.013\nsamples = 722\nvalue = 53818.76", fillcolor="#f5cdb0"] ;
738 -> 739 ;
740 [label="mse = 252558889.628\nsamples = 613\nvalue = 62064.364", fillcolor="#f3c3a1"] ;
738 -> 740 ;
741 [label="source_city <= 2.0\nmse = 136665410.009\nsamples = 118\nvalue = 69064.644", fillcolor="#f1bb94"] ;
733 -> 741 ;
742 [label="destination_city <= 4.5\nmse = 54364774.959\nsamples = 42\nvalue = 59459.429", fillcolor="#f3c6a6"] ;
741 -> 742 ;
743 [label="mse = 9226533.438\nsamples = 8\nvalue = 45404.75", fillcolor="#f7d7c0"] ;
742 -> 743 ;
744 [label="mse = 7570814.007\nsamples = 34\nvalue = 62766.412", fillcolor="#f2c2a0"] ;
742 -> 744 ;
745 [label="source_city <= 4.0\nmse = 102985051.745\nsamples = 76\nvalue = 74372.789", fillcolor="#f0b48a"] ;
741 -> 745 ;
746 [label="mse = 62463920.64\nsamples = 70\nvalue = 76346.6", fillcolor="#efb286"] ;
745 -> 746 ;
747 [label="mse = 0.0\nsamples = 6\nvalue = 51345.0", fillcolor="#f5d0b5"] ;
745 -> 747 ;
748 [label="destination_city <= 4.5\nmse = 83707588.544\nsamples = 6832\nvalue = 52888.49", fillcolor="#f5ceb2"] ;
732 -> 748 ;
749 [label="duration <= 11.625\nmse = 91907528.937\nsamples = 3480\nvalue = 51360.33", fillcolor="#f5d0b5"] ;
748 -> 749 ;
750 [label="source_city <= 0.5\nmse = 71294169.355\nsamples = 475\nvalue = 47731.808", fillcolor="#f6d4bc"] ;
749 -> 750 ;
751 [label="mse = 57981684.225\nsamples = 174\nvalue = 52803.069", fillcolor="#f5ceb2"] ;
750 -> 751 ;
752 [label="mse = 55529018.353\nsamples = 301\nvalue = 44800.249", fillcolor="#f7d8c1"] ;
750 -> 752 ;
753 [label="duration <= 12.54\nmse = 92755733.843\nsamples = 3005\nvalue = 51933.891", fillcolor="#f5cfb4"] ;
749 -> 753 ;
754 [label="mse = 197688287.05\nsamples = 542\nvalue = 55689.994", fillcolor="#f4cbad"] ;
753 -> 754 ;
755 [label="mse = 65876780.559\nsamples = 2463\nvalue = 51107.334", fillcolor="#f5d0b5"] ;
753 -> 755 ;
756 [label="source_city <= 3.5\nmse = 70253051.022\nsamples = 3352\nvalue = 54475.004", fillcolor="#f5ccaf"] ;
748 -> 756 ;
757 [label="source_city <= 0.5\nmse = 62125073.037\nsamples = 2816\nvalue = 55286.447", fillcolor="#f4cbae"] ;
756 -> 757 ;
758 [label="mse = 69927660.248\nsamples = 767\nvalue = 57417.173", fillcolor="#f4c9aa"] ;
757 -> 758 ;
759 [label="mse = 56868734.391\nsamples = 2049\nvalue = 54488.855", fillcolor="#f5ccaf"] ;
757 -> 759 ;
760 [label="duration <= 11.585\nmse = 91321916.443\nsamples = 536\nvalue = 50211.897", fillcolor="#f6d1b7"] ;
756 -> 760 ;
761 [label="mse = 2533268.286\nsamples = 74\nvalue = 41615.365", fillcolor="#f8dcc7"] ;
760 -> 761 ;
762 [label="mse = 91810672.14\nsamples = 462\nvalue = 51588.831", fillcolor="#f5d0b5"] ;
760 -> 762 ;
763 [label="destination_city <= 1.5\nmse = 90692994.015\nsamples = 20749\nvalue = 52036.987", fillcolor="#f5cfb4"] ;
639 -> 763 ;
764 [label="source_city <= 1.5\nmse = 107273298.913\nsamples = 5562\nvalue = 49380.689", fillcolor="#f6d2b9"] ;
763 -> 764 ;
765 [label="duration <= 27.045\nmse = 61689097.234\nsamples = 1936\nvalue = 43104.108", fillcolor="#f7dac5"] ;
764 -> 765 ;
766 [label="duration <= 24.375\nmse = 61159549.438\nsamples = 1696\nvalue = 42532.07", fillcolor="#f7dac6"] ;
765 -> 766 ;
767 [label="duration <= 19.04\nmse = 62655556.948\nsamples = 1081\nvalue = 44044.691", fillcolor="#f7d9c3"] ;
766 -> 767 ;
768 [label="destination_city <= 0.5\nmse = 39663135.682\nsamples = 396\nvalue = 40860.212", fillcolor="#f8dcc9"] ;
767 -> 768 ;
769 [label="mse = 22168451.823\nsamples = 191\nvalue = 38030.408", fillcolor="#f9e0ce"] ;
768 -> 769 ;
770 [label="mse = 41550754.962\nsamples = 205\nvalue = 43496.761", fillcolor="#f7d9c4"] ;
768 -> 770 ;
771 [label="duration <= 23.79\nmse = 66695933.651\nsamples = 685\nvalue = 45885.645", fillcolor="#f7d6bf"] ;
767 -> 771 ;
772 [label="mse = 58793552.931\nsamples = 561\nvalue = 44928.581", fillcolor="#f7d8c1"] ;
771 -> 772 ;
773 [label="mse = 79555389.549\nsamples = 124\nvalue = 50215.589", fillcolor="#f6d1b7"] ;
771 -> 773 ;
774 [label="duration <= 24.79\nmse = 47439217.31\nsamples = 615\nvalue = 39873.301", fillcolor="#f8decb"] ;
766 -> 774 ;
775 [label="destination_city <= 0.5\nmse = 21275885.398\nsamples = 154\nvalue = 35167.208", fillcolor="#f9e3d3"] ;
774 -> 775 ;
776 [label="mse = 15432574.261\nsamples = 57\nvalue = 32555.86", fillcolor="#fae6d8"] ;
775 -> 776 ;
777 [label="mse = 18347759.566\nsamples = 97\nvalue = 36701.711", fillcolor="#f9e1d1"] ;
775 -> 777 ;
778 [label="duration <= 24.96\nmse = 46309294.674\nsamples = 461\nvalue = 41445.401", fillcolor="#f8dcc8"] ;
774 -> 778 ;
779 [label="mse = 15891240.96\nsamples = 40\nvalue = 54396.2", fillcolor="#f5ccaf"] ;
778 -> 779 ;
780 [label="mse = 31749596.058\nsamples = 421\nvalue = 40214.922", fillcolor="#f8ddca"] ;
778 -> 780 ;
781 [label="duration <= 27.21\nmse = 46777828.392\nsamples = 240\nvalue = 47146.508", fillcolor="#f6d5bd"] ;
765 -> 781 ;
782 [label="source_city <= 0.5\nmse = 18841208.438\nsamples = 32\nvalue = 57912.25", fillcolor="#f4c8a9"] ;
781 -> 782 ;
783 [label="mse = 0.0\nsamples = 2\nvalue = 41101.0", fillcolor="#f8dcc8"] ;
782 -> 783 ;
784 [label="mse = 0.0\nsamples = 30\nvalue = 59033.0", fillcolor="#f3c7a7"] ;
782 -> 784 ;
785 [label="duration <= 28.125\nmse = 30501593.538\nsamples = 208\nvalue = 45490.24", fillcolor="#f7d7c0"] ;
781 -> 785 ;
786 [label="duration <= 27.54\nmse = 34685903.253\nsamples = 147\nvalue = 46623.231", fillcolor="#f6d6be"] ;
785 -> 786 ;
787 [label="mse = 11102651.18\nsamples = 100\nvalue = 44002.6", fillcolor="#f7d9c3"] ;
786 -> 787 ;
788 [label="mse = 39161218.636\nsamples = 47\nvalue = 52199.043", fillcolor="#f5cfb3"] ;
786 -> 788 ;
789 [label="duration <= 28.29\nmse = 9870002.534\nsamples = 61\nvalue = 42759.918", fillcolor="#f7dac5"] ;
785 -> 789 ;
790 [label="mse = 0.0\nsamples = 23\nvalue = 39847.0", fillcolor="#f8decb"] ;
789 -> 790 ;
791 [label="mse = 7599780.158\nsamples = 38\nvalue = 44523.0", fillcolor="#f7d8c2"] ;
789 -> 791 ;
792 [label="duration <= 22.04\nmse = 99347036.289\nsamples = 3626\nvalue = 52731.892", fillcolor="#f5ceb2"] ;
764 -> 792 ;
793 [label="source_city <= 4.5\nmse = 94959617.878\nsamples = 2359\nvalue = 54136.105", fillcolor="#f5cdb0"] ;
792 -> 793 ;
794 [label="source_city <= 3.5\nmse = 85896820.942\nsamples = 1702\nvalue = 52869.338", fillcolor="#f5ceb2"] ;
793 -> 794 ;
795 [label="source_city <= 2.5\nmse = 86959158.88\nsamples = 1074\nvalue = 54717.294", fillcolor="#f4ccaf"] ;
794 -> 795 ;
796 [label="mse = 82660574.058\nsamples = 444\nvalue = 51468.167", fillcolor="#f5d0b5"] ;
795 -> 796 ;
797 [label="mse = 77305121.252\nsamples = 630\nvalue = 57007.156", fillcolor="#f4c9aa"] ;
795 -> 797 ;
798 [label="destination_city <= 0.5\nmse = 68251959.293\nsamples = 628\nvalue = 49708.981", fillcolor="#f6d2b8"] ;
794 -> 798 ;
799 [label="mse = 72966981.243\nsamples = 306\nvalue = 52908.359", fillcolor="#f5ceb2"] ;
798 -> 799 ;
800 [label="mse = 44799771.157\nsamples = 322\nvalue = 46668.578", fillcolor="#f6d6be"] ;
798 -> 800 ;
801 [label="destination_city <= 0.5\nmse = 103511138.979\nsamples = 657\nvalue = 57417.744", fillcolor="#f4c9aa"] ;
793 -> 801 ;
802 [label="days_left <= 12.5\nmse = 121669300.832\nsamples = 420\nvalue = 59391.807", fillcolor="#f3c6a6"] ;
801 -> 802 ;
803 [label="mse = 234233707.777\nsamples = 60\nvalue = 67636.7", fillcolor="#f1bc96"] ;
802 -> 803 ;
804 [label="mse = 89690571.686\nsamples = 360\nvalue = 58017.658", fillcolor="#f4c8a8"] ;
802 -> 804 ;
805 [label="duration <= 20.125\nmse = 52187799.102\nsamples = 237\nvalue = 53919.405", fillcolor="#f5cdb0"] ;
801 -> 805 ;
806 [label="mse = 45128337.067\nsamples = 158\nvalue = 51290.576", fillcolor="#f5d0b5"] ;
805 -> 806 ;
807 [label="mse = 24842268.11\nsamples = 79\nvalue = 59177.063", fillcolor="#f3c7a6"] ;
805 -> 807 ;
808 [label="duration <= 29.96\nmse = 97009120.341\nsamples = 1267\nvalue = 50117.418", fillcolor="#f6d1b7"] ;
792 -> 808 ;
809 [label="duration <= 25.29\nmse = 92379314.172\nsamples = 1211\nvalue = 49638.571", fillcolor="#f6d2b8"] ;
808 -> 809 ;
810 [label="duration <= 24.29\nmse = 84853447.159\nsamples = 769\nvalue = 51452.1", fillcolor="#f5d0b5"] ;
809 -> 810 ;
811 [label="mse = 74497535.24\nsamples = 583\nvalue = 50128.714", fillcolor="#f6d1b7"] ;
810 -> 811 ;
812 [label="mse = 94617465.288\nsamples = 186\nvalue = 55600.134", fillcolor="#f4cbad"] ;
810 -> 812 ;
813 [label="duration <= 26.79\nmse = 89795532.778\nsamples = 442\nvalue = 46483.36", fillcolor="#f6d6be"] ;
809 -> 813 ;
814 [label="mse = 91582456.557\nsamples = 219\nvalue = 42398.137", fillcolor="#f7dbc6"] ;
813 -> 814 ;
815 [label="mse = 55555267.333\nsamples = 223\nvalue = 50495.305", fillcolor="#f5d1b7"] ;
813 -> 815 ;
816 [label="duration <= 30.375\nmse = 84943211.57\nsamples = 56\nvalue = 60472.464", fillcolor="#f3c5a4"] ;
808 -> 816 ;
817 [label="days_left <= 22.5\nmse = 85826724.674\nsamples = 33\nvalue = 65127.485", fillcolor="#f2bf9b"] ;
816 -> 817 ;
818 [label="mse = 138935046.609\nsamples = 8\nvalue = 71433.875", fillcolor="#f0b88f"] ;
817 -> 818 ;
819 [label="mse = 52032978.486\nsamples = 25\nvalue = 63109.44", fillcolor="#f2c29f"] ;
817 -> 819 ;
820 [label="duration <= 30.875\nmse = 7976673.902\nsamples = 23\nvalue = 53793.522", fillcolor="#f5cdb0"] ;
816 -> 820 ;
821 [label="mse = 0.0\nsamples = 9\nvalue = 50271.0", fillcolor="#f6d1b7"] ;
820 -> 821 ;
822 [label="mse = 0.0\nsamples = 14\nvalue = 56058.0", fillcolor="#f4caac"] ;
820 -> 822 ;
823 [label="destination_city <= 3.5\nmse = 81090206.112\nsamples = 15187\nvalue = 53009.814", fillcolor="#f5ceb2"] ;
763 -> 823 ;
824 [label="destination_city <= 2.5\nmse = 89779967.47\nsamples = 7799\nvalue = 54458.778", fillcolor="#f5ccaf"] ;
823 -> 824 ;
825 [label="duration <= 18.04\nmse = 97417880.726\nsamples = 3458\nvalue = 52280.283", fillcolor="#f5cfb3"] ;
824 -> 825 ;
826 [label="duration <= 16.375\nmse = 82089475.302\nsamples = 803\nvalue = 57574.747", fillcolor="#f4c8a9"] ;
825 -> 826 ;
827 [label="source_city <= 0.5\nmse = 47431610.733\nsamples = 45\nvalue = 67659.578", fillcolor="#f1bc96"] ;
826 -> 827 ;
828 [label="mse = 14451863.869\nsamples = 34\nvalue = 70809.794", fillcolor="#f0b990"] ;
827 -> 828 ;
829 [label="mse = 23885453.339\nsamples = 11\nvalue = 57922.545", fillcolor="#f4c8a9"] ;
827 -> 829 ;
830 [label="source_city <= 2.0\nmse = 77750729.166\nsamples = 758\nvalue = 56976.044", fillcolor="#f4c9aa"] ;
826 -> 830 ;
831 [label="mse = 114302050.449\nsamples = 320\nvalue = 53688.475", fillcolor="#f5cdb1"] ;
830 -> 831 ;
832 [label="mse = 37381222.717\nsamples = 438\nvalue = 59377.92", fillcolor="#f3c6a6"] ;
830 -> 832 ;
833 [label="source_city <= 3.5\nmse = 91011733.58\nsamples = 2655\nvalue = 50678.982", fillcolor="#f5d1b6"] ;
825 -> 833 ;
834 [label="source_city <= 2.0\nmse = 84291911.589\nsamples = 1515\nvalue = 52937.286", fillcolor="#f5ceb2"] ;
833 -> 834 ;
835 [label="mse = 68797997.125\nsamples = 730\nvalue = 48151.06", fillcolor="#f6d4bb"] ;
834 -> 835 ;
836 [label="mse = 57586949.922\nsamples = 785\nvalue = 57388.171", fillcolor="#f4c9aa"] ;
834 -> 836 ;
837 [label="source_city <= 4.5\nmse = 84157478.059\nsamples = 1140\nvalue = 47677.816", fillcolor="#f6d4bc"] ;
833 -> 837 ;
838 [label="mse = 93488963.029\nsamples = 622\nvalue = 45793.376", fillcolor="#f7d7bf"] ;
837 -> 838 ;
839 [label="mse = 63568227.696\nsamples = 518\nvalue = 49940.598", fillcolor="#f6d2b8"] ;
837 -> 839 ;
840 [label="duration <= 27.54\nmse = 76903683.402\nsamples = 4341\nvalue = 56194.146", fillcolor="#f4caac"] ;
824 -> 840 ;
841 [label="source_city <= 3.0\nmse = 77517250.935\nsamples = 4022\nvalue = 56513.887", fillcolor="#f4caab"] ;
840 -> 841 ;
842 [label="duration <= 17.46\nmse = 97285421.804\nsamples = 2585\nvalue = 57366.564", fillcolor="#f4c9aa"] ;
841 -> 842 ;
843 [label="mse = 58679828.233\nsamples = 288\nvalue = 54385.184", fillcolor="#f5ccaf"] ;
842 -> 843 ;
844 [label="mse = 100871630.228\nsamples = 2297\nvalue = 57740.372", fillcolor="#f4c8a9"] ;
842 -> 844 ;
845 [label="source_city <= 4.5\nmse = 38295907.11\nsamples = 1437\nvalue = 54980.019", fillcolor="#f4ccae"] ;
841 -> 845 ;
846 [label="mse = 24199409.907\nsamples = 738\nvalue = 52610.057", fillcolor="#f5ceb3"] ;
845 -> 846 ;
847 [label="mse = 40987843.302\nsamples = 699\nvalue = 57482.21", fillcolor="#f4c9a9"] ;
845 -> 847 ;
848 [label="duration <= 28.25\nmse = 51627012.773\nsamples = 319\nvalue = 52162.803", fillcolor="#f5cfb3"] ;
840 -> 848 ;
849 [label="duration <= 27.665\nmse = 30906023.429\nsamples = 147\nvalue = 48501.857", fillcolor="#f6d3ba"] ;
848 -> 849 ;
850 [label="mse = 24922185.672\nsamples = 66\nvalue = 46255.455", fillcolor="#f7d6bf"] ;
849 -> 850 ;
851 [label="mse = 28319551.106\nsamples = 81\nvalue = 50332.259", fillcolor="#f6d1b7"] ;
849 -> 851 ;
852 [label="source_city <= 1.5\nmse = 48092165.523\nsamples = 172\nvalue = 55291.634", fillcolor="#f4cbae"] ;
848 -> 852 ;
853 [label="mse = 65498652.074\nsamples = 46\nvalue = 62272.457", fillcolor="#f3c3a0"] ;
852 -> 853 ;
854 [label="mse = 17451280.803\nsamples = 126\nvalue = 52743.079", fillcolor="#f5ceb2"] ;
852 -> 854 ;
855 [label="source_city <= 0.5\nmse = 67361147.875\nsamples = 7388\nvalue = 51480.244", fillcolor="#f5d0b5"] ;
823 -> 855 ;
856 [label="duration <= 17.79\nmse = 79854339.196\nsamples = 1687\nvalue = 54936.464", fillcolor="#f4ccae"] ;
855 -> 856 ;
857 [label="duration <= 16.375\nmse = 45830184.621\nsamples = 448\nvalue = 51058.188", fillcolor="#f5d0b6"] ;
856 -> 857 ;
858 [label="days_left <= 7.5\nmse = 90807847.807\nsamples = 34\nvalue = 63727.324", fillcolor="#f2c19e"] ;
857 -> 858 ;
859 [label="mse = 106987992.25\nsamples = 2\nvalue = 89860.5", fillcolor="#eca26d"] ;
858 -> 859 ;
860 [label="mse = 44444911.0\nsamples = 32\nvalue = 62094.0", fillcolor="#f3c3a1"] ;
858 -> 860 ;
861 [label="duration <= 17.71\nmse = 27872073.996\nsamples = 414\nvalue = 50017.727", fillcolor="#f6d2b8"] ;
857 -> 861 ;
862 [label="mse = 24858686.986\nsamples = 410\nvalue = 50195.89", fillcolor="#f6d1b7"] ;
861 -> 862 ;
863 [label="mse = 0.0\nsamples = 4\nvalue = 31756.0", fillcolor="#fae7da"] ;
861 -> 863 ;
864 [label="destination_city <= 4.5\nmse = 84751807.397\nsamples = 1239\nvalue = 56338.779", fillcolor="#f4caac"] ;
856 -> 864 ;
865 [label="duration <= 18.165\nmse = 82350240.372\nsamples = 644\nvalue = 53715.804", fillcolor="#f5cdb1"] ;
864 -> 865 ;
866 [label="mse = 24717777.703\nsamples = 68\nvalue = 60426.132", fillcolor="#f3c5a4"] ;
865 -> 866 ;
867 [label="mse = 83210640.584\nsamples = 576\nvalue = 52923.613", fillcolor="#f5ceb2"] ;
865 -> 867 ;
868 [label="duration <= 21.04\nmse = 71844736.302\nsamples = 595\nvalue = 59177.763", fillcolor="#f3c7a6"] ;
864 -> 868 ;
869 [label="mse = 60121644.259\nsamples = 201\nvalue = 61843.299", fillcolor="#f3c3a1"] ;
868 -> 869 ;
870 [label="mse = 72351491.046\nsamples = 394\nvalue = 57817.934", fillcolor="#f4c8a9"] ;
868 -> 870 ;
871 [label="source_city <= 2.5\nmse = 59083434.631\nsamples = 5701\nvalue = 50457.503", fillcolor="#f6d1b7"] ;
855 -> 871 ;
872 [label="duration <= 23.21\nmse = 67830265.792\nsamples = 2845\nvalue = 48767.19", fillcolor="#f6d3ba"] ;
871 -> 872 ;
873 [label="duration <= 17.955\nmse = 63641806.101\nsamples = 1627\nvalue = 50918.336", fillcolor="#f5d0b6"] ;
872 -> 873 ;
874 [label="mse = 69606761.708\nsamples = 708\nvalue = 49024.617", fillcolor="#f6d3b9"] ;
873 -> 874 ;
875 [label="mse = 54155130.791\nsamples = 919\nvalue = 52377.261", fillcolor="#f5cfb3"] ;
873 -> 875 ;
876 [label="destination_city <= 4.5\nmse = 58986932.63\nsamples = 1218\nvalue = 45893.697", fillcolor="#f7d6bf"] ;
872 -> 876 ;
877 [label="mse = 65924547.773\nsamples = 635\nvalue = 44115.619", fillcolor="#f7d9c3"] ;
876 -> 877 ;
878 [label="mse = 44236273.941\nsamples = 583\nvalue = 47830.369", fillcolor="#f6d4bc"] ;
876 -> 878 ;
879 [label="source_city <= 3.5\nmse = 44688946.578\nsamples = 2856\nvalue = 52141.306", fillcolor="#f5cfb4"] ;
871 -> 879 ;
880 [label="destination_city <= 4.5\nmse = 23689587.683\nsamples = 1514\nvalue = 54587.851", fillcolor="#f4ccaf"] ;
879 -> 880 ;
881 [label="mse = 22594283.621\nsamples = 769\nvalue = 52615.349", fillcolor="#f5ceb3"] ;
880 -> 881 ;
882 [label="mse = 16658583.165\nsamples = 745\nvalue = 56623.898", fillcolor="#f4caab"] ;
880 -> 882 ;
883 [label="duration <= 23.71\nmse = 54008770.627\nsamples = 1342\nvalue = 49381.194", fillcolor="#f6d2b9"] ;
879 -> 883 ;
884 [label="mse = 53537407.776\nsamples = 795\nvalue = 50499.346", fillcolor="#f5d1b7"] ;
883 -> 884 ;
885 [label="mse = 50235771.655\nsamples = 547\nvalue = 47756.091", fillcolor="#f6d4bc"] ;
883 -> 885 ;
886 [label="source_city <= 1.5\nmse = 163536687.034\nsamples = 861\nvalue = 70029.592", fillcolor="#f1ba92"] ;
404 -> 886 ;
887 [label="duration <= 8.125\nmse = 144469998.579\nsamples = 537\nvalue = 74564.827", fillcolor="#f0b489"] ;
886 -> 887 ;
888 [label="source_city <= 0.5\nmse = 265628836.216\nsamples = 60\nvalue = 63644.517", fillcolor="#f2c19e"] ;
887 -> 888 ;
889 [label="days_left <= 5.5\nmse = 48897604.027\nsamples = 45\nvalue = 69769.533", fillcolor="#f1ba92"] ;
888 -> 889 ;
890 [label="days_left <= 3.5\nmse = 15851822.222\nsamples = 3\nvalue = 62837.667", fillcolor="#f2c29f"] ;
889 -> 890 ;
891 [label="mse = 0.0\nsamples = 1\nvalue = 68351.0", fillcolor="#f1bc95"] ;
890 -> 891 ;
892 [label="destination_city <= 3.5\nmse = 980100.0\nsamples = 2\nvalue = 60081.0", fillcolor="#f3c5a5"] ;
890 -> 892 ;
893 [label="mse = 0.0\nsamples = 1\nvalue = 59091.0", fillcolor="#f3c7a6"] ;
892 -> 893 ;
894 [label="mse = 0.0\nsamples = 1\nvalue = 61071.0", fillcolor="#f3c4a3"] ;
892 -> 894 ;
895 [label="days_left <= 10.5\nmse = 47580661.746\nsamples = 42\nvalue = 70264.667", fillcolor="#f1b991"] ;
889 -> 895 ;
896 [label="days_left <= 8.5\nmse = 103900216.889\nsamples = 3\nvalue = 78500.333", fillcolor="#efaf82"] ;
895 -> 896 ;
897 [label="duration <= 7.705\nmse = 17239104.0\nsamples = 2\nvalue = 71703.0", fillcolor="#f0b88f"] ;
896 -> 897 ;
898 [label="mse = 0.0\nsamples = 1\nvalue = 75855.0", fillcolor="#efb387"] ;
897 -> 898 ;
899 [label="mse = 0.0\nsamples = 1\nvalue = 67551.0", fillcolor="#f1bd97"] ;
897 -> 899 ;
900 [label="mse = 0.0\nsamples = 1\nvalue = 92095.0", fillcolor="#eb9f68"] ;
896 -> 900 ;
901 [label="days_left <= 11.5\nmse = 37629649.361\nsamples = 39\nvalue = 69631.154", fillcolor="#f1ba93"] ;
895 -> 901 ;
902 [label="duration <= 7.705\nmse = 14364100.0\nsamples = 2\nvalue = 62881.0", fillcolor="#f2c29f"] ;
901 -> 902 ;
903 [label="mse = 0.0\nsamples = 1\nvalue = 66671.0", fillcolor="#f2be98"] ;
902 -> 903 ;
904 [label="mse = 0.0\nsamples = 1\nvalue = 59091.0", fillcolor="#f3c7a6"] ;
902 -> 904 ;
905 [label="days_left <= 28.5\nmse = 36291164.08\nsamples = 37\nvalue = 69996.027", fillcolor="#f1ba92"] ;
901 -> 905 ;
906 [label="days_left <= 26.5\nmse = 52522280.41\nsamples = 19\nvalue = 71757.105", fillcolor="#f0b88f"] ;
905 -> 906 ;
907 [label="mse = 53496415.0\nsamples = 16\nvalue = 70979.5", fillcolor="#f0b890"] ;
906 -> 907 ;
908 [label="mse = 26902488.889\nsamples = 3\nvalue = 75904.333", fillcolor="#efb387"] ;
906 -> 908 ;
909 [label="days_left <= 39.5\nmse = 12429054.321\nsamples = 18\nvalue = 68137.111", fillcolor="#f1bc95"] ;
905 -> 909 ;
910 [label="mse = 10968848.765\nsamples = 9\nvalue = 69352.111", fillcolor="#f1ba93"] ;
909 -> 910 ;
911 [label="mse = 10936809.877\nsamples = 9\nvalue = 66922.111", fillcolor="#f1bd98"] ;
909 -> 911 ;
912 [label="duration <= 7.625\nmse = 465632582.782\nsamples = 15\nvalue = 45269.467", fillcolor="#f7d7c0"] ;
888 -> 912 ;
913 [label="days_left <= 3.5\nmse = 42591496.889\nsamples = 6\nvalue = 71209.667", fillcolor="#f0b890"] ;
912 -> 913 ;
