digraph Tree {
node [shape=box, style="filled", color="black"] ;
0 [label="duration <= 4.54\nmse = 167836040.457\nsamples = 74789\nvalue = 52549.428", fillcolor="#f5ceb1"] ;
1 [label="duration <= 2.04\nmse = 48164467.464\nsamples = 6734\nvalue = 27931.678", fillcolor="#fbece1"] ;
0 -> 1 [labeldistance=2.5, labelangle=45, headlabel="True"] ;
2 [label="duration <= 1.625\nmse = 12358860.54\nsamples = 1293\nvalue = 20566.808", fillcolor="#fdf5ef"] ;
1 -> 2 ;
3 [label="duration <= 1.29\nmse = 6362576.68\nsamples = 399\nvalue = 17454.396", fillcolor="#fef8f5"] ;
2 -> 3 ;
4 [label="destination_city <= 1.0\nmse = 6063945.846\nsamples = 55\nvalue = 13638.436", fillcolor="#fffdfc"] ;
3 -> 4 ;
5 [label="mse = 0.0\nsamples = 12\nvalue = 17738.0", fillcolor="#fef8f4"] ;
4 -> 5 ;
6 [label="source_city <= 1.0\nmse = 1757162.466\nsamples = 43\nvalue = 12494.372", fillcolor="#fffefe"] ;
4 -> 6 ;
7 [label="mse = 0.0\nsamples = 2\nvalue = 17548.0", fillcolor="#fef8f4"] ;
6 -> 7 ;
8 [label="days_left <= 3.5\nmse = 536293.93\nsamples = 41\nvalue = 12247.854", fillcolor="#ffffff"] ;
6 -> 8 ;
9 [label="mse = 0.0\nsamples = 2\nvalue = 15474.0", fillcolor="#fefbf8"] ;
8 -> 9 ;
10 [label="destination_city <= 3.0\nmse = 2680.037\nsamples = 39\nvalue = 12082.41", fillcolor="#ffffff"] ;
8 -> 10 ;
11 [label="mse = 447.566\nsamples = 28\nvalue = 12109.929", fillcolor="#ffffff"] ;
10 -> 11 ;
12 [label="mse = 1528.595\nsamples = 11\nvalue = 12012.364", fillcolor="#ffffff"] ;
10 -> 12 ;
13 [label="destination_city <= 2.0\nmse = 3709934.436\nsamples = 344\nvalue = 18064.506", fillcolor="#fdf8f3"] ;
3 -> 13 ;
14 [label="source_city <= 3.0\nmse = 3760214.137\nsamples = 156\nvalue = 18939.205", fillcolor="#fdf7f2"] ;
13 -> 14 ;
15 [label="days_left <= 4.5\nmse = 2153884.72\nsamples = 38\nvalue = 21249.263", fillcolor="#fdf4ed"] ;
14 -> 15 ;
16 [label="days_left <= 3.5\nmse = 1006307.556\nsamples = 3\nvalue = 25053.333", fillcolor="#fcefe6"] ;
15 -> 16 ;
17 [label="mse = 0.0\nsamples = 2\nvalue = 24344.0", fillcolor="#fcf0e7"] ;
16 -> 17 ;
18 [label="mse = 0.0\nsamples = 1\nvalue = 26472.0", fillcolor="#fbede3"] ;
16 -> 18 ;
19 [label="days_left <= 15.0\nmse = 905564.16\nsamples = 35\nvalue = 20923.2", fillcolor="#fdf4ee"] ;
15 -> 19 ;
20 [label="mse = 4531520.0\nsamples = 6\nvalue = 21712.0", fillcolor="#fdf3ec"] ;
19 -> 20 ;
21 [label="mse = 0.0\nsamples = 29\nvalue = 20760.0", fillcolor="#fdf4ee"] ;
19 -> 21 ;
22 [label="days_left <= 3.5\nmse = 2005602.747\nsamples = 118\nvalue = 18195.288", fillcolor="#fdf7f3"] ;
14 -> 22 ;
23 [label="days_left <= 2.5\nmse = 4218544.222\nsamples = 3\nvalue = 23121.333", fillcolor="#fcf1ea"] ;
22 -> 23 ;
24 [label="mse = 0.0\nsamples = 1\nvalue = 26026.0", fillcolor="#fbeee4"] ;
23 -> 24 ;
25 [label="mse = 0.0\nsamples = 2\nvalue = 21669.0", fillcolor="#fdf3ed"] ;
23 -> 25 ;
26 [label="duration <= 1.46\nmse = 1298336.135\nsamples = 115\nvalue = 18066.783", fillcolor="#fdf8f3"] ;
22 -> 26 ;
27 [label="mse = 3327041.648\nsamples = 40\nvalue = 18581.05", fillcolor="#fdf7f2"] ;
26 -> 27 ;
28 [label="mse = 81.397\nsamples = 75\nvalue = 17792.507", fillcolor="#fef8f4"] ;
26 -> 28 ;
29 [label="source_city <= 1.0\nmse = 2506537.256\nsamples = 188\nvalue = 17338.691", fillcolor="#fef9f5"] ;
13 -> 29 ;
30 [label="days_left <= 5.5\nmse = 564764.317\nsamples = 171\nvalue = 17761.251", fillcolor="#fef8f4"] ;
29 -> 30 ;
31 [label="duration <= 1.54\nmse = 2357441.653\nsamples = 11\nvalue = 19246.273", fillcolor="#fdf6f1"] ;
30 -> 31 ;
32 [label="mse = 2396728.609\nsamples = 8\nvalue = 19659.125", fillcolor="#fdf6f0"] ;
31 -> 32 ;
33 [label="mse = 586083.556\nsamples = 3\nvalue = 18145.333", fillcolor="#fdf8f3"] ;
31 -> 33 ;
34 [label="days_left <= 14.5\nmse = 279480.757\nsamples = 160\nvalue = 17659.156", fillcolor="#fef8f4"] ;
30 -> 34 ;
35 [label="mse = 1286501.452\nsamples = 32\nvalue = 17953.281", fillcolor="#fef8f4"] ;
34 -> 35 ;
36 [label="mse = 691.359\nsamples = 128\nvalue = 17585.625", fillcolor="#fef8f4"] ;
34 -> 36 ;
37 [label="source_city <= 3.0\nmse = 2176038.062\nsamples = 17\nvalue = 13088.235", fillcolor="#fffefd"] ;
29 -> 37 ;
38 [label="mse = 0.0\nsamples = 11\nvalue = 12000.0", fillcolor="#ffffff"] ;
37 -> 38 ;
39 [label="duration <= 1.375\nmse = 13888.889\nsamples = 6\nvalue = 15083.333", fillcolor="#fefbf9"] ;
37 -> 39 ;
40 [label="mse = 0.0\nsamples = 2\nvalue = 15250.0", fillcolor="#fefbf9"] ;
39 -> 40 ;
41 [label="mse = 0.0\nsamples = 4\nvalue = 15000.0", fillcolor="#fefbf9"] ;
39 -> 41 ;
42 [label="duration <= 1.96\nmse = 8782023.035\nsamples = 894\nvalue = 21955.905", fillcolor="#fcf3ec"] ;
2 -> 42 ;
43 [label="days_left <= 3.5\nmse = 4656621.452\nsamples = 739\nvalue = 21376.51", fillcolor="#fdf4ed"] ;
42 -> 43 ;
44 [label="days_left <= 1.5\nmse = 33459915.717\nsamples = 19\nvalue = 27758.579", fillcolor="#fbece1"] ;
43 -> 44 ;
45 [label="mse = 0.0\nsamples = 1\nvalue = 39948.0", fillcolor="#f8ddca"] ;
44 -> 45 ;
46 [label="duration <= 1.875\nmse = 26605658.793\nsamples = 18\nvalue = 27081.389", fillcolor="#fbede2"] ;
44 -> 46 ;
47 [label="source_city <= 1.0\nmse = 12527104.75\nsamples = 12\nvalue = 25489.5", fillcolor="#fcefe5"] ;
46 -> 47 ;
48 [label="mse = 12776448.0\nsamples = 7\nvalue = 26908.0", fillcolor="#fbede2"] ;
47 -> 48 ;
49 [label="mse = 5417226.24\nsamples = 5\nvalue = 23503.6", fillcolor="#fcf1e9"] ;
47 -> 49 ;
50 [label="source_city <= 3.5\nmse = 39558105.472\nsamples = 6\nvalue = 30265.167", fillcolor="#fae9dc"] ;
46 -> 50 ;
51 [label="mse = 54167917.188\nsamples = 4\nvalue = 31305.75", fillcolor="#fae7da"] ;
50 -> 51 ;
52 [label="mse = 3841600.0\nsamples = 2\nvalue = 28184.0", fillcolor="#fbebe0"] ;
50 -> 52 ;
53 [label="source_city <= 4.5\nmse = 2793330.058\nsamples = 720\nvalue = 21208.094", fillcolor="#fdf4ed"] ;
43 -> 53 ;
54 [label="source_city <= 3.0\nmse = 2421757.277\nsamples = 657\nvalue = 20972.295", fillcolor="#fdf4ee"] ;
53 -> 54 ;
55 [label="destination_city <= 3.0\nmse = 1998011.597\nsamples = 626\nvalue = 21132.46", fillcolor="#fdf4ee"] ;
54 -> 55 ;
56 [label="mse = 1710364.115\nsamples = 585\nvalue = 20965.292", fillcolor="#fdf4ee"] ;
55 -> 56 ;
57 [label="mse = 14350.03\nsamples = 41\nvalue = 23517.659", fillcolor="#fcf1e9"] ;
55 -> 57 ;
58 [label="mse = 0.0\nsamples = 31\nvalue = 17738.0", fillcolor="#fef8f4"] ;
54 -> 58 ;
59 [label="duration <= 1.835\nmse = 41542.694\nsamples = 63\nvalue = 23667.143", fillcolor="#fcf1e9"] ;
53 -> 59 ;
60 [label="mse = 0.0\nsamples = 26\nvalue = 23424.0", fillcolor="#fcf1e9"] ;
59 -> 60 ;
61 [label="mse = 0.0\nsamples = 37\nvalue = 23838.0", fillcolor="#fcf1e8"] ;
59 -> 61 ;
62 [label="days_left <= 18.5\nmse = 19219470.252\nsamples = 155\nvalue = 24718.31", fillcolor="#fcf0e7"] ;
42 -> 62 ;
63 [label="source_city <= 3.0\nmse = 34720649.772\nsamples = 61\nvalue = 26157.639", fillcolor="#fbeee4"] ;
62 -> 63 ;
64 [label="destination_city <= 2.5\nmse = 49559165.412\nsamples = 39\nvalue = 27466.154", fillcolor="#fbece1"] ;
63 -> 64 ;
65 [label="days_left <= 17.5\nmse = 60553114.597\nsamples = 29\nvalue = 28689.241", fillcolor="#fbebdf"] ;
64 -> 65 ;
66 [label="mse = 46452405.377\nsamples = 27\nvalue = 28144.741", fillcolor="#fbebe0"] ;
65 -> 66 ;
67 [label="mse = 192876544.0\nsamples = 2\nvalue = 36040.0", fillcolor="#f9e2d1"] ;
65 -> 67 ;
68 [label="days_left <= 4.0\nmse = 757596.16\nsamples = 10\nvalue = 23919.2", fillcolor="#fcf0e8"] ;
64 -> 68 ;
69 [label="mse = 0.0\nsamples = 2\nvalue = 25660.0", fillcolor="#fceee5"] ;
68 -> 69 ;
70 [label="mse = 0.0\nsamples = 8\nvalue = 23484.0", fillcolor="#fcf1e9"] ;
68 -> 70 ;
71 [label="mse = 0.0\nsamples = 22\nvalue = 23838.0", fillcolor="#fcf1e8"] ;
63 -> 71 ;
72 [label="days_left <= 45.5\nmse = 6943394.86\nsamples = 94\nvalue = 23784.277", fillcolor="#fcf1e8"] ;
62 -> 72 ;
73 [label="source_city <= 2.5\nmse = 527871.333\nsamples = 77\nvalue = 23314.208", fillcolor="#fcf1e9"] ;
72 -> 73 ;
74 [label="destination_city <= 3.0\nmse = 431608.889\nsamples = 36\nvalue = 22706.667", fillcolor="#fcf2eb"] ;
73 -> 74 ;
75 [label="mse = 6.531\nsamples = 21\nvalue = 22151.429", fillcolor="#fcf3ec"] ;
74 -> 75 ;
76 [label="mse = 0.0\nsamples = 15\nvalue = 23484.0", fillcolor="#fcf1e9"] ;
74 -> 76 ;
77 [label="destination_city <= 0.5\nmse = 3731.493\nsamples = 41\nvalue = 23847.659", fillcolor="#fcf1e8"] ;
73 -> 77 ;
78 [label="mse = 0.0\nsamples = 40\nvalue = 23838.0", fillcolor="#fcf1e8"] ;
77 -> 78 ;
79 [label="mse = 0.0\nsamples = 1\nvalue = 24234.0", fillcolor="#fcf0e8"] ;
77 -> 79 ;
80 [label="source_city <= 1.5\nmse = 30467886.007\nsamples = 17\nvalue = 25913.412", fillcolor="#fceee4"] ;
72 -> 80 ;
81 [label="days_left <= 47.0\nmse = 14052067.556\nsamples = 3\nvalue = 37122.667", fillcolor="#f9e0cf"] ;
80 -> 81 ;
82 [label="mse = 0.0\nsamples = 1\nvalue = 42424.0", fillcolor="#f7dac5"] ;
81 -> 82 ;
83 [label="mse = 0.0\nsamples = 2\nvalue = 34472.0", fillcolor="#f9e4d4"] ;
81 -> 83 ;
84 [label="source_city <= 3.0\nmse = 1291596.245\nsamples = 14\nvalue = 23511.429", fillcolor="#fcf1e9"] ;
80 -> 84 ;
85 [label="mse = 0.0\nsamples = 2\nvalue = 20760.0", fillcolor="#fdf4ee"] ;
84 -> 85 ;
86 [label="mse = 34848.0\nsamples = 12\nvalue = 23970.0", fillcolor="#fcf0e8"] ;
84 -> 86 ;
87 [label="destination_city <= 3.5\nmse = 40720243.762\nsamples = 5441\nvalue = 29681.867", fillcolor="#fbe9dd"] ;
1 -> 87 ;
88 [label="source_city <= 3.5\nmse = 42147480.356\nsamples = 4576\nvalue = 30480.337", fillcolor="#fae9dc"] ;
87 -> 88 ;
89 [label="days_left <= 5.5\nmse = 40901836.304\nsamples = 3793\nvalue = 31282.682", fillcolor="#fae8da"] ;
88 -> 89 ;
90 [label="duration <= 3.375\nmse = 82750513.618\nsamples = 277\nvalue = 35349.339", fillcolor="#f9e3d2"] ;
89 -> 90 ;
91 [label="duration <= 2.21\nmse = 81135042.59\nsamples = 256\nvalue = 35905.012", fillcolor="#f9e2d1"] ;
90 -> 91 ;
92 [label="source_city <= 0.5\nmse = 104043604.694\nsamples = 67\nvalue = 38130.149", fillcolor="#f8dfcd"] ;
91 -> 92 ;
93 [label="mse = 73547097.798\nsamples = 29\nvalue = 41763.172", fillcolor="#f8dbc6"] ;
92 -> 93 ;
94 [label="mse = 109557296.454\nsamples = 38\nvalue = 35357.579", fillcolor="#f9e3d2"] ;
92 -> 94 ;
95 [label="duration <= 2.625\nmse = 70636603.582\nsamples = 189\nvalue = 35116.206", fillcolor="#f9e3d3"] ;
91 -> 95 ;
96 [label="mse = 86842575.242\nsamples = 99\nvalue = 33792.303", fillcolor="#fae4d5"] ;
95 -> 96 ;
97 [label="mse = 48761251.561\nsamples = 90\nvalue = 36572.5", fillcolor="#f9e1d0"] ;
95 -> 97 ;
98 [label="duration <= 4.0\nmse = 52793932.435\nsamples = 21\nvalue = 28575.429", fillcolor="#fbebdf"] ;
90 -> 98 ;
99 [label="days_left <= 3.5\nmse = 2995901.714\nsamples = 14\nvalue = 23876.0", fillcolor="#fcf1e8"] ;
98 -> 99 ;
100 [label="mse = 35.265\nsamples = 7\nvalue = 25606.857", fillcolor="#fceee5"] ;
99 -> 100 ;
101 [label="mse = 35.265\nsamples = 7\nvalue = 22145.143", fillcolor="#fcf3ec"] ;
99 -> 101 ;
102 [label="duration <= 4.335\nmse = 19882220.49\nsamples = 7\nvalue = 37974.286", fillcolor="#f8dfcd"] ;
98 -> 102 ;
103 [label="mse = 313600.0\nsamples = 2\nvalue = 31996.0", fillcolor="#fae7d9"] ;
102 -> 103 ;
104 [label="mse = 7695324.64\nsamples = 5\nvalue = 40365.6", fillcolor="#f8dcc9"] ;
102 -> 104 ;
105 [label="duration <= 4.335\nmse = 36199354.664\nsamples = 3516\nvalue = 30962.3", fillcolor="#fae8db"] ;
89 -> 105 ;
106 [label="stops <= 0.5\nmse = 35008381.981\nsamples = 3439\nvalue = 30787.921", fillcolor="#fae8db"] ;
105 -> 106 ;
107 [label="duration <= 2.625\nmse = 33657809.433\nsamples = 3259\nvalue = 31153.091", fillcolor="#fae8da"] ;
106 -> 107 ;
108 [label="mse = 41798656.936\nsamples = 2253\nvalue = 30226.617", fillcolor="#fae9dc"] ;
107 -> 108 ;
109 [label="mse = 9198344.143\nsamples = 1006\nvalue = 33227.986", fillcolor="#fae5d6"] ;
107 -> 109 ;
110 [label="duration <= 3.79\nmse = 13333656.185\nsamples = 180\nvalue = 24176.322", fillcolor="#fcf0e8"] ;
106 -> 110 ;
111 [label="mse = 35.8\nsamples = 134\nvalue = 22146.448", fillcolor="#fcf3ec"] ;
110 -> 111 ;
112 [label="mse = 5207295.767\nsamples = 46\nvalue = 30089.435", fillcolor="#fae9dc"] ;
110 -> 112 ;
113 [label="days_left <= 10.5\nmse = 27377127.574\nsamples = 77\nvalue = 38750.481", fillcolor="#f8decc"] ;
105 -> 113 ;
114 [label="days_left <= 8.5\nmse = 76107879.506\nsamples = 9\nvalue = 44679.222", fillcolor="#f7d7c0"] ;
113 -> 114 ;
115 [label="mse = 25060036.0\nsamples = 6\nvalue = 41583.0", fillcolor="#f8dbc6"] ;
114 -> 115 ;
116 [label="mse = 120684014.222\nsamples = 3\nvalue = 50871.667", fillcolor="#f5d0b5"] ;
114 -> 116 ;
117 [label="days_left <= 24.5\nmse = 15659533.487\nsamples = 68\nvalue = 37965.794", fillcolor="#f8dfcd"] ;
113 -> 117 ;
118 [label="mse = 34266197.818\nsamples = 22\nvalue = 39705.0", fillcolor="#f8ddca"] ;
117 -> 118 ;
119 [label="mse = 4622151.348\nsamples = 46\nvalue = 37134.0", fillcolor="#f9e0cf"] ;
117 -> 119 ;
120 [label="duration <= 2.625\nmse = 29956596.283\nsamples = 783\nvalue = 26593.625", fillcolor="#fbede3"] ;
88 -> 120 ;
121 [label="destination_city <= 2.0\nmse = 10745082.11\nsamples = 476\nvalue = 24373.313", fillcolor="#fcf0e7"] ;
120 -> 121 ;
122 [label="days_left <= 3.5\nmse = 8571425.416\nsamples = 398\nvalue = 25188.183", fillcolor="#fcefe6"] ;
121 -> 122 ;
123 [label="duration <= 2.21\nmse = 17068989.289\nsamples = 15\nvalue = 29452.333", fillcolor="#fbeade"] ;
122 -> 123 ;
124 [label="mse = 5401967.837\nsamples = 7\nvalue = 27693.143", fillcolor="#fbece1"] ;
123 -> 124 ;
125 [label="mse = 22200306.984\nsamples = 8\nvalue = 30991.625", fillcolor="#fae8db"] ;
123 -> 125 ;
126 [label="duration <= 2.21\nmse = 7498605.626\nsamples = 383\nvalue = 25021.18", fillcolor="#fcefe6"] ;
122 -> 126 ;
127 [label="mse = 2381553.51\nsamples = 128\nvalue = 24165.422", fillcolor="#fcf0e8"] ;
126 -> 127 ;
128 [label="mse = 9515048.774\nsamples = 255\nvalue = 25450.737", fillcolor="#fcefe5"] ;
126 -> 128 ;
129 [label="days_left <= 3.5\nmse = 1159763.314\nsamples = 78\nvalue = 20215.385", fillcolor="#fdf5ef"] ;
121 -> 129 ;
130 [label="mse = 0.0\nsamples = 3\nvalue = 25600.0", fillcolor="#fceee5"] ;
129 -> 130 ;
131 [label="mse = 0.0\nsamples = 75\nvalue = 20000.0", fillcolor="#fdf5f0"] ;
129 -> 131 ;
132 [label="days_left <= 3.5\nmse = 40248985.328\nsamples = 307\nvalue = 30036.192", fillcolor="#fae9dc"] ;
120 -> 132 ;
133 [label="duration <= 2.79\nmse = 71495547.972\nsamples = 12\nvalue = 38053.167", fillcolor="#f8dfcd"] ;
132 -> 133 ;
134 [label="duration <= 2.71\nmse = 72792087.2\nsamples = 5\nvalue = 43505.0", fillcolor="#f7d9c3"] ;
133 -> 134 ;
135 [label="mse = 0.0\nsamples = 1\nvalue = 31721.0", fillcolor="#fae7d9"] ;
134 -> 135 ;
136 [label="mse = 47595529.0\nsamples = 4\nvalue = 46451.0", fillcolor="#f6d5bd"] ;
134 -> 136 ;
137 [label="days_left <= 2.5\nmse = 34174566.857\nsamples = 7\nvalue = 34159.0", fillcolor="#f9e4d5"] ;
133 -> 137 ;
138 [label="mse = 2652.25\nsamples = 4\nvalue = 31772.5", fillcolor="#fae7d9"] ;
137 -> 138 ;
139 [label="mse = 62018152.667\nsamples = 3\nvalue = 37341.0", fillcolor="#f9e0cf"] ;
137 -> 139 ;
140 [label="days_left <= 10.5\nmse = 36257138.879\nsamples = 295\nvalue = 29710.078", fillcolor="#fbe9dd"] ;
132 -> 140 ;
141 [label="duration <= 2.955\nmse = 87715474.444\nsamples = 45\nvalue = 31748.667", fillcolor="#fae7d9"] ;
140 -> 141 ;
142 [label="mse = 100458497.091\nsamples = 38\nvalue = 32477.526", fillcolor="#fae6d8"] ;
141 -> 142 ;
143 [label="mse = 0.0\nsamples = 7\nvalue = 27792.0", fillcolor="#fbece1"] ;
141 -> 143 ;
144 [label="source_city <= 4.5\nmse = 26111937.235\nsamples = 250\nvalue = 29343.132", fillcolor="#fbeade"] ;
140 -> 144 ;
145 [label="mse = 0.0\nsamples = 2\nvalue = 20000.0", fillcolor="#fdf5f0"] ;
144 -> 145 ;
146 [label="mse = 25612855.274\nsamples = 248\nvalue = 29418.48", fillcolor="#fbeade"] ;
144 -> 146 ;
147 [label="duration <= 2.585\nmse = 11954585.416\nsamples = 865\nvalue = 25457.822", fillcolor="#fcefe5"] ;
87 -> 147 ;
148 [label="source_city <= 2.0\nmse = 3104134.454\nsamples = 572\nvalue = 23792.979", fillcolor="#fcf1e8"] ;
147 -> 148 ;
149 [label="days_left <= 4.5\nmse = 1800626.69\nsamples = 500\nvalue = 24236.804", fillcolor="#fcf0e8"] ;
148 -> 149 ;
150 [label="days_left <= 1.5\nmse = 12125374.559\nsamples = 32\nvalue = 26681.438", fillcolor="#fbede3"] ;
149 -> 150 ;
151 [label="duration <= 2.21\nmse = 27708825.0\nsamples = 4\nvalue = 30075.0", fillcolor="#fae9dc"] ;
150 -> 151 ;
152 [label="mse = 0.0\nsamples = 2\nvalue = 25600.0", fillcolor="#fceee5"] ;
151 -> 152 ;
153 [label="mse = 15366400.0\nsamples = 2\nvalue = 34550.0", fillcolor="#f9e4d4"] ;
151 -> 153 ;
154 [label="days_left <= 3.5\nmse = 8018960.587\nsamples = 28\nvalue = 26196.643", fillcolor="#fbeee4"] ;
150 -> 154 ;
155 [label="mse = 1724396.321\nsamples = 19\nvalue = 26486.316", fillcolor="#fbede3"] ;
154 -> 155 ;
156 [label="mse = 20756369.877\nsamples = 9\nvalue = 25585.111", fillcolor="#fceee5"] ;
154 -> 156 ;
157 [label="duration <= 2.125\nmse = 658089.108\nsamples = 468\nvalue = 24069.65", fillcolor="#fcf0e8"] ;
149 -> 157 ;
158 [label="destination_city <= 4.5\nmse = 296.438\nsamples = 184\nvalue = 23905.75", fillcolor="#fcf1e8"] ;
157 -> 158 ;
159 [label="mse = 0.0\nsamples = 31\nvalue = 23944.0", fillcolor="#fcf0e8"] ;
158 -> 159 ;
160 [label="mse = 0.0\nsamples = 153\nvalue = 23898.0", fillcolor="#fcf1e8"] ;
158 -> 160 ;
161 [label="days_left <= 48.5\nmse = 1055584.41\nsamples = 284\nvalue = 24175.838", fillcolor="#fcf0e8"] ;
157 -> 161 ;
162 [label="mse = 930885.109\nsamples = 277\nvalue = 24155.942", fillcolor="#fcf0e8"] ;
161 -> 162 ;
163 [label="mse = 5354600.98\nsamples = 7\nvalue = 24963.143", fillcolor="#fcefe6"] ;
161 -> 163 ;
164 [label="days_left <= 3.5\nmse = 1288899.981\nsamples = 72\nvalue = 20710.861", fillcolor="#fdf4ee"] ;
148 -> 164 ;
165 [label="duration <= 2.335\nmse = 13888.889\nsamples = 3\nvalue = 26122.667", fillcolor="#fbeee4"] ;
164 -> 165 ;
166 [label="mse = 0.0\nsamples = 1\nvalue = 25956.0", fillcolor="#fbeee4"] ;
165 -> 166 ;
167 [label="mse = 0.0\nsamples = 2\nvalue = 26206.0", fillcolor="#fbeee4"] ;
165 -> 167 ;
168 [label="duration <= 2.335\nmse = 15595.463\nsamples = 69\nvalue = 20475.565", fillcolor="#fdf5ef"] ;
164 -> 168 ;
169 [label="mse = 0.0\nsamples = 36\nvalue = 20356.0", fillcolor="#fdf5ef"] ;
168 -> 169 ;
170 [label="mse = 0.0\nsamples = 33\nvalue = 20606.0", fillcolor="#fdf5ef"] ;
168 -> 170 ;
171 [label="days_left <= 4.5\nmse = 13258240.08\nsamples = 293\nvalue = 28707.959", fillcolor="#fbebdf"] ;
147 -> 171 ;
172 [label="duration <= 2.79\nmse = 73849405.419\nsamples = 17\nvalue = 33852.412", fillcolor="#fae4d5"] ;
171 -> 172 ;
173 [label="days_left <= 3.5\nmse = 118018856.188\nsamples = 4\nvalue = 38133.75", fillcolor="#f8dfcd"] ;
172 -> 173 ;
174 [label="days_left <= 2.5\nmse = 2357.556\nsamples = 3\nvalue = 31861.667", fillcolor="#fae7d9"] ;
173 -> 174 ;
175 [label="mse = 2652.25\nsamples = 2\nvalue = 31844.5", fillcolor="#fae7d9"] ;
174 -> 175 ;
176 [label="mse = 0.0\nsamples = 1\nvalue = 31896.0", fillcolor="#fae7d9"] ;
174 -> 176 ;
177 [label="mse = 0.0\nsamples = 1\nvalue = 56950.0", fillcolor="#f4c8a9"] ;
173 -> 177 ;
178 [label="days_left <= 3.5\nmse = 52883478.071\nsamples = 13\nvalue = 32535.077", fillcolor="#fae6d8"] ;
172 -> 178 ;
179 [label="days_left <= 2.5\nmse = 62380012.765\nsamples = 9\nvalue = 34611.111", fillcolor="#f9e3d4"] ;
178 -> 179 ;
180 [label="mse = 1989.188\nsamples = 4\nvalue = 31818.75", fillcolor="#fae7d9"] ;
179 -> 180 ;
181 [label="mse = 101054347.6\nsamples = 5\nvalue = 36845.0", fillcolor="#f9e1cf"] ;
179 -> 181 ;
182 [label="mse = 0.0\nsamples = 4\nvalue = 27864.0", fillcolor="#fbece1"] ;
178 -> 182 ;
183 [label="source_city <= 2.0\nmse = 7795655.09\nsamples = 276\nvalue = 28391.091", fillcolor="#fbebe0"] ;
171 -> 183 ;
184 [label="destination_city <= 4.5\nmse = 7377857.382\nsamples = 274\nvalue = 28449.741", fillcolor="#fbebe0"] ;
183 -> 184 ;
185 [label="mse = 0.0\nsamples = 1\nvalue = 39321.0", fillcolor="#f8decb"] ;
184 -> 185 ;
186 [label="duration <= 2.79\nmse = 6970387.32\nsamples = 273\nvalue = 28409.919", fillcolor="#fbebe0"] ;
184 -> 186 ;
187 [label="mse = 19444291.203\nsamples = 69\nvalue = 29425.014", fillcolor="#fbeade"] ;
186 -> 187 ;
188 [label="mse = 2284865.999\nsamples = 204\nvalue = 28066.578", fillcolor="#fbebe0"] ;
186 -> 188 ;
189 [label="mse = 0.0\nsamples = 2\nvalue = 20356.0", fillcolor="#fdf5ef"] ;
183 -> 189 ;
190 [label="stops <= 1.5\nmse = 113777158.892\nsamples = 68055\nvalue = 54985.339", fillcolor="#f4cbad"] ;
0 -> 190 [labeldistance=2.5, labelangle=-45, headlabel="False"] ;
191 [label="days_left <= 5.5\nmse = 110202290.514\nsamples = 67194\nvalue = 54792.567", fillcolor="#f4cbad"] ;
190 -> 191 ;
192 [label="days_left <= 3.5\nmse = 189415934.804\nsamples = 4754\nvalue = 60547.987", fillcolor="#f3c4a2"] ;
191 -> 192 ;
193 [label="source_city <= 1.5\nmse = 179672748.792\nsamples = 2190\nvalue = 63269.708", fillcolor="#f2c19d"] ;
192 -> 193 ;
194 [label="source_city <= 0.5\nmse = 200543794.62\nsamples = 934\nvalue = 61424.786", fillcolor="#f3c3a0"] ;
193 -> 194 ;
195 [label="destination_city <= 1.5\nmse = 224193701.154\nsamples = 515\nvalue = 64259.656", fillcolor="#f2bf9b"] ;
194 -> 195 ;
196 [label="duration <= 16.085\nmse = 109508560.153\nsamples = 118\nvalue = 55736.669", fillcolor="#f4caab"] ;
195 -> 196 ;
197 [label="mse = 125425092.846\nsamples = 67\nvalue = 57890.463", fillcolor="#f3c7a7"] ;
196 -> 197 ;
198 [label="mse = 74498431.871\nsamples = 51\nvalue = 52907.176", fillcolor="#f5cdb1"] ;
196 -> 198 ;
199 [label="destination_city <= 2.5\nmse = 230272846.709\nsamples = 397\nvalue = 66792.937", fillcolor="#f1bc96"] ;
195 -> 199 ;
200 [label="mse = 232683206.588\nsamples = 125\nvalue = 72048.672", fillcolor="#f0b68c"] ;
199 -> 200 ;
201 [label="mse = 210637098.31\nsamples = 272\nvalue = 64377.618", fillcolor="#f2bf9b"] ;
199 -> 201 ;
202 [label="days_left <= 1.5\nmse = 149456552.33\nsamples = 419\nvalue = 57940.399", fillcolor="#f3c7a7"] ;
194 -> 202 ;
203 [label="destination_city <= 2.5\nmse = 167991224.181\nsamples = 68\nvalue = 65560.103", fillcolor="#f2be99"] ;
202 -> 203 ;
204 [label="mse = 152650391.466\nsamples = 38\nvalue = 62766.184", fillcolor="#f2c19e"] ;
203 -> 204 ;
205 [label="mse = 165011104.329\nsamples = 30\nvalue = 69099.067", fillcolor="#f1b992"] ;
203 -> 205 ;
206 [label="duration <= 5.375\nmse = 132438605.492\nsamples = 351\nvalue = 56464.217", fillcolor="#f4c9aa"] ;
202 -> 206 ;
207 [label="mse = 22067641.673\nsamples = 7\nvalue = 46315.571", fillcolor="#f6d5bd"] ;
206 -> 207 ;
208 [label="mse = 132546050.162\nsamples = 344\nvalue = 56670.73", fillcolor="#f4c9aa"] ;
206 -> 208 ;
209 [label="destination_city <= 3.5\nmse = 159739058.012\nsamples = 1256\nvalue = 64641.648", fillcolor="#f2bf9a"] ;
193 -> 209 ;
210 [label="duration <= 4.96\nmse = 180125638.051\nsamples = 928\nvalue = 65978.477", fillcolor="#f1bd98"] ;
209 -> 210 ;
211 [label="destination_city <= 2.5\nmse = 195452983.061\nsamples = 7\nvalue = 49464.286", fillcolor="#f6d1b7"] ;
210 -> 211 ;
212 [label="mse = 166805765.556\nsamples = 6\nvalue = 52421.667", fillcolor="#f5ceb2"] ;
211 -> 212 ;
213 [label="mse = 0.0\nsamples = 1\nvalue = 31720.0", fillcolor="#fae7d9"] ;
211 -> 213 ;
214 [label="destination_city <= 0.5\nmse = 177920610.307\nsamples = 921\nvalue = 66103.992", fillcolor="#f1bd97"] ;
210 -> 214 ;
215 [label="mse = 182335939.234\nsamples = 329\nvalue = 68050.66", fillcolor="#f1bb94"] ;
214 -> 215 ;
216 [label="mse = 172190431.584\nsamples = 592\nvalue = 65022.145", fillcolor="#f2be9a"] ;
214 -> 216 ;
217 [label="destination_city <= 4.5\nmse = 82698327.478\nsamples = 328\nvalue = 60859.399", fillcolor="#f3c4a2"] ;
209 -> 217 ;
218 [label="duration <= 28.455\nmse = 84357037.079\nsamples = 180\nvalue = 59304.9", fillcolor="#f3c5a5"] ;
217 -> 218 ;
219 [label="mse = 83518369.057\nsamples = 179\nvalue = 59219.592", fillcolor="#f3c6a5"] ;
218 -> 219 ;
220 [label="mse = 0.0\nsamples = 1\nvalue = 74575.0", fillcolor="#efb387"] ;
218 -> 220 ;
221 [label="source_city <= 3.5\nmse = 74167633.75\nsamples = 148\nvalue = 62750.007", fillcolor="#f2c19e"] ;
217 -> 221 ;
222 [label="mse = 70170979.47\nsamples = 95\nvalue = 64114.537", fillcolor="#f2c09b"] ;
221 -> 222 ;
223 [label="mse = 72011793.524\nsamples = 53\nvalue = 60304.151", fillcolor="#f3c4a3"] ;
221 -> 223 ;
224 [label="duration <= 16.46\nmse = 186006398.042\nsamples = 2564\nvalue = 58223.272", fillcolor="#f3c7a7"] ;
192 -> 224 ;
225 [label="destination_city <= 3.5\nmse = 199469597.965\nsamples = 1538\nvalue = 60139.335", fillcolor="#f3c4a3"] ;
224 -> 225 ;
226 [label="duration <= 5.04\nmse = 214674406.018\nsamples = 1139\nvalue = 61455.302", fillcolor="#f3c3a0"] ;
225 -> 226 ;
227 [label="destination_city <= 2.5\nmse = 76969996.585\nsamples = 21\nvalue = 44116.714", fillcolor="#f7d8c2"] ;
226 -> 227 ;
228 [label="mse = 61632436.247\nsamples = 20\nvalue = 45072.55", fillcolor="#f7d7c0"] ;
227 -> 228 ;
229 [label="mse = 0.0\nsamples = 1\nvalue = 25000.0", fillcolor="#fcefe6"] ;
227 -> 229 ;
230 [label="destination_city <= 0.5\nmse = 211508082.218\nsamples = 1118\nvalue = 61780.982", fillcolor="#f2c2a0"] ;
226 -> 230 ;
231 [label="mse = 252226826.434\nsamples = 375\nvalue = 63923.029", fillcolor="#f2c09c"] ;
230 -> 231 ;
232 [label="mse = 187472294.308\nsamples = 743\nvalue = 60699.868", fillcolor="#f3c4a2"] ;
230 -> 232 ;
233 [label="source_city <= 1.5\nmse = 137009719.778\nsamples = 399\nvalue = 56382.727", fillcolor="#f4c9aa"] ;
225 -> 233 ;
234 [label="duration <= 15.665\nmse = 128724268.178\nsamples = 180\nvalue = 59179.333", fillcolor="#f3c6a5"] ;
233 -> 234 ;
235 [label="mse = 123158615.33\nsamples = 169\nvalue = 58525.959", fillcolor="#f3c6a6"] ;
234 -> 235 ;
236 [label="mse = 106908517.702\nsamples = 11\nvalue = 69217.545", fillcolor="#f1b992"] ;
234 -> 236 ;
237 [label="source_city <= 3.5\nmse = 132107981.011\nsamples = 219\nvalue = 54084.146", fillcolor="#f4ccae"] ;
233 -> 237 ;
238 [label="mse = 141293622.081\nsamples = 153\nvalue = 55496.105", fillcolor="#f4caac"] ;
237 -> 238 ;
239 [label="mse = 95478721.878\nsamples = 66\nvalue = 50810.97", fillcolor="#f5d0b5"] ;
237 -> 239 ;
240 [label="destination_city <= 1.5\nmse = 152071664.285\nsamples = 1026\nvalue = 55351.045", fillcolor="#f4caac"] ;
224 -> 240 ;
241 [label="source_city <= 1.5\nmse = 159819284.566\nsamples = 336\nvalue = 52979.348", fillcolor="#f5cdb1"] ;
240 -> 241 ;
242 [label="duration <= 27.665\nmse = 119329971.954\nsamples = 101\nvalue = 46610.257", fillcolor="#f6d5bd"] ;
241 -> 242 ;
243 [label="mse = 109048728.056\nsamples = 93\nvalue = 45949.527", fillcolor="#f6d6be"] ;
242 -> 243 ;
244 [label="mse = 174776718.938\nsamples = 8\nvalue = 54291.25", fillcolor="#f4ccae"] ;
242 -> 244 ;
245 [label="duration <= 25.29\nmse = 152293512.201\nsamples = 235\nvalue = 55716.702", fillcolor="#f4caab"] ;
241 -> 245 ;
246 [label="mse = 150498000.508\nsamples = 191\nvalue = 56919.995", fillcolor="#f4c8a9"] ;
245 -> 246 ;
247 [label="mse = 126518665.944\nsamples = 44\nvalue = 50493.318", fillcolor="#f5d0b5"] ;
245 -> 247 ;
248 [label="destination_city <= 3.5\nmse = 144225982.124\nsamples = 690\nvalue = 56505.958", fillcolor="#f4c9aa"] ;
240 -> 248 ;
249 [label="destination_city <= 2.5\nmse = 176677269.344\nsamples = 347\nvalue = 58391.311", fillcolor="#f3c7a6"] ;
248 -> 249 ;
250 [label="mse = 155014520.826\nsamples = 180\nvalue = 56925.656", fillcolor="#f4c8a9"] ;
249 -> 250 ;
251 [label="mse = 195215366.26\nsamples = 167\nvalue = 59971.06", fillcolor="#f3c5a3"] ;
249 -> 251 ;
252 [label="source_city <= 0.5\nmse = 104162299.256\nsamples = 343\nvalue = 54598.618", fillcolor="#f4cbae"] ;
248 -> 252 ;
253 [label="mse = 105921596.6\nsamples = 76\nvalue = 56987.711", fillcolor="#f4c8a9"] ;
252 -> 253 ;
254 [label="mse = 101574387.787\nsamples = 267\nvalue = 53918.577", fillcolor="#f4ccaf"] ;
252 -> 254 ;
255 [label="duration <= 16.29\nmse = 101457143.631\nsamples = 62440\nvalue = 54354.366", fillcolor="#f4cbae"] ;
191 -> 255 ;
256 [label="duration <= 6.46\nmse = 102811450.625\nsamples = 41691\nvalue = 55507.692", fillcolor="#f4caac"] ;
255 -> 256 ;
257 [label="duration <= 5.04\nmse = 86296028.546\nsamples = 4081\nvalue = 51278.574", fillcolor="#f5cfb4"] ;
256 -> 257 ;
258 [label="source_city <= 2.5\nmse = 72398592.747\nsamples = 653\nvalue = 45170.368", fillcolor="#f7d7c0"] ;
257 -> 258 ;
259 [label="source_city <= 0.5\nmse = 74240685.334\nsamples = 509\nvalue = 46700.53", fillcolor="#f6d5bd"] ;
258 -> 259 ;
260 [label="mse = 19766091.847\nsamples = 72\nvalue = 40287.986", fillcolor="#f8ddc9"] ;
259 -> 260 ;
261 [label="mse = 75324611.429\nsamples = 437\nvalue = 47757.059", fillcolor="#f6d3bb"] ;
259 -> 261 ;
262 [label="source_city <= 4.5\nmse = 28357068.569\nsamples = 144\nvalue = 39761.667", fillcolor="#f8ddca"] ;
258 -> 262 ;
263 [label="mse = 8532191.0\nsamples = 96\nvalue = 36618.354", fillcolor="#f9e1d0"] ;
262 -> 263 ;
264 [label="mse = 8724342.873\nsamples = 48\nvalue = 46048.292", fillcolor="#f6d6be"] ;
262 -> 264 ;
265 [label="duration <= 6.29\nmse = 80482275.784\nsamples = 3428\nvalue = 52442.127", fillcolor="#f5ceb2"] ;
257 -> 265 ;
266 [label="duration <= 5.625\nmse = 76893656.264\nsamples = 3027\nvalue = 53156.191", fillcolor="#f5cdb0"] ;
265 -> 266 ;
267 [label="mse = 72746332.224\nsamples = 1266\nvalue = 51343.705", fillcolor="#f5cfb4"] ;
266 -> 267 ;
268 [label="mse = 75815670.516\nsamples = 1761\nvalue = 54459.204", fillcolor="#f4cbae"] ;
266 -> 268 ;
269 [label="duration <= 6.375\nmse = 74668205.59\nsamples = 401\nvalue = 47051.925", fillcolor="#f6d4bc"] ;
265 -> 269 ;
270 [label="mse = 52886921.26\nsamples = 249\nvalue = 43460.213", fillcolor="#f7d9c3"] ;
269 -> 270 ;
271 [label="mse = 54597493.124\nsamples = 152\nvalue = 52935.717", fillcolor="#f5cdb1"] ;
269 -> 271 ;
272 [label="destination_city <= 3.5\nmse = 102452208.76\nsamples = 37610\nvalue = 55966.586", fillcolor="#f4c9ab"] ;
256 -> 272 ;
273 [label="source_city <= 3.5\nmse = 103087343.64\nsamples = 27368\nvalue = 56770.916", fillcolor="#f4c8a9"] ;
272 -> 273 ;
274 [label="source_city <= 1.5\nmse = 106292007.853\nsamples = 18253\nvalue = 57700.808", fillcolor="#f4c7a8"] ;
273 -> 274 ;
275 [label="mse = 106251645.102\nsamples = 9267\nvalue = 55950.672", fillcolor="#f4c9ab"] ;
274 -> 275 ;
276 [label="mse = 99917335.29\nsamples = 8986\nvalue = 59505.673", fillcolor="#f3c5a4"] ;
274 -> 276 ;
277 [label="source_city <= 4.5\nmse = 91470822.711\nsamples = 9115\nvalue = 54908.787", fillcolor="#f4cbad"] ;
273 -> 277 ;
278 [label="mse = 86308800.912\nsamples = 4496\nvalue = 52918.874", fillcolor="#f5cdb1"] ;
277 -> 278 ;
279 [label="mse = 88889402.966\nsamples = 4619\nvalue = 56845.71", fillcolor="#f4c8a9"] ;
277 -> 279 ;
280 [label="duration <= 10.875\nmse = 94406914.968\nsamples = 10242\nvalue = 53817.308", fillcolor="#f4ccaf"] ;
272 -> 280 ;
281 [label="duration <= 10.625\nmse = 110651814.681\nsamples = 3410\nvalue = 55678.212", fillcolor="#f4caab"] ;
280 -> 281 ;
282 [label="mse = 103065928.307\nsamples = 3292\nvalue = 55198.382", fillcolor="#f4caac"] ;
281 -> 282 ;
283 [label="mse = 136665410.009\nsamples = 118\nvalue = 69064.644", fillcolor="#f1ba92"] ;
281 -> 283 ;
284 [label="destination_city <= 4.5\nmse = 83707588.544\nsamples = 6832\nvalue = 52888.49", fillcolor="#f5cdb1"] ;
280 -> 284 ;
285 [label="mse = 91907528.937\nsamples = 3480\nvalue = 51360.33", fillcolor="#f5cfb4"] ;
284 -> 285 ;
286 [label="mse = 70253051.022\nsamples = 3352\nvalue = 54475.004", fillcolor="#f4cbae"] ;
284 -> 286 ;
287 [label="destination_city <= 1.5\nmse = 90692994.015\nsamples = 20749\nvalue = 52036.987", fillcolor="#f5ceb2"] ;
255 -> 287 ;
288 [label="source_city <= 1.5\nmse = 107273298.913\nsamples = 5562\nvalue = 49380.689", fillcolor="#f6d1b7"] ;
287 -> 288 ;
289 [label="duration <= 27.045\nmse = 61689097.234\nsamples = 1936\nvalue = 43104.108", fillcolor="#f7d9c3"] ;
288 -> 289 ;
290 [label="duration <= 24.375\nmse = 61159549.438\nsamples = 1696\nvalue = 42532.07", fillcolor="#f7dac5"] ;
289 -> 290 ;
291 [label="mse = 62655556.948\nsamples = 1081\nvalue = 44044.691", fillcolor="#f7d8c2"] ;
290 -> 291 ;
292 [label="mse = 47439217.31\nsamples = 615\nvalue = 39873.301", fillcolor="#f8ddca"] ;
290 -> 292 ;
293 [label="duration <= 27.21\nmse = 46777828.392\nsamples = 240\nvalue = 47146.508", fillcolor="#f6d4bc"] ;
289 -> 293 ;
294 [label="mse = 18841208.438\nsamples = 32\nvalue = 57912.25", fillcolor="#f3c7a7"] ;
293 -> 294 ;
295 [label="mse = 30501593.538\nsamples = 208\nvalue = 45490.24", fillcolor="#f7d6bf"] ;
293 -> 295 ;
296 [label="duration <= 22.04\nmse = 99347036.289\nsamples = 3626\nvalue = 52731.892", fillcolor="#f5cdb1"] ;
288 -> 296 ;
297 [label="source_city <= 4.5\nmse = 94959617.878\nsamples = 2359\nvalue = 54136.105", fillcolor="#f4ccae"] ;
296 -> 297 ;
298 [label="mse = 85896820.942\nsamples = 1702\nvalue = 52869.338", fillcolor="#f5cdb1"] ;
297 -> 298 ;
299 [label="mse = 103511138.979\nsamples = 657\nvalue = 57417.744", fillcolor="#f4c8a8"] ;
297 -> 299 ;
300 [label="duration <= 29.96\nmse = 97009120.341\nsamples = 1267\nvalue = 50117.418", fillcolor="#f5d1b6"] ;
296 -> 300 ;
301 [label="mse = 92379314.172\nsamples = 1211\nvalue = 49638.571", fillcolor="#f6d1b7"] ;
300 -> 301 ;
302 [label="mse = 84943211.57\nsamples = 56\nvalue = 60472.464", fillcolor="#f3c4a2"] ;
300 -> 302 ;
303 [label="destination_city <= 3.5\nmse = 81090206.112\nsamples = 15187\nvalue = 53009.814", fillcolor="#f5cdb1"] ;
287 -> 303 ;
304 [label="destination_city <= 2.5\nmse = 89779967.47\nsamples = 7799\nvalue = 54458.778", fillcolor="#f4cbae"] ;
303 -> 304 ;
305 [label="duration <= 18.04\nmse = 97417880.726\nsamples = 3458\nvalue = 52280.283", fillcolor="#f5ceb2"] ;
304 -> 305 ;
306 [label="mse = 82089475.302\nsamples = 803\nvalue = 57574.747", fillcolor="#f4c8a8"] ;
305 -> 306 ;
307 [label="mse = 91011733.58\nsamples = 2655\nvalue = 50678.982", fillcolor="#f5d0b5"] ;
305 -> 307 ;
308 [label="duration <= 27.54\nmse = 76903683.402\nsamples = 4341\nvalue = 56194.146", fillcolor="#f4c9aa"] ;
304 -> 308 ;
309 [label="mse = 77517250.935\nsamples = 4022\nvalue = 56513.887", fillcolor="#f4c9aa"] ;
308 -> 309 ;
310 [label="mse = 51627012.773\nsamples = 319\nvalue = 52162.803", fillcolor="#f5ceb2"] ;
308 -> 310 ;
311 [label="source_city <= 0.5\nmse = 67361147.875\nsamples = 7388\nvalue = 51480.244", fillcolor="#f5cfb3"] ;
303 -> 311 ;
312 [label="duration <= 17.79\nmse = 79854339.196\nsamples = 1687\nvalue = 54936.464", fillcolor="#f4cbad"] ;
311 -> 312 ;
313 [label="mse = 45830184.621\nsamples = 448\nvalue = 51058.188", fillcolor="#f5cfb4"] ;
312 -> 313 ;
314 [label="mse = 84751807.397\nsamples = 1239\nvalue = 56338.779", fillcolor="#f4c9aa"] ;
312 -> 314 ;
315 [label="source_city <= 2.5\nmse = 59083434.631\nsamples = 5701\nvalue = 50457.503", fillcolor="#f5d0b5"] ;
311 -> 315 ;
316 [label="mse = 67830265.792\nsamples = 2845\nvalue = 48767.19", fillcolor="#f6d2b9"] ;
315 -> 316 ;
317 [label="mse = 44688946.578\nsamples = 2856\nvalue = 52141.306", fillcolor="#f5ceb2"] ;
315 -> 317 ;
318 [label="source_city <= 1.5\nmse = 163536687.034\nsamples = 861\nvalue = 70029.592", fillcolor="#f0b890"] ;
190 -> 318 ;
319 [label="duration <= 8.125\nmse = 144469998.579\nsamples = 537\nvalue = 74564.827", fillcolor="#efb387"] ;
318 -> 319 ;
320 [label="source_city <= 0.5\nmse = 265628836.216\nsamples = 60\nvalue = 63644.517", fillcolor="#f2c09c"] ;
319 -> 320 ;
321 [label="days_left <= 5.5\nmse = 48897604.027\nsamples = 45\nvalue = 69769.533", fillcolor="#f0b990"] ;
320 -> 321 ;
322 [label="days_left <= 3.5\nmse = 15851822.222\nsamples = 3\nvalue = 62837.667", fillcolor="#f2c19e"] ;
321 -> 322 ;
323 [label="mse = 0.0\nsamples = 1\nvalue = 68351.0", fillcolor="#f1ba93"] ;
322 -> 323 ;
324 [label="duration <= 7.875\nmse = 980100.0\nsamples = 2\nvalue = 60081.0", fillcolor="#f3c4a3"] ;
322 -> 324 ;
325 [label="mse = 0.0\nsamples = 1\nvalue = 61071.0", fillcolor="#f3c3a1"] ;
324 -> 325 ;
326 [label="mse = 0.0\nsamples = 1\nvalue = 59091.0", fillcolor="#f3c6a5"] ;
324 -> 326 ;
327 [label="days_left <= 10.5\nmse = 47580661.746\nsamples = 42\nvalue = 70264.667", fillcolor="#f0b890"] ;
321 -> 327 ;
328 [label="days_left <= 8.5\nmse = 103900216.889\nsamples = 3\nvalue = 78500.333", fillcolor="#eeae80"] ;
327 -> 328 ;
329 [label="mse = 17239104.0\nsamples = 2\nvalue = 71703.0", fillcolor="#f0b68d"] ;
328 -> 329 ;
330 [label="mse = 0.0\nsamples = 1\nvalue = 92095.0", fillcolor="#eb9d66"] ;
328 -> 330 ;
331 [label="days_left <= 11.5\nmse = 37629649.361\nsamples = 39\nvalue = 69631.154", fillcolor="#f1b991"] ;
327 -> 331 ;
332 [label="mse = 14364100.0\nsamples = 2\nvalue = 62881.0", fillcolor="#f2c19e"] ;
331 -> 332 ;
333 [label="mse = 36291164.08\nsamples = 37\nvalue = 69996.027", fillcolor="#f0b890"] ;
331 -> 333 ;
334 [label="duration <= 7.625\nmse = 465632582.782\nsamples = 15\nvalue = 45269.467", fillcolor="#f7d6bf"] ;
320 -> 334 ;
335 [label="days_left <= 3.5\nmse = 42591496.889\nsamples = 6\nvalue = 71209.667", fillcolor="#f0b78e"] ;
334 -> 335 ;
336 [label="destination_city <= 3.0\nmse = 10250800.0\nsamples = 4\nvalue = 75391.0", fillcolor="#efb286"] ;
335 -> 336 ;
337 [label="mse = 6350400.0\nsamples = 2\nvalue = 78051.0", fillcolor="#eeaf81"] ;
336 -> 337 ;
338 [label="mse = 0.0\nsamples = 2\nvalue = 72731.0", fillcolor="#f0b58b"] ;
336 -> 338 ;
339 [label="destination_city <= 3.0\nmse = 2371600.0\nsamples = 2\nvalue = 62847.0", fillcolor="#f2c19e"] ;
335 -> 339 ;
340 [label="mse = 0.0\nsamples = 1\nvalue = 64387.0", fillcolor="#f2bf9b"] ;
339 -> 340 ;
341 [label="mse = 0.0\nsamples = 1\nvalue = 61307.0", fillcolor="#f3c3a1"] ;
339 -> 341 ;
342 [label="mse = 0.0\nsamples = 9\nvalue = 27976.0", fillcolor="#fbece0"] ;
334 -> 342 ;
343 [label="days_left <= 4.5\nmse = 112342651.334\nsamples = 477\nvalue = 75938.451", fillcolor="#efb185"] ;
319 -> 343 ;
344 [label="duration <= 21.04\nmse = 179304481.44\nsamples = 43\nvalue = 85543.953", fillcolor="#eda572"] ;
343 -> 344 ;
345 [label="duration <= 18.415\nmse = 123388424.513\nsamples = 37\nvalue = 83122.973", fillcolor="#eda877"] ;
344 -> 345 ;
346 [label="duration <= 10.92\nmse = 123231723.979\nsamples = 30\nvalue = 85000.233", fillcolor="#eda673"] ;
345 -> 346 ;
347 [label="mse = 112000025.846\nsamples = 13\nvalue = 78926.0", fillcolor="#eeae7f"] ;
346 -> 347 ;
348 [label="mse = 82029800.651\nsamples = 17\nvalue = 89645.235", fillcolor="#eba06a"] ;
346 -> 348 ;
349 [label="days_left <= 3.0\nmse = 44228198.816\nsamples = 7\nvalue = 75077.571", fillcolor="#efb286"] ;
345 -> 349 ;
350 [label="mse = 12859551.36\nsamples = 5\nvalue = 78791.2", fillcolor="#eeae7f"] ;
349 -> 350 ;
351 [label="mse = 1978242.25\nsamples = 2\nvalue = 65793.5", fillcolor="#f1be98"] ;
349 -> 351 ;
352 [label="duration <= 22.0\nmse = 265090045.556\nsamples = 6\nvalue = 100473.333", fillcolor="#e99356"] ;
344 -> 352 ;
353 [label="mse = 1132096.0\nsamples = 2\nvalue = 115498.0", fillcolor="#e58139"] ;
352 -> 353 ;
354 [label="duration <= 25.17\nmse = 227763564.0\nsamples = 4\nvalue = 92961.0", fillcolor="#eb9c64"] ;
352 -> 354 ;
355 [label="mse = 0.0\nsamples = 1\nvalue = 72731.0", fillcolor="#f0b58b"] ;
354 -> 355 ;
356 [label="mse = 121794574.222\nsamples = 3\nvalue = 99704.333", fillcolor="#e99457"] ;
354 -> 356 ;
357 [label="duration <= 17.29\nmse = 95660925.766\nsamples = 434\nvalue = 74986.753", fillcolor="#efb287"] ;
343 -> 357 ;
358 [label="destination_city <= 4.0\nmse = 80324716.84\nsamples = 403\nvalue = 76162.839", fillcolor="#efb184"] ;
357 -> 358 ;
359 [label="duration <= 11.67\nmse = 104417555.866\nsamples = 144\nvalue = 79865.951", fillcolor="#eeac7d"] ;
358 -> 359 ;
360 [label="mse = 88544144.83\nsamples = 31\nvalue = 89343.484", fillcolor="#eca16b"] ;
359 -> 360 ;
361 [label="mse = 77370168.48\nsamples = 113\nvalue = 77265.92", fillcolor="#efb082"] ;
359 -> 361 ;
362 [label="duration <= 9.415\nmse = 55066270.103\nsamples = 259\nvalue = 74103.965", fillcolor="#efb388"] ;
358 -> 362 ;
363 [label="mse = 16275427.301\nsamples = 69\nvalue = 79409.725", fillcolor="#eead7e"] ;
362 -> 363 ;
364 [label="mse = 55217515.276\nsamples = 190\nvalue = 72177.137", fillcolor="#f0b68c"] ;
362 -> 364 ;
365 [label="duration <= 18.25\nmse = 43293514.552\nsamples = 31\nvalue = 59697.645", fillcolor="#f3c5a4"] ;
357 -> 365 ;
366 [label="mse = 0.0\nsamples = 4\nvalue = 67421.0", fillcolor="#f1bc95"] ;
365 -> 366 ;
367 [label="duration <= 18.67\nmse = 39561105.136\nsamples = 27\nvalue = 58553.444", fillcolor="#f3c6a6"] ;
365 -> 367 ;
368 [label="mse = 0.0\nsamples = 4\nvalue = 52882.0", fillcolor="#f5cdb1"] ;
367 -> 368 ;
369 [label="mse = 39874472.257\nsamples = 23\nvalue = 59539.783", fillcolor="#f3c5a4"] ;
367 -> 369 ;
370 [label="duration <= 7.46\nmse = 104546570.799\nsamples = 324\nvalue = 62512.861", fillcolor="#f2c29e"] ;
318 -> 370 ;
371 [label="days_left <= 8.0\nmse = 657539387.76\nsamples = 21\nvalue = 47364.952", fillcolor="#f6d4bb"] ;
370 -> 371 ;
372 [label="days_left <= 4.5\nmse = 185709738.667\nsamples = 6\nvalue = 80399.0", fillcolor="#eeac7c"] ;
371 -> 372 ;
373 [label="duration <= 5.67\nmse = 36812720.0\nsamples = 4\nvalue = 71859.0", fillcolor="#f0b68c"] ;
372 -> 373 ;
374 [label="mse = 0.0\nsamples = 1\nvalue = 62591.0", fillcolor="#f2c19e"] ;
373 -> 374 ;
375 [label="duration <= 7.125\nmse = 10907704.889\nsamples = 3\nvalue = 74948.333", fillcolor="#efb287"] ;
373 -> 375 ;
376 [label="mse = 28224.0\nsamples = 2\nvalue = 72615.0", fillcolor="#f0b58b"] ;
375 -> 376 ;
377 [label="mse = 0.0\nsamples = 1\nvalue = 79615.0", fillcolor="#eead7e"] ;
375 -> 377 ;
378 [label="duration <= 6.295\nmse = 45914176.0\nsamples = 2\nvalue = 97479.0", fillcolor="#ea975b"] ;
372 -> 378 ;
379 [label="mse = 0.0\nsamples = 1\nvalue = 90703.0", fillcolor="#eb9f68"] ;
378 -> 379 ;
380 [label="mse = 0.0\nsamples = 1\nvalue = 104255.0", fillcolor="#e88f4f"] ;
378 -> 380 ;
381 [label="source_city <= 4.0\nmse = 235172198.222\nsamples = 15\nvalue = 34151.333", fillcolor="#f9e4d5"] ;
371 -> 381 ;
382 [label="destination_city <= 2.5\nmse = 40549105.785\nsamples = 11\nvalue = 25508.182", fillcolor="#fcefe5"] ;
381 -> 382 ;
383 [label="mse = 0.0\nsamples = 9\nvalue = 28510.0", fillcolor="#fbebdf"] ;
382 -> 383 ;
384 [label="mse = 0.0\nsamples = 2\nvalue = 12000.0", fillcolor="#ffffff"] ;
382 -> 384 ;
385 [label="mse = 0.0\nsamples = 4\nvalue = 57920.0", fillcolor="#f3c7a7"] ;
381 -> 385 ;
386 [label="duration <= 16.5\nmse = 49215031.675\nsamples = 303\nvalue = 63562.716", fillcolor="#f2c09c"] ;
370 -> 386 ;
387 [label="days_left <= 6.5\nmse = 46664710.97\nsamples = 175\nvalue = 65764.886", fillcolor="#f1be98"] ;
386 -> 387 ;
388 [label="source_city <= 2.5\nmse = 94954096.019\nsamples = 26\nvalue = 72372.5", fillcolor="#f0b68c"] ;
387 -> 388 ;
389 [label="mse = 0.0\nsamples = 1\nvalue = 99451.0", fillcolor="#e99558"] ;
388 -> 389 ;
390 [label="duration <= 8.915\nmse = 68249261.11\nsamples = 25\nvalue = 71289.36", fillcolor="#f0b78e"] ;
388 -> 390 ;
391 [label="mse = 82776742.75\nsamples = 4\nvalue = 82157.5", fillcolor="#edaa79"] ;
390 -> 391 ;
392 [label="mse = 38698342.372\nsamples = 21\nvalue = 69219.238", fillcolor="#f1b992"] ;
390 -> 392 ;
393 [label="duration <= 12.54\nmse = 29290328.938\nsamples = 149\nvalue = 64611.879", fillcolor="#f2bf9a"] ;
387 -> 393 ;
394 [label="source_city <= 2.5\nmse = 25190702.233\nsamples = 41\nvalue = 60342.244", fillcolor="#f3c4a3"] ;
393 -> 394 ;
395 [label="mse = 28844968.56\nsamples = 10\nvalue = 56449.2", fillcolor="#f4c9aa"] ;
394 -> 395 ;
396 [label="mse = 17545856.447\nsamples = 31\nvalue = 61598.065", fillcolor="#f3c3a0"] ;
394 -> 396 ;
397 [label="duration <= 14.335\nmse = 21298849.794\nsamples = 108\nvalue = 66232.759", fillcolor="#f1bd97"] ;
393 -> 397 ;
398 [label="mse = 24659004.305\nsamples = 53\nvalue = 68200.358", fillcolor="#f1bb93"] ;
397 -> 398 ;
399 [label="mse = 10735209.624\nsamples = 55\nvalue = 64336.709", fillcolor="#f2bf9b"] ;
397 -> 399 ;
400 [label="days_left <= 3.5\nmse = 37006764.965\nsamples = 128\nvalue = 60551.938", fillcolor="#f3c4a2"] ;
386 -> 400 ;
401 [label="duration <= 27.75\nmse = 55893833.707\nsamples = 15\nvalue = 67076.4", fillcolor="#f1bc96"] ;
400 -> 401 ;
402 [label="duration <= 25.79\nmse = 34338853.802\nsamples = 9\nvalue = 71317.556", fillcolor="#f0b78e"] ;
401 -> 402 ;
403 [label="mse = 22096991.36\nsamples = 5\nvalue = 67148.2", fillcolor="#f1bc95"] ;
402 -> 403 ;
404 [label="mse = 750015.688\nsamples = 4\nvalue = 76529.25", fillcolor="#efb084"] ;
402 -> 404 ;
405 [label="source_city <= 3.0\nmse = 20773551.889\nsamples = 6\nvalue = 60714.667", fillcolor="#f3c4a2"] ;
401 -> 405 ;
406 [label="mse = 12518768.222\nsamples = 3\nvalue = 64335.667", fillcolor="#f2bf9b"] ;
405 -> 406 ;
407 [label="mse = 2805053.556\nsamples = 3\nvalue = 57093.667", fillcolor="#f4c8a9"] ;
405 -> 407 ;
408 [label="source_city <= 4.0\nmse = 28098838.387\nsamples = 113\nvalue = 59685.858", fillcolor="#f3c5a4"] ;
400 -> 408 ;
409 [label="duration <= 25.665\nmse = 23494804.983\nsamples = 99\nvalue = 60527.192", fillcolor="#f3c4a2"] ;
408 -> 409 ;
410 [label="mse = 9269651.892\nsamples = 28\nvalue = 57948.964", fillcolor="#f3c7a7"] ;
409 -> 410 ;
411 [label="mse = 25449458.012\nsamples = 71\nvalue = 61543.958", fillcolor="#f3c3a0"] ;
409 -> 411 ;
412 [label="days_left <= 46.5\nmse = 20254761.673\nsamples = 14\nvalue = 53736.429", fillcolor="#f5ccaf"] ;
408 -> 412 ;
413 [label="mse = 3167375.929\nsamples = 13\nvalue = 52582.385", fillcolor="#f5ceb1"] ;
412 -> 413 ;
414 [label="mse = 0.0\nsamples = 1\nvalue = 68739.0", fillcolor="#f1ba92"] ;
412 -> 414 ;
}